1559195809.0112681 23.69499 -0.40978 -1.54934 0.99955 0.00410 0.02941 -0.00445
1559195809.2113743 25.62083 -0.46414 -1.43939 0.99968 0.00072 0.02483 -0.00434
1559195809.411251 28.14995 -0.49923 -1.55306 0.99957 -0.01003 0.02702 -0.00469
1559195809.6115 20.65294 -0.35488 -1.23534 0.99940 -0.01562 0.03046 -0.00526
1559195809.8113174 25.20723 -0.46672 -1.56742 0.99933 -0.02202 0.02878 -0.00534
1559195810.0114295 24.11325 -0.44002 -1.47732 0.99919 -0.02967 0.02668 -0.00560
1559195810.2112806 26.96863 -0.49901 -1.67904 0.99881 -0.04046 0.02664 -0.00537
1559195810.4113045 29.12041 -0.55225 -1.81684 0.99864 -0.04518 0.02566 -0.00533
1559195810.6113791 29.55661 -0.55712 -1.82330 0.99854 -0.04908 0.02189 -0.00544
1559195810.8114707 29.69227 -0.56542 -1.78858 0.99854 -0.05131 0.01608 -0.00543
1559195811.0114834 29.50319 -0.56263 -1.72337 0.99841 -0.05453 0.01314 -0.00555
1559195811.21137 30.09219 -0.57897 -1.70598 0.99819 -0.05716 0.01797 -0.00583
1559195811.411395 30.94413 -0.60001 -1.71531 0.99812 -0.05599 0.02385 -0.00658
1559195811.6115031 31.56897 -0.61697 -1.74276 0.99821 -0.05463 0.02332 -0.00683
1559195811.8114033 32.17919 -0.63994 -1.77788 0.99835 -0.05243 0.02233 -0.00736
1559195812.0114386 32.73444 -0.65714 -1.79460 0.99839 -0.05076 0.02417 -0.00782
1559195812.2114842 33.12454 -0.67441 -1.81055 0.99839 -0.05013 0.02523 -0.00830
1559195812.4114227 33.66634 -0.70169 -1.84410 0.99852 -0.04777 0.02437 -0.00871
1559195812.6112957 34.41401 -0.73990 -1.88731 0.99860 -0.04611 0.02442 -0.00896
1559195812.8114471 34.82125 -0.76065 -1.91091 0.99865 -0.04466 0.02467 -0.00941
1559195813.0113878 35.32798 -0.78752 -1.94026 0.99881 -0.04141 0.02400 -0.00963
1559195813.2114275 35.96764 -0.81444 -1.98063 0.99897 -0.03745 0.02382 -0.00971
1559195813.4115589 37.00139 -0.85141 -2.02957 0.99911 -0.03326 0.02394 -0.00978
1559195813.6115887 38.18762 -0.88561 -2.08845 0.99914 -0.03287 0.02347 -0.00965
1559195813.8116224 39.34877 -0.91852 -2.14424 0.99913 -0.03288 0.02397 -0.00959
1559195814.0115569 40.49359 -0.95344 -2.19916 0.99915 -0.03031 0.02631 -0.00987
1559195814.2114432 41.59279 -0.98254 -2.25833 0.99905 -0.03245 0.02744 -0.00943
1559195814.4114244 42.82731 -1.02797 -2.33171 0.99916 -0.02973 0.02684 -0.00848
1559195814.6114492 44.03544 -1.05769 -2.40449 0.99925 -0.02776 0.02597 -0.00761
1559195814.8113804 45.31350 -1.08697 -2.47560 0.99932 -0.02703 0.02409 -0.00629
1559195815.0113442 46.60032 -1.11478 -2.54327 0.99934 -0.02752 0.02319 -0.00454
1559195815.2113943 47.74227 -1.13413 -2.59681 0.99929 -0.02691 0.02620 -0.00257
1559195815.4111743 48.96446 -1.14969 -2.65995 0.99903 -0.03114 0.03109 -0.00036
1559195815.611275 50.06508 -1.15529 -2.73138 0.99902 -0.03402 0.02812 0.00222
1559195815.811342 51.16078 -1.16367 -2.80475 0.99933 -0.03017 0.02039 0.00438
1559195816.011361 52.35645 -1.16217 -2.85197 0.99931 -0.03002 0.02100 0.00663
1559195816.2115154 53.50109 -1.14972 -2.88884 0.99916 -0.03010 0.02633 0.00849
1559195816.411357 54.65797 -1.13861 -2.94835 0.99912 -0.02885 0.02888 0.00970
1559195816.611324 56.01529 -1.12135 -3.03700 0.99895 -0.03356 0.02930 0.01088
1559195816.8114188 57.47389 -1.11919 -3.12578 0.99902 -0.03255 0.02758 0.01170
1559195817.0113468 59.08679 -1.10604 -3.21858 0.99903 -0.03409 0.02485 0.01247
1559195817.211317 60.71920 -1.08790 -3.30404 0.99902 -0.03531 0.02302 0.01384
1559195817.4114993 62.47055 -1.07507 -3.39327 0.99894 -0.03562 0.02476 0.01516
1559195817.6112783 63.68915 -1.04724 -3.45394 0.99896 -0.03513 0.02386 0.01672
1559195817.8114104 65.44830 -1.02249 -3.54409 0.99901 -0.03460 0.02093 0.01876
1559195818.0115519 66.68007 -0.97599 -3.59668 0.99885 -0.03588 0.02342 0.02131
1559195818.2115982 68.40319 -0.93438 -3.67428 0.99868 -0.03669 0.02722 0.02334
1559195818.4129243 69.59909 -0.87055 -3.75223 0.99859 -0.03705 0.02842 0.02537
1559195818.6113555 71.09413 -0.81439 -3.84470 0.99861 -0.03557 0.02736 0.02757
1559195818.8112068 72.77219 -0.73845 -3.94909 0.99854 -0.03593 0.02747 0.02969
1559195819.011386 74.53031 -0.65965 -4.04246 0.99844 -0.03626 0.02782 0.03192
1559195819.2114635 75.79958 -0.57440 -4.12031 0.99838 -0.03597 0.02777 0.03410
1559195819.411391 77.49024 -0.48754 -4.21536 0.99833 -0.03537 0.02790 0.03628
1559195819.6112647 78.83267 -0.40239 -4.29210 0.99828 -0.03485 0.02741 0.03842
1559195819.8111708 80.43299 -0.31364 -4.37240 0.99822 -0.03419 0.02695 0.04073
1559195820.0114088 81.72446 -0.20672 -4.43913 0.99817 -0.03268 0.02736 0.04281
1559195820.211632 83.30137 -0.09140 -4.52840 0.99805 -0.03310 0.02746 0.04514
1559195820.411206 84.51713 0.03374 -4.61589 0.99797 -0.03291 0.02704 0.04729
1559195820.61154 86.13981 0.16803 -4.71439 0.99782 -0.03475 0.02690 0.04925
1559195820.8114338 87.79066 0.31669 -4.81552 0.99774 -0.03609 0.02701 0.04983
1559195821.0116165 89.53077 0.46248 -4.90987 0.99771 -0.03601 0.02691 0.05046
1559195821.2112489 91.44522 0.61447 -5.01142 0.99772 -0.03638 0.02478 0.05109
1559195821.411412 92.84655 0.73538 -5.08177 0.99771 -0.03598 0.02482 0.05157
1559195821.6114576 94.50786 0.88123 -5.15159 0.99772 -0.03425 0.02629 0.05193
1559195821.8113976 96.06586 1.02419 -5.22164 0.99774 -0.03224 0.02703 0.05236
1559195822.0115385 97.48275 1.15509 -5.30139 0.99771 -0.03219 0.02747 0.05272
1559195822.2113419 98.94024 1.30331 -5.38018 0.99777 -0.02958 0.02797 0.05289
1559195822.411475 100.33637 1.43351 -5.46676 0.99773 -0.02923 0.02920 0.05317
1559195822.6115468 101.61888 1.56155 -5.54189 0.99776 -0.02675 0.02875 0.05414
1559195822.8113387 102.95753 1.69861 -5.62286 0.99768 -0.02725 0.02851 0.05545
1559195823.011323 104.47889 1.85493 -5.69560 0.99764 -0.02519 0.02953 0.05662
1559195823.211409 105.83665 1.99027 -5.76845 0.99760 -0.02345 0.02961 0.05795
1559195823.4112368 107.43418 2.16298 -5.84556 0.99765 -0.02082 0.02763 0.05913
1559195823.6113725 109.27742 2.33888 -5.92868 0.99768 -0.01854 0.02520 0.06047
1559195823.813443 110.61134 2.47556 -5.98868 0.99762 -0.01839 0.02402 0.06194
1559195824.0113244 112.22621 2.65458 -6.04704 0.99756 -0.01669 0.02447 0.06317
1559195824.2113824 113.71308 2.83378 -6.10820 0.99743 -0.01663 0.02662 0.06438
1559195824.4115946 115.28172 3.02154 -6.19662 0.99729 -0.01593 0.02887 0.06583
1559195824.612058 117.00200 3.21541 -6.28715 0.99719 -0.01448 0.02830 0.06784
1559195824.81147 118.80939 3.44129 -6.39799 0.99710 -0.01434 0.02632 0.07001
1559195825.0115561 120.23006 3.64564 -6.48325 0.99697 -0.01487 0.02526 0.07201
1559195825.2115147 121.82270 3.87965 -6.56525 0.99683 -0.01416 0.02614 0.07375
1559195825.4113321 123.52038 4.12127 -6.64652 0.99667 -0.01417 0.02680 0.07571
1559195825.6115928 125.34333 4.37968 -6.76065 0.99653 -0.01480 0.02614 0.07768
1559195825.8114848 127.19155 4.64960 -6.87218 0.99636 -0.01561 0.02640 0.07951
1559195826.0114613 129.15685 4.93277 -6.98161 0.99616 -0.01606 0.02873 0.08115
1559195826.2115796 131.25067 5.23674 -7.11277 0.99603 -0.01643 0.02886 0.08261
1559195826.4116116 133.45680 5.56217 -7.25613 0.99596 -0.01687 0.02650 0.08413
1559195826.6116529 135.32199 5.90407 -7.35283 0.99591 -0.01698 0.02489 0.08513
1559195826.8116724 137.82496 6.24694 -7.48406 0.99572 -0.01598 0.02649 0.08704
1559195827.0118241 140.14139 6.59738 -7.59842 0.99551 -0.01598 0.02915 0.08857
1559195827.2114165 142.28272 6.94623 -7.72210 0.99542 -0.01660 0.02578 0.09057
1559195827.4116192 144.28390 7.28420 -7.83273 0.99534 -0.01473 0.02360 0.09230
1559195827.6116962 146.16449 7.60834 -7.89073 0.99508 -0.01401 0.02815 0.09393
1559195827.8116026 148.21895 7.96458 -8.03680 0.99494 -0.00844 0.02825 0.09606
1559195828.0115838 150.04753 8.31015 -8.14967 0.99454 -0.00858 0.02971 0.09968
1559195828.2116368 152.06889 8.71436 -8.23624 0.99411 -0.01080 0.03221 0.10290
1559195828.4117873 154.33123 9.10212 -8.41450 0.99379 -0.00898 0.03042 0.10664
1559195828.6116168 155.71757 9.46974 -8.46890 0.99369 -0.00585 0.02740 0.10864
1559195828.811706 157.94347 9.90099 -8.59604 0.99338 -0.00548 0.02537 0.11188
1559195829.0116403 159.69253 10.30814 -8.65628 0.99308 -0.00399 0.02774 0.11404
1559195829.2140622 161.37165 10.70155 -8.72062 0.99293 -0.00050 0.02493 0.11608
1559195829.4118164 162.80552 11.07126 -8.73810 0.99281 0.00261 0.01962 0.11802
1559195829.611642 164.43710 11.46654 -8.78003 0.99248 0.00393 0.02261 0.12023
1559195829.8115816 166.06658 11.85954 -8.81511 0.99212 0.00906 0.02852 0.12167
1559195830.0116937 167.76352 12.26754 -8.88764 0.99186 0.01438 0.02702 0.12356
1559195830.2117567 169.42218 12.68891 -8.95347 0.99166 0.01729 0.02443 0.12539
1559195830.4116447 171.12441 13.12210 -9.00596 0.99122 0.02342 0.02983 0.12665
1559195830.6116793 172.84133 13.58899 -9.09027 0.99113 0.02109 0.02940 0.12789
1559195830.8117323 174.63021 14.05910 -9.18494 0.99114 0.01963 0.02240 0.12946
1559195831.0131755 176.37754 14.53316 -9.24819 0.99118 0.01542 0.01701 0.13050
1559195831.2115755 178.33913 15.02369 -9.30277 0.99096 0.01419 0.02057 0.13181
1559195831.4114263 180.31866 15.52455 -9.39913 0.99079 0.01420 0.02232 0.13283
1559195831.6116576 182.11050 15.98551 -9.43687 0.99063 0.01527 0.02286 0.13381
1559195831.8115072 183.99680 16.47309 -9.51403 0.99052 0.01466 0.02342 0.13459
1559195832.0115297 185.82055 16.95352 -9.58912 0.99037 0.01386 0.02681 0.13515
1559195832.2116532 187.61839 17.42867 -9.68541 0.99020 0.01344 0.03099 0.13552
1559195832.4115572 189.45042 17.91003 -9.79363 0.99017 0.01339 0.03169 0.13554
1559195832.6114602 191.26976 18.39183 -9.91062 0.99033 0.01382 0.02855 0.13508
1559195832.8117766 193.17047 18.88755 -10.01674 0.99051 0.01413 0.02556 0.13434
1559195833.011827 195.05461 19.38786 -10.09811 0.99063 0.01439 0.02438 0.13357
1559195833.2117348 196.90039 19.86539 -10.17502 0.99077 0.01397 0.02279 0.13290
1559195833.4117439 198.80828 20.36162 -10.25295 0.99090 0.01339 0.02154 0.13221
1559195833.611787 200.62842 20.83522 -10.32058 0.99100 0.01263 0.02133 0.13154
1559195833.8116968 202.52108 21.33351 -10.38315 0.99108 0.01398 0.02073 0.13089
1559195834.0116627 204.48276 21.86468 -10.46351 0.99118 0.01504 0.01939 0.13021
1559195834.2116246 206.23901 22.28378 -10.52524 0.99131 0.01465 0.01984 0.12922
1559195834.4116724 208.15600 22.77648 -10.59508 0.99150 0.01364 0.01950 0.12793
1559195834.6118453 209.99471 23.23318 -10.65464 0.99169 0.01532 0.01895 0.12633
1559195834.8117218 211.78939 23.66780 -10.71814 0.99192 0.01539 0.01874 0.12451
1559195835.0117364 213.58731 24.10784 -10.78253 0.99211 0.01483 0.02080 0.12271
1559195835.2117643 215.28764 24.51246 -10.85052 0.99231 0.01284 0.02219 0.12110
1559195835.4117765 216.94331 24.89769 -10.91976 0.99256 0.01229 0.01953 0.11959
1559195835.6117256 218.51693 25.26227 -10.98234 0.99281 0.00991 0.01664 0.11813
1559195835.8116658 220.12764 25.63304 -11.03137 0.99290 0.00883 0.01979 0.11693
1559195836.011698 221.74202 25.99651 -11.07753 0.99287 0.01100 0.02022 0.11695
1559195836.2118134 223.46022 26.33887 -11.16634 0.99263 0.01261 0.01872 0.11905
1559195836.4119182 225.15119 26.78018 -11.20277 0.99237 0.01116 0.01923 0.12125
1559195836.6116428 226.76311 27.16247 -11.25029 0.99208 0.01161 0.01951 0.12354
1559195836.811556 228.27300 27.53368 -11.29277 0.99183 0.01281 0.01885 0.12548
1559195837.0117319 229.61688 27.87186 -11.32190 0.99154 0.01445 0.01936 0.12756
1559195837.2116566 230.96617 28.22880 -11.36709 0.99127 0.01537 0.02037 0.12938
1559195837.411584 232.32250 28.59263 -11.42087 0.99112 0.01494 0.01968 0.13067
1559195837.6115751 233.71630 28.96799 -11.46784 0.99101 0.01487 0.01954 0.13153
1559195837.811733 235.09476 29.34803 -11.51666 0.99110 0.01286 0.02047 0.13092
1559195838.012375 236.48687 29.71904 -11.56811 0.99144 0.01276 0.02246 0.12800
1559195838.211741 237.87146 30.06145 -11.63267 0.99172 0.01651 0.02475 0.12489
1559195838.4120352 239.18690 30.39985 -11.69604 0.99232 0.01459 0.02451 0.12039
1559195838.611954 240.60413 30.70611 -11.76547 0.99302 0.01910 0.02365 0.11399
1559195838.811562 242.02131 31.00325 -11.83053 0.99410 0.01932 0.02168 0.10455
1559195839.0116246 243.14702 31.19160 -11.88597 0.99527 0.01942 0.02214 0.09255
1559195839.2116878 244.13499 31.31383 -11.92850 0.99671 0.01798 0.02261 0.07572
1559195839.4118314 244.94136 31.35339 -11.95974 0.99810 0.01464 0.02148 0.05582
1559195839.6116827 245.45171 31.25473 -11.98378 0.99911 0.01385 0.01952 0.03469
1559195839.812431 246.24489 31.20429 -12.01515 0.99973 0.01184 0.01679 0.01104
1559195840.0117126 246.86057 31.06627 -12.02943 0.99975 0.00900 0.01365 -0.01532
1559195840.2116852 247.11918 30.76749 -12.04530 0.99894 0.00851 0.01396 -0.04298
1559195840.4116633 247.78398 30.50708 -12.06784 0.99733 0.01239 0.01622 -0.07017
1559195840.6116233 248.47246 30.27606 -12.07765 0.99506 -0.00112 0.01411 -0.09828
1559195840.81158 249.20123 29.98367 -12.11211 0.99180 -0.00513 0.01534 -0.12676
1559195841.0117323 250.10880 29.65964 -12.14255 0.98778 -0.00342 0.01738 -0.15484
1559195841.2117362 250.90439 29.30380 -12.15999 0.98305 -0.00802 0.01597 -0.18249
1559195841.4118876 251.66991 28.90549 -12.20102 0.97756 -0.01135 0.01255 -0.20996
1559195841.6118038 252.48058 28.47558 -12.23288 0.97143 -0.01094 0.01170 -0.23679
1559195841.8117473 253.12165 27.99535 -12.24012 0.96494 -0.00869 0.01347 -0.26197
1559195842.0118556 253.85306 27.51088 -12.27418 0.95793 -0.00937 0.01490 -0.28645
1559195842.2119956 254.47577 27.00402 -12.31215 0.95126 -0.00968 0.01296 -0.30796
1559195842.411916 255.08669 26.50248 -12.33894 0.94469 -0.00943 0.01284 -0.32758
1559195842.6118402 255.64341 25.98976 -12.36356 0.93825 -0.00939 0.01241 -0.34562
1559195842.81204 256.13737 25.47199 -12.37972 0.93155 -0.00938 0.01165 -0.36330
1559195843.0119395 256.59263 24.95017 -12.38042 0.92466 -0.01015 0.01087 -0.38049
1559195843.2117686 257.05972 24.41564 -12.41249 0.91740 -0.01011 0.00835 -0.39774
1559195843.4136827 257.50967 23.84692 -12.40969 0.90997 -0.00803 0.00484 -0.41456
1559195843.6120613 257.93409 23.27700 -12.40280 0.90215 -0.00669 0.00517 -0.43134
1559195843.8119311 258.35811 22.69681 -12.38827 0.89389 -0.01371 0.00794 -0.44801
1559195844.0119908 258.71944 22.07031 -12.37753 0.88553 -0.00949 0.00090 -0.46449
1559195844.212064 259.05747 21.44039 -12.38031 0.87649 -0.00726 -0.00292 -0.48135
1559195844.4119542 259.42097 20.79943 -12.36436 0.86647 -0.01532 0.00143 -0.49900
1559195844.6119113 259.71500 20.12825 -12.33050 0.85678 -0.01032 0.00407 -0.51556
1559195844.8118403 259.99757 19.42091 -12.31930 0.84647 -0.00872 0.00245 -0.53237
1559195845.011923 260.26127 18.70560 -12.32536 0.83550 -0.01192 0.00181 -0.54935
1559195845.2118883 260.50549 17.94776 -12.32209 0.82409 -0.01051 0.00127 -0.56635
1559195845.4119558 260.70695 17.18577 -12.31567 0.81211 -0.00657 -0.00002 -0.58347
1559195845.6118073 260.90191 16.41720 -12.30635 0.79930 -0.00894 0.00069 -0.60087
1559195845.8119926 261.06381 15.62017 -12.30336 0.78616 -0.00990 -0.00074 -0.61795
1559195846.0120108 261.18965 14.79449 -12.29951 0.77249 -0.00834 -0.00404 -0.63497
1559195846.2121372 261.27953 13.95897 -12.28728 0.75993 -0.00706 -0.00465 -0.64995
1559195846.411832 261.33839 13.11446 -12.27501 0.74966 -0.00655 -0.00481 -0.66177
1559195846.6118488 261.39435 12.24760 -12.27359 0.74146 -0.00637 -0.00478 -0.67095
1559195846.811912 261.44417 11.36851 -12.27179 0.73445 -0.00647 -0.00399 -0.67862
1559195847.012483 261.47929 10.48182 -12.26752 0.72743 -0.00607 -0.00389 -0.68615
1559195847.2122118 261.50396 9.59216 -12.26805 0.72110 -0.00648 -0.00478 -0.69278
1559195847.412151 261.51204 8.68914 -12.26188 0.71588 -0.00669 -0.00675 -0.69816
1559195847.612252 261.51989 7.75330 -12.25389 0.71155 -0.00636 -0.00782 -0.70256
1559195847.812014 261.52180 6.79372 -12.23845 0.70779 -0.00526 -0.00802 -0.70635
1559195848.0119042 261.51415 5.84010 -12.22776 0.70552 -0.00356 -0.00928 -0.70862
1559195848.211969 261.50293 4.85535 -12.22142 0.70474 -0.00255 -0.01031 -0.70939
1559195848.4118907 261.49890 3.83787 -12.20899 0.70442 -0.00216 -0.00986 -0.70971
1559195848.6120076 261.49834 2.83393 -12.19198 0.70434 -0.00093 -0.01063 -0.70978
1559195848.8129325 261.50451 1.78653 -12.17875 0.70422 -0.00070 -0.01143 -0.70989
1559195849.012011 261.51406 0.70822 -12.16989 0.70456 0.00007 -0.01013 -0.70957
1559195849.211946 261.52313 -0.40166 -12.15519 0.70512 0.00055 -0.00814 -0.70904
1559195849.4119165 261.53283 -1.52081 -12.14604 0.70565 -0.00098 -0.00961 -0.70850
1559195849.61206 261.54961 -2.69400 -12.13703 0.70607 -0.00342 -0.00747 -0.70809
1559195849.8119912 261.56289 -3.89968 -12.11443 0.70679 -0.00247 -0.00365 -0.70741
1559195850.0121193 261.57082 -5.10844 -12.11338 0.70695 -0.00196 -0.00797 -0.70722
1559195850.2122126 261.59683 -6.32538 -12.11810 0.70694 -0.00691 -0.00784 -0.70720
1559195850.411954 261.61677 -7.53561 -12.10624 0.70694 -0.00426 -0.00744 -0.70722
1559195850.612151 261.58515 -8.84317 -12.09138 0.70679 0.00063 -0.00650 -0.70740
1559195850.8119411 261.58572 -10.07330 -12.08813 0.70614 0.00367 -0.00495 -0.70805
1559195851.0118625 261.59622 -11.31667 -12.10604 0.70611 -0.00039 -0.00643 -0.70807
1559195851.211938 261.59200 -12.57269 -12.11840 0.70578 0.00110 -0.00909 -0.70837
1559195851.4120688 261.58179 -13.83969 -12.10988 0.70522 0.00342 -0.00900 -0.70893
1559195851.612068 261.57074 -15.13995 -12.10864 0.70499 0.00136 -0.00749 -0.70917
1559195851.812037 261.55129 -16.45121 -12.10425 0.70503 0.00300 -0.00639 -0.70914
1559195852.0119696 261.54445 -17.75611 -12.10602 0.70489 0.00078 -0.00759 -0.70928
1559195852.2119708 261.52352 -19.08414 -12.10436 0.70472 -0.00223 -0.00762 -0.70945
1559195852.4122875 261.49086 -20.41030 -12.10650 0.70450 -0.00072 -0.01016 -0.70963
1559195852.612044 261.46132 -21.73732 -12.08311 0.70493 0.00035 -0.01204 -0.70918
1559195852.8120291 261.46042 -23.05848 -12.06579 0.70546 0.00058 -0.00905 -0.70869
1559195853.0121286 261.45402 -24.40311 -12.05234 0.70579 0.00138 -0.00764 -0.70838
1559195853.2121286 261.41723 -25.75744 -12.03349 0.70592 0.00210 -0.00841 -0.70823
1559195853.4121966 261.38897 -27.10109 -12.02094 0.70597 0.00161 -0.00887 -0.70818
1559195853.6122165 261.35300 -28.44208 -11.99820 0.70570 0.00145 -0.00989 -0.70844
1559195853.8121822 261.31393 -29.77078 -11.97353 0.70516 0.00169 -0.01157 -0.70895
1559195854.0121534 261.28755 -31.10700 -11.95249 0.70462 0.00308 -0.00785 -0.70953
1559195854.2121606 261.25685 -32.44125 -11.94444 0.70407 0.00481 -0.00814 -0.71007
1559195854.4121234 261.22789 -33.75072 -11.94465 0.70331 0.00417 -0.01064 -0.71079
1559195854.6120226 261.19798 -35.04423 -11.92874 0.70302 0.00609 -0.01013 -0.71107
1559195854.8122478 261.16728 -36.33769 -11.91335 0.70263 0.00650 -0.00957 -0.71147
1559195855.012456 261.13691 -37.61119 -11.90553 0.70231 0.00657 -0.01091 -0.71176
1559195855.2123015 261.10222 -38.88205 -11.89524 0.70220 0.00900 -0.01175 -0.71183
1559195855.412113 261.07043 -40.14304 -11.89188 0.70203 0.01081 -0.01249 -0.71196
1559195855.6122043 261.03717 -41.40707 -11.88578 0.70180 0.01183 -0.01556 -0.71210
1559195855.8136902 261.00121 -42.69714 -11.87662 0.70151 0.01275 -0.01613 -0.71237
1559195856.0122414 260.97723 -43.98513 -11.86919 0.70127 0.01183 -0.01507 -0.71264
1559195856.2121878 260.94325 -45.27044 -11.86438 0.70105 0.01274 -0.01574 -0.71282
1559195856.412075 260.92315 -46.55028 -11.85841 0.70062 0.00570 -0.01454 -0.71336
1559195856.6121175 260.90349 -47.83309 -11.85137 0.70084 -0.00257 -0.01548 -0.71314
1559195856.8121305 260.86966 -49.14749 -11.81616 0.70079 -0.00020 -0.01052 -0.71329
1559195857.012108 260.83340 -50.45209 -11.78728 0.70060 0.00501 -0.00166 -0.71354
1559195857.2123616 260.80637 -51.72362 -11.79924 0.70072 0.00086 -0.00544 -0.71341
1559195857.4123664 260.76844 -53.00772 -11.81326 0.70120 -0.00175 -0.01083 -0.71288
1559195857.6130247 260.74424 -54.31741 -11.79216 0.70167 0.00037 -0.00436 -0.71249
1559195857.8123808 260.72259 -55.55246 -11.78662 0.70209 0.00103 -0.00152 -0.71209
1559195858.0123324 260.69806 -56.80039 -11.80484 0.70250 -0.00153 -0.00122 -0.71168
1559195858.212176 260.67028 -58.06100 -11.80955 0.70289 -0.00002 0.00057 -0.71130
1559195858.4122572 260.64142 -59.33395 -11.81760 0.70302 0.00534 0.00082 -0.71115
1559195858.6121724 260.61007 -60.61728 -11.84174 0.70301 0.01102 -0.00256 -0.71109
1559195858.8121612 260.59974 -61.91107 -11.87079 0.70358 0.00428 -0.00557 -0.71058
1559195859.01219 260.58569 -63.22243 -11.87685 0.70405 0.00170 -0.00927 -0.71009
1559195859.2120523 260.56897 -64.50674 -11.85369 0.70405 0.00320 -0.00592 -0.71012
1559195859.4120266 260.55086 -65.77173 -11.85567 0.70445 0.00114 -0.00408 -0.70974
1559195859.6121864 260.52719 -67.04445 -11.86065 0.70484 0.00113 -0.00394 -0.70935
1559195859.8123982 260.52199 -68.30539 -11.85515 0.70517 0.00146 0.00076 -0.70904
1559195860.0121593 260.50542 -69.54020 -11.86108 0.70544 0.00036 0.00080 -0.70877
1559195860.2121518 260.49246 -70.78018 -11.87125 0.70563 -0.00071 -0.00043 -0.70858
1559195860.412283 260.49194 -72.01640 -11.87203 0.70582 -0.00102 0.00018 -0.70839
1559195860.6121933 260.47872 -73.18841 -11.86969 0.70570 -0.00008 -0.00043 -0.70851
1559195860.8123672 260.47032 -74.30872 -11.86493 0.70552 -0.00043 0.00053 -0.70869
1559195861.0122762 260.45595 -75.32546 -11.85794 0.70557 -0.00119 -0.00018 -0.70864
1559195861.2122564 260.44474 -76.49956 -11.85271 0.70557 -0.00213 -0.00116 -0.70863
1559195861.4122756 260.43379 -77.61749 -11.84244 0.70542 -0.00553 0.00084 -0.70876
1559195861.6120844 260.42591 -78.43961 -11.83404 0.70551 -0.00536 0.00192 -0.70868
1559195861.8122065 260.40922 -79.57670 -11.83007 0.70529 -0.00434 0.00384 -0.70889
1559195862.0124023 260.39317 -80.71527 -11.83300 0.70531 -0.00427 0.00644 -0.70886
1559195862.2123175 260.37108 -81.63465 -11.84076 0.70531 -0.00212 0.00415 -0.70889
1559195862.4123235 260.35469 -82.58102 -11.84667 0.70516 -0.00201 0.00417 -0.70903
1559195862.6121266 260.35022 -83.30476 -11.84449 0.70510 -0.00308 0.00499 -0.70908
1559195862.8122442 260.33860 -84.30247 -11.84703 0.70524 -0.00091 0.00279 -0.70896
1559195863.0120952 260.33314 -84.94757 -11.84576 0.70518 0.00030 0.00178 -0.70903
1559195863.2122874 260.32454 -85.92118 -11.85911 0.70511 -0.00029 0.00225 -0.70909
1559195863.4122753 260.31282 -86.58624 -11.86358 0.70519 0.00073 0.00168 -0.70901
1559195863.6121671 260.29938 -87.51658 -11.87286 0.70536 0.00254 0.00066 -0.70884
1559195863.812454 260.29511 -88.03373 -11.87780 0.70543 0.00426 0.00013 -0.70877
1559195864.0123503 260.28594 -88.84118 -11.88198 0.70542 0.00523 -0.00075 -0.70877
1559195864.2121315 260.29043 -89.25666 -11.88088 0.70534 0.00496 -0.00066 -0.70885
1559195864.412198 260.28443 -89.61027 -11.88639 0.70527 0.00571 -0.00098 -0.70891
1559195864.6121404 260.26614 -90.30080 -11.90179 0.70525 0.00679 -0.00190 -0.70892
1559195864.81227 260.27232 -90.63856 -11.90454 0.70523 0.00687 -0.00124 -0.70895
1559195865.0121014 260.26562 -90.93820 -11.90007 0.70515 0.00811 -0.00221 -0.70901
1559195865.2120645 260.25215 -91.38063 -11.90876 0.70517 0.00838 -0.00168 -0.70898
1559195865.412291 260.25234 -91.65361 -11.91664 0.70520 0.00791 -0.00064 -0.70896
1559195865.6123216 260.24737 -91.88320 -11.92372 0.70527 0.00858 -0.00102 -0.70888
1559195865.8123755 260.24458 -92.06868 -11.92452 0.70544 0.00863 -0.00067 -0.70872
1559195866.0123656 260.24268 -92.21372 -11.92592 0.70545 0.00847 -0.00026 -0.70871
1559195866.2123752 260.23872 -92.33298 -11.92817 0.70546 0.00855 -0.00051 -0.70870
1559195866.4122906 260.23928 -92.41160 -11.92811 0.70547 0.00739 -0.00148 -0.70870
1559195866.6122975 260.24062 -92.44678 -11.92643 0.70547 0.00738 -0.00142 -0.70870
1559195866.8122172 260.24221 -92.46149 -11.92490 0.70546 0.00762 -0.00124 -0.70871
1559195867.0120933 260.24446 -92.45293 -11.92420 0.70545 0.00750 -0.00123 -0.70872
1559195867.2120833 260.24452 -92.47075 -11.92391 0.70546 0.00760 -0.00117 -0.70871
1559195867.4122732 260.24454 -92.48981 -11.92417 0.70545 0.00762 -0.00120 -0.70872
1559195867.6121755 260.24410 -92.50103 -11.92417 0.70547 0.00768 -0.00121 -0.70869
1559195867.8122547 260.24510 -92.50016 -11.92351 0.70546 0.00768 -0.00116 -0.70871
1559195868.0121317 260.24682 -92.48289 -11.92293 0.70544 0.00770 -0.00117 -0.70873
1559195868.2121148 260.24687 -92.47306 -11.92302 0.70542 0.00770 -0.00115 -0.70875
1559195868.4121253 260.24690 -92.45940 -11.92311 0.70541 0.00770 -0.00117 -0.70876
1559195868.6123714 260.24677 -92.43855 -11.92267 0.70541 0.00771 -0.00115 -0.70875
1559195868.8124568 260.24639 -92.41760 -11.92246 0.70542 0.00770 -0.00115 -0.70875
1559195869.0122187 260.24617 -92.39969 -11.92233 0.70541 0.00771 -0.00114 -0.70876
1559195869.212376 260.24640 -92.37944 -11.92215 0.70540 0.00770 -0.00113 -0.70876
1559195869.412297 260.24653 -92.36012 -11.92210 0.70541 0.00769 -0.00116 -0.70875
1559195869.612296 260.24651 -92.34244 -11.92275 0.70542 0.00775 -0.00119 -0.70874
1559195869.8122318 260.24648 -92.32457 -11.92310 0.70543 0.00769 -0.00120 -0.70873
1559195870.0123181 260.24672 -92.30141 -11.92239 0.70542 0.00765 -0.00117 -0.70875
1559195870.2124624 260.24629 -92.27244 -11.92200 0.70544 0.00770 -0.00119 -0.70873
1559195870.4123333 260.24616 -92.24062 -11.92168 0.70543 0.00767 -0.00118 -0.70873
1559195870.6122706 260.24632 -92.21727 -11.92110 0.70543 0.00766 -0.00116 -0.70874
1559195870.8125327 260.24675 -92.19293 -11.92059 0.70542 0.00763 -0.00118 -0.70875
1559195871.0122242 260.24672 -92.17058 -11.92016 0.70542 0.00764 -0.00116 -0.70874
1559195871.2122793 260.24682 -92.14863 -11.91992 0.70541 0.00759 -0.00115 -0.70876
1559195871.4121673 260.24694 -92.12660 -11.91936 0.70541 0.00757 -0.00114 -0.70875
1559195871.6122034 260.24676 -92.10455 -11.91916 0.70540 0.00759 -0.00116 -0.70877
1559195871.8123984 260.24584 -92.08151 -11.91921 0.70541 0.00760 -0.00121 -0.70875
1559195872.0135767 260.24384 -92.05881 -11.91875 0.70540 0.00753 -0.00118 -0.70877
1559195872.2123814 260.24338 -92.03630 -11.91832 0.70542 0.00756 -0.00122 -0.70875
1559195872.412269 260.24540 -92.01836 -11.91799 0.70540 0.00751 -0.00119 -0.70877
1559195872.6122046 260.24568 -92.00240 -11.91768 0.70539 0.00747 -0.00118 -0.70877
1559195872.8123765 260.24642 -91.98738 -11.91750 0.70538 0.00744 -0.00119 -0.70879
1559195873.0121837 260.24700 -91.97104 -11.91748 0.70536 0.00741 -0.00121 -0.70881
1559195873.2122464 260.24681 -91.95777 -11.91754 0.70538 0.00742 -0.00120 -0.70879
1559195873.4123507 260.24653 -91.94399 -11.91763 0.70538 0.00737 -0.00122 -0.70879
1559195873.61273 260.24696 -91.92729 -11.91728 0.70538 0.00736 -0.00124 -0.70879
1559195873.8134952 260.24736 -91.89091 -11.91665 0.70539 0.00734 -0.00124 -0.70878
1559195874.0125337 260.24874 -91.86921 -11.91628 0.70540 0.00730 -0.00122 -0.70877
1559195874.2123582 260.24973 -91.84466 -11.91576 0.70538 0.00736 -0.00126 -0.70879
1559195874.4122674 260.25038 -91.82944 -11.91526 0.70537 0.00727 -0.00120 -0.70881
1559195874.6122684 260.25020 -91.81807 -11.91503 0.70540 0.00731 -0.00124 -0.70877
1559195874.8123744 260.25086 -91.80788 -11.91472 0.70538 0.00728 -0.00123 -0.70879
1559195875.0124223 260.25585 -91.28117 -11.91330 0.70529 0.00641 -0.00125 -0.70889
1559195875.2124407 260.25627 -91.21150 -11.91199 0.70532 0.00642 -0.00124 -0.70886
1559195875.4124382 260.25589 -91.21252 -11.91283 0.70532 0.00645 -0.00128 -0.70886
1559195875.6123562 260.25506 -91.21457 -11.91330 0.70535 0.00648 -0.00128 -0.70883
1559195875.812412 260.25506 -91.21090 -11.91262 0.70534 0.00650 -0.00130 -0.70884
1559195876.0124154 260.25516 -91.20921 -11.91236 0.70534 0.00648 -0.00129 -0.70883
1559195876.2123318 260.25485 -91.21222 -11.91277 0.70536 0.00649 -0.00130 -0.70882
1559195876.4128056 260.25493 -91.21406 -11.91222 0.70536 0.00653 -0.00131 -0.70882
1559195876.612505 260.25508 -91.21399 -11.91142 0.70536 0.00660 -0.00132 -0.70882
1559195876.8122444 260.25512 -91.21562 -11.91141 0.70536 0.00659 -0.00129 -0.70882
1559195877.012447 260.25511 -91.21551 -11.91200 0.70535 0.00658 -0.00131 -0.70882
1559195877.2125056 260.25492 -91.21497 -11.91197 0.70536 0.00655 -0.00131 -0.70882
1559195877.4124463 260.25483 -91.21473 -11.91143 0.70536 0.00656 -0.00131 -0.70881
1559195877.6123695 260.25479 -91.21626 -11.91155 0.70537 0.00656 -0.00132 -0.70881
1559195877.8123631 260.25458 -91.21875 -11.91169 0.70538 0.00660 -0.00133 -0.70880
1559195878.0123465 260.25443 -91.22070 -11.91172 0.70537 0.00659 -0.00131 -0.70880
1559195878.212541 260.25480 -91.22028 -11.91166 0.70536 0.00655 -0.00128 -0.70882
1559195878.4122865 260.25483 -91.21967 -11.91210 0.70535 0.00653 -0.00129 -0.70883
1559195878.6122966 260.25474 -91.21657 -11.91227 0.70535 0.00655 -0.00130 -0.70882
1559195878.8123493 260.25467 -91.21472 -11.91207 0.70536 0.00657 -0.00130 -0.70882
1559195879.0124385 260.25465 -91.21565 -11.91181 0.70536 0.00657 -0.00130 -0.70882
1559195879.2124755 260.25463 -91.21801 -11.91181 0.70536 0.00657 -0.00129 -0.70882
1559195879.4124887 260.25471 -91.21888 -11.91175 0.70536 0.00658 -0.00130 -0.70882
1559195879.6124363 260.25498 -91.21898 -11.91187 0.70535 0.00654 -0.00129 -0.70883
1559195879.812457 260.25526 -91.21913 -11.91170 0.70535 0.00653 -0.00128 -0.70883
1559195880.0124545 260.25530 -91.22104 -11.91168 0.70535 0.00653 -0.00128 -0.70883
1559195880.21243 260.25559 -91.22178 -11.91182 0.70534 0.00649 -0.00126 -0.70884
1559195880.412484 260.25587 -91.22245 -11.91185 0.70533 0.00646 -0.00124 -0.70885
1559195880.6125124 260.25587 -91.22273 -11.91180 0.70534 0.00645 -0.00123 -0.70884
1559195880.812543 260.25617 -91.22220 -11.91116 0.70535 0.00647 -0.00120 -0.70883
1559195881.0132496 260.25588 -91.22292 -11.91133 0.70535 0.00648 -0.00121 -0.70882
1559195881.2124982 260.25565 -91.22386 -11.91155 0.70536 0.00648 -0.00120 -0.70882
1559195881.4123452 260.25532 -91.22497 -11.91165 0.70536 0.00649 -0.00121 -0.70882
1559195881.6126137 260.25468 -91.22000 -11.91146 0.70537 0.00648 -0.00123 -0.70881
1559195881.8124368 260.25476 -91.21906 -11.91124 0.70536 0.00648 -0.00122 -0.70882
1559195882.0125124 260.25482 -91.21699 -11.91108 0.70535 0.00647 -0.00122 -0.70882
1559195882.2124615 260.25357 -91.21471 -11.91304 0.70535 0.00640 -0.00119 -0.70883
1559195882.4124188 260.25292 -91.21199 -11.91412 0.70535 0.00637 -0.00118 -0.70883
1559195882.6123817 260.25315 -91.21201 -11.91417 0.70535 0.00635 -0.00118 -0.70883
1559195882.8137772 260.25260 -91.21820 -11.91461 0.70535 0.00636 -0.00118 -0.70883
1559195883.0125098 260.25164 -91.22501 -11.91486 0.70536 0.00638 -0.00120 -0.70882
1559195883.2124035 260.25141 -91.22750 -11.91481 0.70536 0.00639 -0.00120 -0.70882
1559195883.412348 260.25175 -91.22562 -11.91467 0.70535 0.00640 -0.00120 -0.70882
1559195883.6124473 260.25141 -91.22479 -11.91476 0.70536 0.00641 -0.00121 -0.70882
1559195883.8124206 260.25137 -91.22298 -11.91522 0.70536 0.00640 -0.00122 -0.70882
1559195884.0124776 260.25167 -91.22188 -11.91470 0.70536 0.00639 -0.00122 -0.70882
1559195884.2124803 260.25207 -91.22132 -11.91456 0.70535 0.00637 -0.00121 -0.70883
1559195884.4124289 260.25219 -91.22209 -11.91467 0.70535 0.00636 -0.00121 -0.70883
1559195884.6129425 260.25213 -91.22224 -11.91494 0.70536 0.00637 -0.00121 -0.70882
1559195884.81256 260.25237 -91.22190 -11.91450 0.70535 0.00639 -0.00121 -0.70883
1559195885.012492 260.25214 -91.22033 -11.91451 0.70535 0.00638 -0.00121 -0.70883
1559195885.2126422 260.25227 -91.21821 -11.91455 0.70534 0.00636 -0.00120 -0.70884
1559195885.4126236 260.25251 -91.21524 -11.91423 0.70534 0.00636 -0.00121 -0.70884
1559195885.6125858 260.25238 -91.21242 -11.91409 0.70534 0.00637 -0.00122 -0.70884
1559195885.8126123 260.25283 -91.21244 -11.91411 0.70534 0.00635 -0.00121 -0.70884
1559195886.0126796 260.25314 -91.21363 -11.91409 0.70533 0.00634 -0.00119 -0.70885
1559195886.212519 260.25300 -91.21525 -11.91419 0.70532 0.00637 -0.00120 -0.70886
1559195886.4147704 260.25260 -91.21489 -11.91430 0.70533 0.00640 -0.00122 -0.70885
1559195886.6125069 260.25253 -91.21478 -11.91426 0.70533 0.00641 -0.00122 -0.70885
1559195886.812597 260.25242 -91.21697 -11.91432 0.70534 0.00641 -0.00122 -0.70884
1559195887.0125043 260.25206 -91.22099 -11.91440 0.70535 0.00641 -0.00122 -0.70882
1559195887.212421 260.25174 -91.22397 -11.91440 0.70537 0.00642 -0.00124 -0.70881
1559195887.412658 260.25202 -91.22421 -11.91397 0.70538 0.00643 -0.00125 -0.70880
1559195887.6126852 260.25211 -91.22433 -11.91379 0.70537 0.00643 -0.00125 -0.70881
1559195887.8124082 260.25236 -91.22387 -11.91386 0.70535 0.00642 -0.00124 -0.70883
1559195888.0127313 260.25236 -91.22359 -11.91409 0.70534 0.00642 -0.00124 -0.70884
1559195888.2141445 260.25232 -91.22304 -11.91418 0.70534 0.00643 -0.00125 -0.70884
1559195888.4124882 260.25216 -91.22432 -11.91406 0.70535 0.00643 -0.00125 -0.70883
1559195888.612581 260.25184 -91.22696 -11.91363 0.70537 0.00646 -0.00125 -0.70881
1559195888.8125863 260.25226 -91.22931 -11.91345 0.70537 0.00646 -0.00126 -0.70881
1559195889.012581 260.25246 -91.23064 -11.91336 0.70537 0.00644 -0.00125 -0.70881
1559195889.2125857 260.25272 -91.22953 -11.91377 0.70536 0.00642 -0.00124 -0.70882
1559195889.412522 260.25210 -91.22845 -11.91418 0.70536 0.00642 -0.00124 -0.70882
1559195889.6126134 260.25189 -91.22570 -11.91446 0.70535 0.00645 -0.00124 -0.70883
1559195889.812596 260.25001 -91.22084 -11.91478 0.70534 0.00647 -0.00127 -0.70884
1559195890.0125523 260.24982 -91.21532 -11.91434 0.70534 0.00649 -0.00129 -0.70884
1559195890.2127316 260.25728 -91.19850 -11.91270 0.70537 0.00645 -0.00127 -0.70881
1559195890.4124742 260.25799 -91.19823 -11.91220 0.70537 0.00644 -0.00127 -0.70881
1559195890.6125145 260.25832 -91.19953 -11.91187 0.70538 0.00643 -0.00125 -0.70880
1559195890.812453 260.25847 -91.20279 -11.91195 0.70539 0.00624 -0.00147 -0.70880
1559195891.0125196 260.25809 -91.21165 -11.91324 0.70539 0.00578 -0.00187 -0.70879
1559195891.2125452 260.25781 -91.22303 -11.91288 0.70539 0.00583 -0.00186 -0.70880
1559195891.4124904 260.25713 -91.24227 -11.91252 0.70539 0.00568 -0.00191 -0.70879
1559195891.6125326 260.25803 -91.27854 -11.91232 0.70538 0.00507 -0.00229 -0.70881
1559195891.8147044 260.25810 -91.34927 -11.91538 0.70539 0.00461 -0.00249 -0.70880
1559195892.0125191 260.25765 -91.44572 -11.91636 0.70542 0.00480 -0.00267 -0.70877
1559195892.212653 260.25538 -91.57240 -11.91700 0.70521 0.00501 -0.00302 -0.70897
1559195892.4126468 260.25098 -91.73340 -11.91662 0.70501 0.00519 -0.00367 -0.70917
1559195892.6126268 260.23976 -91.96167 -11.91204 0.70495 0.00546 -0.00500 -0.70922
1559195892.8125505 260.23513 -92.21893 -11.91399 0.70459 0.00656 -0.00646 -0.70955
1559195893.012673 260.22886 -92.52165 -11.91960 0.70424 0.00773 -0.00740 -0.70988
1559195893.212644 260.21679 -92.94691 -11.92753 0.70396 0.00791 -0.00666 -0.71017
1559195893.4125214 260.20775 -93.35356 -11.92878 0.70344 0.00715 -0.00630 -0.71069
1559195893.6147034 260.16170 -93.90895 -11.96566 0.70341 0.00516 -0.00708 -0.71073
1559195893.8125145 260.18000 -94.43603 -11.94347 0.70268 0.00664 -0.00559 -0.71145
1559195894.012465 260.16534 -95.10738 -11.95612 0.70214 0.00946 -0.00668 -0.71194
1559195894.2123592 260.15178 -95.81907 -11.96364 0.70169 0.00862 -0.00631 -0.71240
1559195894.4127574 260.12780 -96.44312 -11.96870 0.70129 0.00862 -0.00452 -0.71281
1559195894.6123536 260.09818 -97.28222 -11.97700 0.70061 0.00964 -0.00501 -0.71346
1559195894.812555 260.07461 -98.00941 -11.98813 0.69915 0.00962 -0.00507 -0.71489
1559195895.012372 260.03170 -98.95662 -12.00258 0.69741 0.01006 -0.00580 -0.71657
1559195895.2124493 259.98779 -99.89055 -12.01466 0.69534 0.01113 -0.00782 -0.71856
1559195895.412612 259.94033 -100.83969 -12.02159 0.69335 0.01181 -0.00878 -0.72045
1559195895.6125515 259.88668 -101.82896 -12.03624 0.69125 0.01239 -0.00945 -0.72245
1559195895.8126066 259.82481 -102.84186 -12.04600 0.68910 0.01354 -0.00976 -0.72448
1559195896.0124967 259.75735 -103.85936 -12.05982 0.68676 0.01361 -0.01074 -0.72667
1559195896.2126017 259.68654 -104.89723 -12.07069 0.68455 0.01348 -0.01135 -0.72876
1559195896.4125328 259.59780 -105.98768 -12.07887 0.68208 0.01425 -0.01145 -0.73105
1559195896.6126504 259.49920 -107.06971 -12.09019 0.67963 0.01514 -0.01172 -0.73331
1559195896.812733 259.38884 -108.19290 -12.10500 0.67702 0.01510 -0.01205 -0.73571
1559195897.0126915 259.26960 -109.32663 -12.12176 0.67458 0.01470 -0.01175 -0.73796
1559195897.212571 259.14498 -110.45908 -12.13962 0.67239 0.01442 -0.01128 -0.73997
1559195897.41254 259.00953 -111.63612 -12.15335 0.67017 0.01407 -0.01097 -0.74199
1559195897.612432 258.86567 -112.81676 -12.16269 0.66843 0.01337 -0.01157 -0.74356
1559195897.8126447 258.70550 -114.04411 -12.17304 0.66759 0.01290 -0.01126 -0.74434
1559195898.012732 258.54199 -115.29751 -12.18589 0.66744 0.01424 -0.01108 -0.74445
1559195898.2126138 258.38203 -116.55399 -12.20189 0.66807 0.01538 -0.00945 -0.74388
1559195898.4125257 258.22447 -117.83937 -12.22126 0.66905 0.01574 -0.00879 -0.74299
1559195898.6126375 258.07535 -119.13869 -12.25063 0.66967 0.01493 -0.01098 -0.74243
1559195898.812703 257.95157 -120.42851 -12.27231 0.67048 0.01358 -0.01173 -0.74171
1559195899.0126793 257.81447 -121.74638 -12.28267 0.67202 0.01296 -0.01070 -0.74035
1559195899.2126985 257.68127 -123.05280 -12.29301 0.67336 0.01372 -0.01341 -0.73907
1559195899.4126546 257.55217 -124.38068 -12.30812 0.67500 0.01394 -0.01600 -0.73751
1559195899.6125946 257.43127 -125.70589 -12.31446 0.67705 0.01587 -0.01729 -0.73556
1559195899.8126283 257.30815 -127.07214 -12.31552 0.67998 0.01855 -0.01799 -0.73278
1559195900.0126576 257.21912 -128.40748 -12.32601 0.68269 0.01949 -0.01835 -0.73022
1559195900.2126918 257.13651 -129.76215 -12.33358 0.68538 0.01995 -0.01829 -0.72768
1559195900.4128547 257.06705 -131.13552 -12.34353 0.68799 0.02120 -0.01928 -0.72515
1559195900.614588 257.00974 -132.53982 -12.36038 0.69047 0.02190 -0.02071 -0.72273
1559195900.8127859 256.95481 -133.97605 -12.37260 0.69226 0.02239 -0.02217 -0.72096
1559195901.0127034 256.89629 -135.47525 -12.38212 0.69393 0.02428 -0.02225 -0.71928
1559195901.2126842 256.84475 -136.98254 -12.39100 0.69561 0.02523 -0.02270 -0.71762
1559195901.4126687 256.78994 -138.50477 -12.40090 0.69733 0.02494 -0.02403 -0.71591
1559195901.6127703 256.74654 -140.05640 -12.40728 0.69896 0.02383 -0.02239 -0.71441
1559195901.8126035 256.73529 -141.48118 -12.42264 0.69976 0.02590 -0.02092 -0.71360
1559195902.0125792 256.64687 -143.20419 -12.42439 0.70072 0.02761 -0.01801 -0.71268
1559195902.2124765 256.59676 -144.73040 -12.43998 0.70125 0.02851 -0.01832 -0.71211
1559195902.4126258 256.55487 -146.27352 -12.47073 0.70172 0.02879 -0.01891 -0.71162
1559195902.6127267 256.52957 -147.76058 -12.48897 0.70194 0.02527 -0.01820 -0.71155
1559195902.8126123 256.49255 -149.21807 -12.50393 0.70247 0.02011 -0.01773 -0.71121
1559195903.0126338 256.45146 -150.65513 -12.50820 0.70279 0.02048 -0.01616 -0.71092
1559195903.2126212 256.40082 -152.08252 -12.51343 0.70305 0.02043 -0.01385 -0.71072
1559195903.4125447 256.34398 -153.57260 -12.52565 0.70350 0.02119 -0.01403 -0.71024
1559195903.6128235 256.29499 -155.02086 -12.53985 0.70388 0.02365 -0.01363 -0.70979
1559195903.8125784 256.27562 -156.45348 -12.55604 0.70387 0.02677 -0.01251 -0.70971
1559195904.012655 256.22691 -157.85366 -12.58535 0.70425 0.02781 -0.01364 -0.70927
1559195904.2143958 256.20005 -159.23520 -12.61842 0.70444 0.02864 -0.01568 -0.70902
1559195904.412708 256.18156 -160.58359 -12.64302 0.70435 0.02988 -0.01580 -0.70905
1559195904.612707 256.14944 -161.88943 -12.66501 0.70394 0.02967 -0.01533 -0.70948
1559195904.812815 256.12169 -163.11984 -12.68711 0.70345 0.02830 -0.01561 -0.71000
1559195905.0124397 256.08954 -164.34997 -12.70873 0.70289 0.02807 -0.01568 -0.71058
1559195905.212541 256.05981 -165.55969 -12.72001 0.70233 0.02955 -0.01472 -0.71109
1559195905.412981 256.03486 -166.73705 -12.73197 0.70185 0.03006 -0.01383 -0.71155
1559195905.6128209 256.00808 -167.83250 -12.74433 0.70119 0.03007 -0.01487 -0.71219
1559195905.812538 255.98600 -168.84150 -12.75583 0.70060 0.02824 -0.01520 -0.71283
1559195906.0150223 255.94374 -169.84287 -12.76409 0.70006 0.02951 -0.01343 -0.71335
1559195906.2126207 255.90334 -170.84301 -12.77508 0.69952 0.03008 -0.01131 -0.71389
1559195906.4127474 255.86110 -171.90759 -12.79213 0.69903 0.02651 -0.01317 -0.71448
1559195906.6125095 255.83506 -172.86139 -12.81378 0.69844 0.02398 -0.01277 -0.71515
1559195906.8123715 255.81102 -173.67118 -12.83270 0.69802 0.02135 -0.01200 -0.71566
1559195907.0125134 255.77538 -174.46980 -12.83193 0.69732 0.02639 -0.00930 -0.71621
1559195907.2124565 255.74985 -175.18375 -12.84360 0.69616 0.02819 -0.00679 -0.71730
1559195907.4124467 255.72034 -175.92326 -12.86565 0.69473 0.02827 -0.00418 -0.71870
1559195907.612488 255.67908 -176.54080 -12.88771 0.69269 0.03079 -0.00406 -0.72057
1559195907.81346 255.63645 -177.21500 -12.91874 0.69013 0.03214 -0.00564 -0.72295
1559195908.0126286 255.59188 -177.82905 -12.94288 0.68679 0.03104 -0.00576 -0.72617
1559195908.212624 255.54992 -178.33643 -12.96369 0.68243 0.03064 -0.00475 -0.73029
1559195908.412507 255.48585 -178.85436 -12.98214 0.67778 0.03094 -0.00619 -0.73459
1559195908.6124825 255.41732 -179.29218 -12.99466 0.67267 0.03047 -0.00703 -0.73928
1559195908.8125648 255.33992 -179.74103 -13.00743 0.66751 0.02980 -0.00770 -0.74397
1559195909.0126576 255.26658 -180.14070 -13.01234 0.66181 0.02836 -0.00944 -0.74908
1559195909.2126172 255.18539 -180.54859 -13.02728 0.65575 0.02884 -0.01082 -0.75435
1559195909.4125416 255.10835 -180.91346 -13.04185 0.64951 0.02916 -0.01047 -0.75972
1559195909.6135063 255.01791 -181.20806 -13.05010 0.64317 0.03084 -0.01052 -0.76503
1559195909.8126643 254.92691 -181.52537 -13.06241 0.63747 0.03235 -0.01232 -0.76970
1559195910.0126588 254.85137 -181.81608 -13.07253 0.63198 0.03186 -0.01217 -0.77423
1559195910.2126079 254.77615 -182.06043 -13.08465 0.62734 0.03064 -0.01123 -0.77806
1559195910.4125981 254.70134 -182.27562 -13.09138 0.62319 0.03172 -0.01179 -0.78134
1559195910.6125855 254.63176 -182.48106 -13.09800 0.61940 0.03328 -0.01106 -0.78429
1559195910.8126538 254.58410 -182.62254 -13.10341 0.61642 0.03321 -0.00820 -0.78667
1559195911.0126317 254.53909 -182.73625 -13.11014 0.61373 0.03360 -0.00734 -0.78876
1559195911.2126167 254.50076 -182.83800 -13.11731 0.61172 0.03442 -0.00874 -0.79028
1559195911.4126377 254.48102 -182.89466 -13.11882 0.61023 0.03455 -0.00882 -0.79142
1559195911.612769 254.46417 -182.94658 -13.12270 0.60922 0.03454 -0.00868 -0.79220
1559195911.8125367 254.45904 -182.95874 -13.12222 0.60882 0.03460 -0.00879 -0.79250
1559195912.0126295 254.46123 -182.95871 -13.12181 0.60882 0.03431 -0.00869 -0.79252
1559195912.2124863 254.46243 -182.96108 -13.12038 0.60879 0.03387 -0.00885 -0.79256
1559195912.4125361 254.46328 -182.96251 -13.12014 0.60874 0.03394 -0.00899 -0.79259
1559195912.6126401 254.46460 -182.96189 -13.11918 0.60872 0.03395 -0.00882 -0.79261
1559195912.8126752 254.46558 -182.95975 -13.11878 0.60871 0.03394 -0.00882 -0.79262
1559195913.012727 254.46636 -182.95774 -13.11825 0.60872 0.03396 -0.00886 -0.79261
1559195913.214024 254.46697 -182.95767 -13.11776 0.60870 0.03392 -0.00882 -0.79262
1559195913.412803 254.46734 -182.95608 -13.11737 0.60871 0.03395 -0.00886 -0.79262
1559195913.6126423 254.46777 -182.95554 -13.11659 0.60868 0.03396 -0.00884 -0.79264
1559195913.8126438 254.46841 -182.95377 -13.11575 0.60867 0.03396 -0.00883 -0.79265
1559195914.0125966 254.46982 -182.94833 -13.11434 0.60866 0.03391 -0.00881 -0.79266
1559195914.2126548 254.47083 -182.94430 -13.11301 0.60866 0.03391 -0.00879 -0.79266
1559195914.4126406 254.47100 -182.94448 -13.11270 0.60864 0.03392 -0.00881 -0.79267
1559195914.6125228 254.47093 -182.94482 -13.11243 0.60865 0.03393 -0.00881 -0.79267
1559195914.8125718 254.47080 -182.94557 -13.11229 0.60865 0.03394 -0.00884 -0.79266
1559195915.0126176 254.47071 -182.94610 -13.11223 0.60865 0.03391 -0.00881 -0.79266
1559195915.2128468 254.47049 -182.94640 -13.11211 0.60866 0.03393 -0.00881 -0.79266
1559195915.4126456 254.47026 -182.94738 -13.11201 0.60866 0.03392 -0.00884 -0.79266
1559195915.6126902 254.46985 -182.94805 -13.11197 0.60867 0.03393 -0.00886 -0.79265
1559195915.8128068 254.46968 -182.94915 -13.11183 0.60866 0.03393 -0.00885 -0.79265
1559195916.012759 254.46925 -182.95021 -13.11175 0.60867 0.03395 -0.00889 -0.79265
1559195916.2125423 254.46938 -182.95101 -13.11162 0.60866 0.03393 -0.00886 -0.79266
1559195916.4127138 254.46904 -182.95185 -13.11164 0.60867 0.03392 -0.00888 -0.79265
1559195916.6126485 254.46880 -182.95229 -13.11155 0.60868 0.03393 -0.00888 -0.79264
1559195916.8127527 254.46805 -182.95470 -13.11298 0.60858 0.03356 -0.00913 -0.79273
1559195917.0126572 254.46537 -182.96199 -13.11409 0.60844 0.03307 -0.00938 -0.79285
1559195917.212748 254.45737 -182.98561 -13.11452 0.60791 0.03269 -0.00949 -0.79328
1559195917.4127028 254.44066 -183.03074 -13.11541 0.60679 0.03268 -0.00948 -0.79413
1559195917.6127157 254.41705 -183.09235 -13.11774 0.60500 0.03270 -0.00958 -0.79550
1559195917.8127503 254.38420 -183.17216 -13.12120 0.60237 0.03258 -0.00959 -0.79750
1559195918.012546 254.33765 -183.28712 -13.12904 0.59848 0.03194 -0.00948 -0.80045
1559195918.2125561 254.27931 -183.40252 -13.13261 0.59376 0.03143 -0.00939 -0.80397
1559195918.4124818 254.20759 -183.53126 -13.13946 0.58764 0.03181 -0.00999 -0.80843
1559195918.6127558 254.19501 -183.71252 -13.18950 0.57930 0.02975 -0.00953 -0.81452
1559195918.8127422 254.04106 -183.83515 -13.16166 0.57188 0.03040 -0.01051 -0.81971
1559195919.0125935 253.93255 -183.99709 -13.16834 0.56290 0.03104 -0.01038 -0.82588
1559195919.2127287 253.82070 -184.18381 -13.17919 0.55298 0.03048 -0.00940 -0.83259
1559195919.4127362 253.69654 -184.36803 -13.19583 0.54221 0.02968 -0.00926 -0.83967
1559195919.6128354 253.55572 -184.56834 -13.21002 0.53076 0.02999 -0.00948 -0.84694
1559195919.8126352 253.40257 -184.77048 -13.22341 0.51827 0.02929 -0.00888 -0.85467
1559195920.012635 253.23556 -184.98490 -13.23747 0.50473 0.02700 -0.00670 -0.86283
1559195920.212591 253.04641 -185.19389 -13.24824 -0.49080 -0.02571 0.00503 0.87088
1559195920.4127512 252.83659 -185.39425 -13.25978 -0.47613 -0.02648 0.00747 0.87894
1559195920.6127198 252.61839 -185.60674 -13.27958 -0.46041 -0.02608 0.01070 0.88726
1559195920.812613 252.39226 -185.82298 -13.29987 -0.44423 -0.02417 0.01214 0.89550
1559195921.0128248 252.15602 -186.04601 -13.31169 -0.42751 -0.02304 0.00880 0.90368
1559195921.2126284 251.89448 -186.25319 -13.31794 -0.41129 -0.02630 0.00757 0.91109
1559195921.412561 251.62366 -186.44940 -13.34350 -0.39372 -0.02691 0.00577 0.91882
1559195921.612593 251.34555 -186.65635 -13.37445 -0.37521 -0.02418 -0.00170 0.92662
1559195921.8125365 251.03713 -186.84255 -13.38821 -0.35622 -0.02513 -0.00500 0.93405
1559195922.012686 250.70757 -187.01430 -13.40043 -0.33617 -0.02651 -0.00359 0.94142
1559195922.2127328 250.35976 -187.19241 -13.41786 -0.31459 -0.02672 -0.00378 0.94885
1559195922.4128022 249.98693 -187.36513 -13.43704 -0.29119 -0.02726 -0.00323 0.95627
1559195922.6127064 249.57941 -187.53970 -13.46545 -0.26537 -0.02433 -0.00300 0.96383
1559195922.8127413 249.13780 -187.71715 -13.49854 -0.23768 -0.01983 -0.00625 0.97112
1559195923.01267 248.65337 -187.86608 -13.51750 -0.20988 -0.01647 -0.00749 0.97756
1559195923.212772 248.11546 -187.99469 -13.53688 -0.18413 -0.01582 -0.00305 0.98277
1559195923.4129186 247.52862 -188.12537 -13.55300 -0.16227 -0.01591 0.00022 0.98662
1559195923.6129215 246.90920 -188.25972 -13.57129 -0.14315 -0.01376 -0.00068 0.98961
1559195923.8127759 246.25877 -188.36124 -13.59304 -0.12722 -0.01174 0.00173 0.99180
1559195924.0129364 245.57084 -188.46183 -13.62453 -0.11453 -0.00881 0.00396 0.99337
1559195924.2128167 244.84342 -188.56534 -13.65024 -0.10395 -0.00802 0.00426 0.99454
1559195924.4128103 244.07928 -188.65959 -13.66427 -0.09525 -0.01000 0.00544 0.99539
1559195924.6129367 243.27925 -188.76377 -13.69658 -0.08841 -0.01013 0.00811 0.99600
1559195924.8128521 242.46444 -188.85451 -13.72990 -0.08220 -0.00867 0.00937 0.99653
1559195925.0128577 241.63208 -188.94730 -13.75386 -0.07602 -0.00715 0.00995 0.99703
1559195925.2129676 240.78048 -189.01662 -13.76997 -0.06929 -0.00650 0.01218 0.99750
1559195925.4127784 239.88631 -189.14747 -13.79063 -0.06256 -0.00624 0.01203 0.99795
1559195925.6127563 238.96426 -189.23602 -13.80344 -0.05575 -0.00583 0.01297 0.99834
1559195925.8154054 238.02466 -189.33139 -13.81423 -0.04845 -0.00495 0.01393 0.99872
1559195926.013073 237.08685 -189.41355 -13.82322 -0.04089 -0.00436 0.01323 0.99907
1559195926.2128606 236.12078 -189.47780 -13.83075 -0.03339 -0.00393 0.01288 0.99935
1559195926.41282 235.13379 -189.52562 -13.83534 -0.02576 -0.00403 0.01222 0.99959
1559195926.6130462 234.12609 -189.54799 -13.83904 -0.01925 -0.00432 0.01289 0.99972
1559195926.812964 233.11187 -189.55615 -13.84662 -0.01370 -0.00424 0.01222 0.99982
1559195927.0129616 232.09479 -189.55444 -13.85301 -0.00933 -0.00373 0.01162 0.99988
1559195927.2129793 231.03857 -189.55430 -13.86563 -0.00669 -0.00295 0.01118 0.99991
1559195927.4130304 229.94578 -189.55147 -13.87859 -0.00520 -0.00260 0.01029 0.99993
1559195927.615367 228.84886 -189.54686 -13.88733 -0.00441 -0.00299 0.01041 0.99993
1559195927.8129568 227.73850 -189.54858 -13.89703 -0.00413 -0.00321 0.00908 0.99995
1559195928.0129228 226.60855 -189.55373 -13.91185 -0.00420 -0.00346 0.00989 0.99994
1559195928.213211 225.45420 -189.55375 -13.92689 -0.00459 -0.00395 0.00954 0.99994
1559195928.4129345 224.27804 -189.56682 -13.94320 -0.00519 -0.00507 0.00978 0.99993
1559195928.6131043 223.09417 -189.57162 -13.96240 -0.00612 -0.00452 0.00965 0.99992
1559195928.8129551 221.88594 -189.59654 -13.97712 -0.00806 -0.00543 0.01017 0.99990
1559195929.0129683 220.67158 -189.61948 -13.99816 -0.00988 -0.00722 0.00901 0.99988
1559195929.2128878 219.42523 -189.64754 -14.01436 -0.01176 -0.00704 0.00947 0.99986
1559195929.4129398 218.16522 -189.67396 -14.03043 -0.01361 -0.00612 0.01009 0.99984
1559195929.6129286 216.90202 -189.71740 -14.05490 -0.01580 -0.00575 0.00982 0.99981
1559195929.8130782 215.61210 -189.76952 -14.07890 -0.01748 -0.00770 0.00822 0.99978
1559195930.0131063 214.29455 -189.81346 -14.10920 -0.01851 -0.00905 0.00992 0.99974
1559195930.2129366 212.96274 -189.85171 -14.14059 -0.01922 -0.00887 0.01013 0.99972
1559195930.4129384 211.61982 -189.89728 -14.16829 -0.01863 -0.00684 0.00920 0.99976
1559195930.6131222 210.24946 -189.91667 -14.17430 -0.01789 -0.00513 0.01118 0.99976
1559195930.8131516 208.87746 -189.94935 -14.19745 -0.01665 -0.00548 0.01269 0.99977
1559195931.0131662 207.48107 -189.97846 -14.21218 -0.01578 -0.00769 0.01260 0.99977
1559195931.2132528 206.07823 -190.00357 -14.23882 -0.01494 -0.00770 0.01296 0.99977
1559195931.413216 204.67151 -190.01926 -14.26936 -0.01375 -0.00794 0.01474 0.99977
1559195931.6130497 203.26238 -190.04077 -14.29471 -0.01242 -0.00861 0.01359 0.99979
1559195931.8130603 201.84963 -190.05630 -14.32731 -0.01065 -0.00700 0.01401 0.99982
1559195932.0129943 200.41160 -190.06744 -14.35937 -0.00926 -0.00745 0.01357 0.99984
1559195932.2134736 198.96964 -190.07651 -14.38424 -0.00768 -0.00895 0.01234 0.99985
1559195932.4131496 197.52762 -190.07594 -14.41125 -0.00683 -0.00745 0.01279 0.99987
1559195932.61315 196.06644 -190.07240 -14.43944 -0.00684 -0.00623 0.01340 0.99987
1559195932.8141458 194.57741 -190.06434 -14.46116 -0.00684 -0.00751 0.01536 0.99983
1559195933.0130029 193.12069 -190.05885 -14.48428 -0.00680 -0.00656 0.01678 0.99981
1559195933.2130003 191.64255 -190.06313 -14.50939 -0.00659 -0.00609 0.01833 0.99979
1559195933.4131262 190.13511 -190.07669 -14.52841 -0.00651 -0.00817 0.01815 0.99978
1559195933.613036 188.63658 -190.09526 -14.55271 -0.00589 -0.00774 0.01838 0.99978
1559195933.8130946 187.13103 -190.10919 -14.58256 -0.00528 -0.00613 0.01734 0.99982
1559195934.0130212 185.63103 -190.11288 -14.59896 -0.00558 -0.00440 0.01655 0.99984
1559195934.2132084 184.12812 -190.11619 -14.60884 -0.00494 -0.00587 0.01326 0.99988
1559195934.4132593 182.62163 -190.11828 -14.62428 -0.00336 -0.01110 0.01122 0.99987
1559195934.613009 181.12758 -190.11031 -14.66671 -0.00243 -0.01043 0.00828 0.99991
1559195934.8130312 179.62801 -190.09114 -14.71081 -0.00029 -0.00458 0.01346 0.99990
1559195935.0129883 178.12171 -190.08978 -14.74666 0.00080 -0.00696 0.00596 0.99996
1559195935.2131402 176.58014 -190.05939 -14.77732 0.00172 -0.01126 0.01370 0.99984
1559195935.4130466 175.05692 -190.03049 -14.83669 0.00185 -0.00601 0.01249 0.99990
1559195935.6130838 173.53261 -189.99447 -14.86391 0.00333 -0.00791 0.01523 0.99985
1559195935.8131685 172.04577 -189.95227 -14.88819 0.00327 -0.00688 0.01827 0.99980
1559195936.0129678 170.55695 -189.94213 -14.92435 0.00291 0.00112 0.01594 0.99987
1559195936.21305 169.08363 -189.93027 -14.91042 0.00205 -0.00205 0.01459 0.99989
1559195936.4143507 167.62373 -189.92652 -14.90063 0.00125 -0.00472 0.01223 0.99991
1559195936.6133487 166.17604 -189.92034 -14.91956 0.00009 -0.00335 0.01193 0.99992
1559195936.8131623 164.73403 -189.91340 -14.92753 -0.00062 -0.00259 0.01247 0.99992
1559195937.0129871 163.28435 -189.90237 -14.92811 -0.00160 -0.00351 0.01247 0.99991
1559195937.2129562 161.85235 -189.89199 -14.92626 -0.00249 -0.00341 0.01270 0.99991
1559195937.4131072 160.41341 -189.88662 -14.92933 -0.00338 -0.00154 0.01242 0.99992
1559195937.6131256 158.92160 -189.87891 -14.93212 -0.00430 -0.00156 0.01237 0.99991
1559195937.8131282 157.43343 -189.88463 -14.93207 -0.00521 -0.00287 0.01149 0.99992
1559195938.0129647 155.97548 -189.88030 -14.93796 -0.00607 -0.00290 0.01214 0.99990
1559195938.2130282 154.53845 -189.88774 -14.94368 -0.00671 -0.00346 0.01229 0.99990
1559195938.4132154 153.16510 -189.89433 -14.94949 -0.00723 -0.00394 0.01178 0.99990
1559195938.6130612 151.75243 -189.90965 -14.96005 -0.00752 -0.00397 0.01216 0.99989
1559195938.8132272 150.35323 -189.92637 -14.97892 -0.00750 -0.00636 0.01405 0.99985
1559195939.0133126 148.91422 -189.94853 -15.00179 -0.00758 -0.00955 0.01520 0.99981
1559195939.2132783 147.50573 -189.95707 -15.03998 -0.00734 -0.00847 0.01438 0.99983
1559195939.4131484 146.10742 -189.96632 -15.07712 -0.00668 -0.00476 0.01592 0.99984
1559195939.6131444 144.70103 -189.96959 -15.09651 -0.00611 -0.00403 0.01595 0.99985
1559195939.8130934 143.29390 -189.98385 -15.10938 -0.00549 -0.00521 0.01479 0.99986
1559195940.013049 141.93144 -189.98873 -15.12499 -0.00527 -0.00587 0.01323 0.99988
1559195940.2131834 140.60516 -189.99202 -15.14332 -0.00412 -0.00169 0.01201 0.99992
1559195940.413154 139.30879 -189.98129 -15.15064 -0.00329 0.00026 0.01647 0.99986
1559195940.6132386 137.98671 -189.98097 -15.14304 -0.00268 -0.00180 0.01460 0.99989
1559195940.8131719 136.68621 -189.97108 -15.14648 -0.00231 -0.00119 0.01519 0.99988
1559195941.0131354 135.38275 -189.96988 -15.14837 -0.00149 0.00036 0.01381 0.99990
1559195941.212979 134.08326 -189.96452 -15.14463 -0.00120 0.00229 0.01320 0.99991
1559195941.4129531 132.70091 -189.95517 -15.13699 -0.00150 0.00008 0.01362 0.99991
1559195941.6130953 131.30156 -189.94626 -15.13373 -0.00178 -0.00096 0.01447 0.99989
1559195941.813078 129.93834 -189.94123 -15.13729 -0.00200 -0.00007 0.01427 0.99990
1559195942.0131085 128.54151 -189.93116 -15.14112 -0.00232 0.00022 0.01560 0.99988
1559195942.213281 127.11839 -189.92640 -15.14238 -0.00245 0.00081 0.01567 0.99987
1559195942.4131157 125.66395 -189.92564 -15.14754 -0.00214 0.00039 0.01546 0.99988
1559195942.6131623 124.22862 -189.91396 -15.14682 -0.00147 -0.00064 0.01597 0.99987
1559195942.8131394 122.81475 -189.90976 -15.14875 -0.00082 -0.00042 0.01559 0.99988
1559195943.013342 121.41033 -189.90505 -15.15172 -0.00023 -0.00003 0.01594 0.99987
1559195943.213201 119.98631 -189.90188 -15.15301 0.00042 -0.00143 0.01534 0.99988
1559195943.4130406 118.76764 -189.88346 -15.15359 0.00105 -0.00175 0.01462 0.99989
1559195943.6129487 117.47562 -189.86364 -15.16757 0.00131 -0.00084 0.01439 0.99990
1559195943.8131456 116.11963 -189.85157 -15.17252 0.00130 -0.00079 0.01354 0.99991
1559195944.0133073 114.83976 -189.84179 -15.17353 0.00122 -0.00208 0.01367 0.99990
1559195944.213355 113.61799 -189.83369 -15.17357 0.00129 -0.00269 0.01378 0.99990
1559195944.4134545 112.41104 -189.82508 -15.18266 0.00129 -0.00225 0.01467 0.99989
1559195944.6131139 111.31675 -189.79758 -15.18498 0.00132 -0.00167 0.01491 0.99989
1559195944.8132524 110.19031 -189.78179 -15.19016 0.00129 -0.00186 0.01538 0.99988
1559195945.01317 109.07475 -189.76913 -15.19193 0.00115 -0.00219 0.01564 0.99987
1559195945.213029 107.98956 -189.75834 -15.19478 0.00074 -0.00297 0.01572 0.99987
1559195945.4131968 106.87661 -189.75249 -15.20345 0.00026 -0.00294 0.01658 0.99986
1559195945.613307 105.90966 -189.74462 -15.20775 -0.00016 -0.00253 0.01680 0.99986
1559195945.813257 104.81417 -189.75388 -15.21609 -0.00033 -0.00225 0.01727 0.99985
1559195946.0132625 103.73009 -189.75014 -15.21853 -0.00083 -0.00190 0.01699 0.99985
1559195946.2133594 102.70888 -189.74821 -15.21909 -0.00128 -0.00240 0.01637 0.99986
1559195946.413242 101.68499 -189.74492 -15.22314 -0.00166 -0.00296 0.01660 0.99986
1559195946.6132584 100.64204 -189.74187 -15.22884 -0.00208 -0.00412 0.01750 0.99984
1559195946.813144 99.91301 -189.74013 -15.23193 -0.00221 -0.00536 0.01725 0.99983
1559195947.0132291 98.95571 -189.74088 -15.24238 -0.00252 -0.00564 0.01706 0.99984
1559195947.2132068 98.28358 -189.73573 -15.24587 -0.00269 -0.00589 0.01789 0.99982
1559195947.4132473 97.37251 -189.73154 -15.25587 -0.00299 -0.00570 0.01807 0.99982
1559195947.613255 96.71783 -189.72792 -15.26227 -0.00327 -0.00501 0.01763 0.99983
1559195947.8132422 95.98496 -189.72493 -15.26801 -0.00345 -0.00446 0.01787 0.99982
1559195948.013283 95.55590 -189.72387 -15.27038 -0.00365 -0.00411 0.01764 0.99983
1559195948.213243 94.95441 -189.71906 -15.27228 -0.00385 -0.00399 0.01821 0.99982
1559195948.4131658 94.50164 -189.71603 -15.27517 -0.00397 -0.00367 0.01927 0.99980
1559195948.613331 94.01663 -189.71465 -15.27944 -0.00407 -0.00404 0.01940 0.99980
1559195948.8131928 93.65926 -189.71613 -15.28134 -0.00405 -0.00374 0.01868 0.99981
1559195949.0132651 93.23040 -189.71415 -15.28404 -0.00411 -0.00352 0.01861 0.99981
1559195949.2132673 92.94879 -189.71058 -15.28658 -0.00414 -0.00345 0.01876 0.99981
1559195949.4132838 92.69143 -189.71111 -15.28836 -0.00423 -0.00347 0.01841 0.99982
1559195949.6132615 92.41278 -189.70820 -15.29158 -0.00428 -0.00325 0.01836 0.99982
1559195949.8132963 92.23503 -189.70910 -15.29273 -0.00433 -0.00279 0.01811 0.99982
1559195950.0132596 92.04702 -189.70889 -15.29537 -0.00436 -0.00184 0.01794 0.99983
1559195950.2131917 91.88155 -189.70827 -15.29498 -0.00449 -0.00174 0.01813 0.99982
1559195950.413302 91.73692 -189.70900 -15.29343 -0.00455 -0.00196 0.01839 0.99982
1559195950.6132123 91.57358 -189.70609 -15.29250 -0.00456 -0.00189 0.01881 0.99981
1559195950.814755 91.45317 -189.70646 -15.29361 -0.00453 -0.00176 0.01882 0.99981
1559195951.013307 91.33933 -189.70668 -15.29435 -0.00455 -0.00171 0.01874 0.99981
1559195951.2132041 91.24778 -189.70703 -15.29418 -0.00458 -0.00147 0.01893 0.99981
1559195951.4132113 91.14254 -189.70824 -15.29483 -0.00457 -0.00086 0.01899 0.99981
1559195951.6133757 91.03295 -189.70954 -15.29534 -0.00467 -0.00056 0.01889 0.99981
1559195951.8132954 90.89372 -189.70811 -15.29545 -0.00460 -0.00045 0.01869 0.99981
1559195952.0132623 90.76906 -189.70792 -15.29505 -0.00464 -0.00072 0.01840 0.99982
1559195952.2132137 90.63719 -189.70719 -15.29553 -0.00475 -0.00103 0.01867 0.99981
1559195952.4132757 90.49851 -189.70750 -15.29699 -0.00482 -0.00122 0.01896 0.99981
1559195952.6134522 90.35855 -189.70970 -15.29710 -0.00489 -0.00103 0.01876 0.99981
1559195952.813462 90.20891 -189.71082 -15.29790 -0.00504 -0.00090 0.01888 0.99981
1559195953.013379 90.03756 -189.70858 -15.29876 -0.00516 -0.00100 0.01883 0.99981
1559195953.2133977 89.89231 -189.70688 -15.29820 -0.00538 -0.00115 0.01865 0.99981
1559195953.4133027 89.74441 -189.70735 -15.29827 -0.00570 -0.00113 0.01882 0.99981
1559195953.6133192 89.60492 -189.70966 -15.29823 -0.00584 -0.00146 0.01879 0.99981
1559195953.813319 89.47823 -189.71035 -15.29900 -0.00606 -0.00153 0.01858 0.99981
1559195954.0132987 89.36313 -189.71070 -15.30266 -0.00614 -0.00145 0.01844 0.99981
1559195954.2132554 89.26018 -189.71142 -15.30312 -0.00628 -0.00138 0.01859 0.99981
1559195954.4136608 89.16889 -189.71300 -15.30392 -0.00645 -0.00140 0.01851 0.99981
1559195954.61341 89.09154 -189.71442 -15.30407 -0.00657 -0.00135 0.01853 0.99981
1559195954.8132796 89.02690 -189.71515 -15.30385 -0.00668 -0.00131 0.01858 0.99980
1559195955.0133176 88.97727 -189.71580 -15.30435 -0.00677 -0.00135 0.01856 0.99980
1559195955.213302 88.93573 -189.71599 -15.30478 -0.00686 -0.00133 0.01865 0.99980
1559195955.4133368 88.90981 -189.71595 -15.30525 -0.00694 -0.00136 0.01866 0.99980
1559195955.6132872 88.89516 -189.71814 -15.30925 -0.00687 -0.00134 0.01863 0.99980
1559195955.8134778 88.90992 -189.71791 -15.30772 -0.00686 -0.00130 0.01863 0.99980
1559195956.0132854 88.91204 -189.71791 -15.30703 -0.00688 -0.00121 0.01867 0.99980
1559195956.215142 88.91488 -189.71795 -15.30678 -0.00688 -0.00119 0.01867 0.99980
1559195956.4134479 88.91751 -189.71779 -15.30645 -0.00690 -0.00128 0.01870 0.99980
1559195956.6132793 88.92072 -189.71754 -15.30649 -0.00692 -0.00130 0.01871 0.99980
1559195956.813236 88.91926 -189.71736 -15.30649 -0.00692 -0.00131 0.01873 0.99980
1559195957.0132077 88.91703 -189.71730 -15.30647 -0.00691 -0.00135 0.01872 0.99980
1559195957.2134967 88.91713 -189.71746 -15.30660 -0.00688 -0.00139 0.01874 0.99980
1559195957.4134324 88.91538 -189.71746 -15.30725 -0.00687 -0.00135 0.01877 0.99980
1559195957.61332 88.91403 -189.71749 -15.30725 -0.00688 -0.00141 0.01874 0.99980
1559195957.8134623 88.91459 -189.71726 -15.30747 -0.00690 -0.00137 0.01880 0.99980
1559195958.0134335 88.91366 -189.71737 -15.30795 -0.00692 -0.00116 0.01882 0.99980
1559195958.2134626 88.90650 -189.71652 -15.30912 -0.00692 -0.00063 0.01879 0.99980
1559195958.41342 88.88885 -189.71546 -15.30747 -0.00697 -0.00077 0.01878 0.99980
1559195958.6134496 88.86707 -189.71514 -15.30655 -0.00699 -0.00093 0.01882 0.99980
1559195958.8134286 88.83473 -189.71478 -15.30571 -0.00703 -0.00069 0.01876 0.99980
1559195959.0133276 88.78167 -189.71475 -15.30567 -0.00708 0.00011 0.01865 0.99980
1559195959.213393 88.70017 -189.71439 -15.30373 -0.00713 0.00093 0.01867 0.99980
1559195959.4135897 88.58228 -189.71457 -15.30048 -0.00725 0.00091 0.01857 0.99980
1559195959.6134667 88.43389 -189.71602 -15.30069 -0.00734 0.00097 0.01850 0.99980
1559195959.8160098 88.23650 -189.71810 -15.30287 -0.00742 0.00162 0.01832 0.99980
1559195960.0136015 88.00344 -189.71991 -15.30316 -0.00764 0.00220 0.01797 0.99981
1559195960.2134972 87.70641 -189.72205 -15.30272 -0.00777 0.00246 0.01812 0.99980
1559195960.4135692 87.34589 -189.72506 -15.29756 -0.00801 0.00222 0.01774 0.99981
1559195960.6133568 86.93791 -189.72984 -15.30358 -0.00811 0.00231 0.01741 0.99981
1559195960.8133066 86.49231 -189.73152 -15.30492 -0.00808 0.00251 0.01716 0.99982
1559195961.013302 86.06063 -189.75891 -15.30687 -0.00735 0.00182 0.01672 0.99983
1559195961.2133064 85.44784 -189.73381 -15.30746 -0.00778 0.00112 0.01788 0.99981
1559195961.4133098 84.84912 -189.73956 -15.31267 -0.00744 0.00125 0.01746 0.99982
1559195961.6134279 84.21808 -189.74299 -15.31071 -0.00718 0.00017 0.01761 0.99982
1559195961.8134665 83.52741 -189.74711 -15.31496 -0.00683 -0.00033 0.01731 0.99983
1559195962.013415 82.80755 -189.75039 -15.31737 -0.00659 -0.00028 0.01755 0.99982
1559195962.2134576 82.04180 -189.75134 -15.32723 -0.00630 0.00063 0.01810 0.99982
1559195962.413532 81.24291 -189.75549 -15.32928 -0.00587 0.00091 0.01847 0.99981
1559195962.6134973 80.39627 -189.75964 -15.33202 -0.00561 0.00117 0.01742 0.99983
1559195962.813612 79.51205 -189.75766 -15.33535 -0.00528 0.00136 0.01780 0.99983
1559195963.0135539 78.59067 -189.75173 -15.33547 -0.00466 0.00074 0.01834 0.99982
1559195963.2133403 77.63025 -189.74859 -15.33207 -0.00390 0.00015 0.01772 0.99984
1559195963.4157705 76.61749 -189.74309 -15.33538 -0.00311 -0.00004 0.01814 0.99983
1559195963.6134953 75.59584 -189.73078 -15.34448 -0.00241 0.00084 0.01885 0.99982
1559195963.8134525 74.53491 -189.71948 -15.35121 -0.00144 0.00235 0.01797 0.99983
1559195964.013204 73.44060 -189.70189 -15.35210 -0.00102 0.00304 0.01793 0.99983
1559195964.213475 72.31508 -189.69299 -15.35742 -0.00061 0.00263 0.01645 0.99986
1559195964.4134014 71.16283 -189.68590 -15.35589 -0.00104 -0.00146 0.01201 0.99993
1559195964.6135771 69.99313 -189.66551 -15.35738 -0.00141 -0.00345 0.01599 0.99987
1559195964.813408 68.82197 -189.65844 -15.37137 -0.00124 0.00402 0.01574 0.99987
1559195965.013091 67.61274 -189.66742 -15.38803 -0.00138 0.00590 0.01308 0.99990
1559195965.2134366 66.35707 -189.64368 -15.36121 -0.00175 -0.00217 0.01917 0.99981
1559195965.4134514 65.09465 -189.64505 -15.36484 -0.00152 -0.00282 0.01887 0.99982
1559195965.613535 63.81289 -189.65700 -15.38477 -0.00199 -0.00046 0.01667 0.99986
1559195965.8135185 62.49822 -189.64396 -15.39190 -0.00298 -0.00133 0.02076 0.99978
1559195966.0137477 61.15724 -189.64594 -15.39766 -0.00369 -0.00220 0.02214 0.99975
1559195966.2135062 59.79408 -189.66044 -15.41123 -0.00490 -0.00070 0.01940 0.99980
1559195966.4135647 58.39991 -189.65634 -15.43387 -0.00631 -0.00061 0.02186 0.99974
1559195966.6134856 56.97084 -189.63634 -15.44908 -0.00725 -0.00117 0.02348 0.99970
1559195966.814033 55.53103 -189.68387 -15.45019 -0.00673 -0.00082 0.02306 0.99971
1559195967.0136614 54.06969 -189.69657 -15.45368 -0.00669 -0.00119 0.02592 0.99964
1559195967.2135997 52.59222 -189.71122 -15.46117 -0.00635 0.00075 0.02350 0.99970
1559195967.4134963 51.08550 -189.71413 -15.46909 -0.00589 -0.00042 0.02047 0.99977
1559195967.613496 49.56046 -189.69137 -15.47578 -0.00460 -0.00215 0.02259 0.99973
1559195967.8133147 48.02865 -189.69859 -15.49666 -0.00281 -0.00113 0.02183 0.99976
1559195968.0134864 46.48045 -189.67632 -15.51294 -0.00198 0.00003 0.02166 0.99976
1559195968.2134955 44.90603 -189.64659 -15.52526 -0.00034 -0.00303 0.02439 0.99970
1559195968.4134548 43.31362 -189.62218 -15.53477 0.00104 -0.00713 0.02513 0.99966
1559195968.6135483 41.72533 -189.59107 -15.57022 0.00223 0.00029 0.02522 0.99968
1559195968.8134835 40.12086 -189.56438 -15.57986 0.00356 0.00386 0.02380 0.99970
1559195969.0134482 38.48026 -189.53170 -15.56264 0.00486 -0.00136 0.02260 0.99973
1559195969.2135253 36.83426 -189.48642 -15.56418 0.00586 -0.00247 0.02259 0.99972
1559195969.4135265 35.17768 -189.43914 -15.58134 0.00666 0.00004 0.02372 0.99970
1559195969.613556 33.50504 -189.38709 -15.58969 0.00733 0.00050 0.02505 0.99966
1559195969.8135602 31.81277 -189.35161 -15.58587 0.00864 -0.00120 0.03031 0.99950
1559195970.013538 30.12121 -189.34078 -15.60884 0.00829 0.00540 0.02033 0.99974
1559195970.2133636 28.42613 -189.29854 -15.56995 0.00910 0.00245 0.02407 0.99967
1559195970.4133115 26.68153 -189.19909 -15.57296 0.00805 -0.00238 0.02026 0.99976
1559195970.6135275 24.96335 -189.15343 -15.59360 0.00825 0.00119 0.02047 0.99976
1559195970.813561 23.24669 -189.14232 -15.60479 0.00859 0.00399 0.01884 0.99978
1559195971.0135908 21.47875 -189.05479 -15.59137 0.00765 0.00217 0.01738 0.99982
1559195971.2136264 19.72238 -189.05457 -15.58815 0.00608 0.00003 0.01828 0.99981
1559195971.4137402 17.89704 -188.85984 -15.59769 0.00267 -0.00048 0.01997 0.99980
1559195971.6136708 16.15609 -188.97596 -15.61566 0.00188 0.00171 0.01961 0.99980
1559195971.8135881 14.39258 -189.01551 -15.59890 0.00061 0.00015 0.01898 0.99982
1559195972.013646 12.51158 -188.86949 -15.61219 -0.00177 -0.00079 0.02030 0.99979
1559195972.2133431 10.72019 -188.93455 -15.60627 -0.00153 0.00025 0.01904 0.99982
1559195972.413665 8.88045 -188.92543 -15.61226 -0.00162 0.00062 0.01816 0.99983
1559195972.6136825 7.04009 -188.92197 -15.61985 -0.00146 0.00161 0.01810 0.99983
1559195972.8135734 5.19434 -188.91627 -15.61912 -0.00140 0.00146 0.01771 0.99984
1559195973.0136678 3.32486 -188.91726 -15.60794 -0.00156 -0.00003 0.01723 0.99985
1559195973.2136736 1.46770 -188.93001 -15.61950 -0.00136 0.00097 0.01696 0.99985
1559195973.4136603 -0.39019 -188.94624 -15.60038 -0.00084 -0.00010 0.01846 0.99983
1559195973.613953 -2.29738 -188.90260 -15.60016 -0.00063 0.00085 0.02126 0.99977
1559195973.8136122 -4.18105 -188.89220 -15.60604 -0.00017 0.00301 0.02065 0.99978
1559195974.0135608 -6.08637 -188.89325 -15.59363 0.00008 0.00058 0.01876 0.99982
1559195974.213518 -7.97229 -188.91049 -15.59672 0.00107 0.00139 0.01668 0.99986
1559195974.4135182 -9.91540 -188.86039 -15.60158 0.00130 0.00327 0.01727 0.99984
1559195974.6135912 -11.84961 -188.83096 -15.59712 0.00186 0.00241 0.01845 0.99983
1559195974.8137026 -13.78605 -188.79900 -15.59517 0.00214 0.00126 0.01780 0.99984
1559195975.0137124 -15.73499 -188.72554 -15.59446 0.00181 0.00008 0.01887 0.99982
1559195975.2135558 -17.66950 -188.75522 -15.60992 0.00274 -0.00048 0.01771 0.99984
1559195975.413582 -19.62513 -188.73406 -15.62381 0.00286 -0.00037 0.01687 0.99985
1559195975.6136136 -21.57976 -188.70286 -15.63531 0.00292 0.00351 0.01590 0.99986
1559195975.8135707 -23.54381 -188.68022 -15.61748 0.00325 0.00111 0.01538 0.99988
1559195976.0136755 -25.52706 -188.61846 -15.62102 0.00297 -0.00126 0.01547 0.99988
1559195976.213665 -27.48083 -188.60507 -15.63849 0.00342 0.00097 0.01589 0.99987
1559195976.4135962 -29.43862 -188.52812 -15.63341 0.00330 0.00096 0.01633 0.99986
1559195976.613691 -31.38663 -188.51868 -15.62444 0.00362 -0.00016 0.01563 0.99987
1559195976.8136423 -33.34406 -188.43898 -15.62537 0.00316 -0.00005 0.01704 0.99985
1559195977.0135977 -35.31241 -188.36417 -15.64151 0.00254 0.00029 0.01712 0.99985
1559195977.21352 -37.23462 -188.36802 -15.63631 0.00257 -0.00057 0.01610 0.99987
1559195977.4135118 -39.14639 -188.37220 -15.63931 0.00269 0.00033 0.01474 0.99989
1559195977.6134772 -41.08105 -188.30029 -15.63803 0.00292 0.00068 0.01577 0.99987
1559195977.8136525 -42.97077 -188.29999 -15.63646 0.00396 0.00087 0.01328 0.99990
1559195978.0136347 -44.91605 -188.16375 -15.62491 0.00437 -0.00061 0.01531 0.99987
1559195978.2137039 -46.73887 -188.19800 -15.60783 0.00624 -0.00115 0.01386 0.99988
1559195978.4135942 -48.59844 -188.11835 -15.61087 0.00751 -0.00075 0.01454 0.99987
1559195978.6135204 -50.43384 -188.07026 -15.61143 0.00963 -0.00134 0.01542 0.99983
1559195978.8136525 -52.26185 -188.01109 -15.62078 0.01224 -0.00234 0.01412 0.99982
1559195979.013556 -54.07817 -187.97079 -15.63003 0.01570 -0.00386 0.01333 0.99978
1559195979.2135932 -55.88109 -187.84084 -15.64636 0.01925 -0.00181 0.01851 0.99964
1559195979.414599 -57.66291 -187.74007 -15.65510 0.02311 0.00054 0.01824 0.99957
1559195979.613689 -59.40160 -187.58759 -15.66757 0.02695 -0.00212 0.01524 0.99952
1559195979.813765 -61.15329 -187.53509 -15.65765 0.03204 -0.00267 0.01201 0.99941
1559195980.0138214 -62.82313 -187.35235 -15.67011 0.03628 -0.00175 0.01281 0.99926
1559195980.2135866 -64.51487 -187.18108 -15.68401 0.04042 -0.00188 0.01259 0.99910
1559195980.413649 -66.19615 -187.00518 -15.69075 0.04484 -0.00200 0.01438 0.99889
1559195980.613665 -67.82781 -186.81853 -15.69792 0.04903 -0.00193 0.01577 0.99867
1559195980.8137174 -69.46345 -186.62708 -15.70646 0.05272 -0.00120 0.01591 0.99848
1559195981.0136163 -71.09482 -186.42749 -15.71868 0.05501 -0.00164 0.01821 0.99832
1559195981.2152011 -72.70510 -186.22267 -15.72721 0.05638 -0.00182 0.01868 0.99823
1559195981.41355 -74.27533 -186.02793 -15.74008 0.05676 -0.00039 0.01880 0.99821
1559195981.6136267 -75.85023 -185.82523 -15.74298 0.05582 -0.00051 0.01907 0.99826
1559195981.8136384 -77.40049 -185.62246 -15.73560 0.05406 -0.00094 0.01791 0.99838
1559195982.0135815 -78.92127 -185.43462 -15.73159 0.05188 -0.00225 0.01728 0.99850
1559195982.2135916 -80.42195 -185.26930 -15.72251 0.04964 -0.00440 0.01689 0.99861
1559195982.4136295 -81.90376 -185.12114 -15.71154 0.04708 -0.00391 0.01546 0.99876
1559195982.6136026 -83.35202 -184.97996 -15.71226 0.04438 -0.00247 0.01562 0.99889
1559195982.8136635 -84.75338 -184.85767 -15.70370 0.04170 -0.00129 0.01530 0.99901
1559195983.0137024 -86.11899 -184.74840 -15.68896 0.03862 -0.00076 0.01471 0.99915
1559195983.213695 -87.42139 -184.64686 -15.68355 0.03563 -0.00094 0.01566 0.99924
1559195983.4135795 -88.72604 -184.53846 -15.67256 0.03262 -0.00139 0.01556 0.99935
1559195983.6137075 -89.96486 -184.46179 -15.67244 0.02971 -0.00139 0.01524 0.99944
1559195983.8137765 -91.21752 -184.39129 -15.66795 0.02695 -0.00103 0.01546 0.99952
1559195984.013651 -92.40241 -184.33795 -15.66500 0.02491 -0.00068 0.01635 0.99956
1559195984.213573 -93.54275 -184.29605 -15.66548 0.02364 0.00005 0.01468 0.99961
1559195984.416441 -94.69007 -184.24343 -15.66631 0.02327 0.00033 0.01427 0.99963
1559195984.6136343 -95.83152 -184.18223 -15.66352 0.02332 0.00113 0.01556 0.99961
1559195984.8150883 -96.96955 -184.11912 -15.65976 0.02427 0.00059 0.01608 0.99958
1559195985.013686 -98.05007 -184.06195 -15.66354 0.02662 -0.00156 0.01407 0.99955
1559195985.2135108 -99.07142 -184.00130 -15.65881 0.03063 -0.00278 0.01256 0.99945
1559195985.413546 -100.00089 -183.92501 -15.66581 0.03671 -0.00161 0.01230 0.99925
1559195985.6136699 -100.89811 -183.82571 -15.67206 0.04561 -0.00008 0.01142 0.99889
1559195985.8137245 -101.65681 -183.71612 -15.67472 0.05642 0.00046 0.01102 0.99835
1559195986.0136416 -102.14214 -183.58932 -15.66430 0.06811 -0.00041 0.01227 0.99760
1559195986.2136087 -102.74017 -183.46207 -15.65653 0.08058 -0.00018 0.00867 0.99671
1559195986.4136875 -103.16533 -183.30807 -15.63781 0.09375 0.00005 0.00948 0.99555
1559195986.6164572 -103.59652 -183.12817 -15.63130 0.10810 0.00005 0.01073 0.99408
1559195986.813748 -104.05085 -182.94209 -15.63209 0.12449 0.00289 0.01105 0.99215
1559195987.0136297 -104.47244 -182.74469 -15.62577 0.14120 0.00359 0.00638 0.98995
1559195987.213642 -104.92398 -182.51346 -15.61972 0.15894 0.00338 0.00602 0.98726
1559195987.4137504 -105.38826 -182.25405 -15.61802 0.17774 0.00374 0.00678 0.98405
1559195987.6137335 -105.80670 -181.98415 -15.61826 0.19723 0.00421 0.00614 0.98033
1559195987.8135948 -106.20453 -181.70403 -15.61735 0.21789 0.00402 0.00712 0.97594
1559195988.0136206 -106.59063 -181.40986 -15.61895 0.23928 0.00307 0.00668 0.97092
1559195988.2135653 -106.93293 -181.10004 -15.62469 0.26212 0.00345 0.00761 0.96500
1559195988.4147758 -107.24333 -180.78703 -15.62533 0.28642 0.00455 0.00728 0.95806
1559195988.6136334 -107.59727 -180.42653 -15.62278 0.31140 0.00320 0.00623 0.95025
1559195988.8137221 -107.87584 -180.05983 -15.62698 0.33765 0.00493 0.00580 0.94124
1559195989.013875 -108.10948 -179.68042 -15.63276 0.36606 0.00731 0.00515 0.93055
1559195989.2136045 -108.35214 -179.26415 -15.63283 0.39521 0.00694 0.00536 0.91855
1559195989.4137542 -108.59501 -178.80253 -15.63461 0.42542 0.00793 0.00454 0.90495
1559195989.6137195 -108.84179 -178.31999 -15.63959 0.45611 0.00673 0.00096 0.88990
1559195989.813659 -109.07804 -177.77517 -15.63925 0.48653 0.00648 0.00376 0.87363
1559195990.0135367 -109.28381 -177.20854 -15.64212 0.51823 0.00916 0.00406 0.85518
1559195990.2151663 -109.51367 -176.59672 -15.65310 0.54957 0.00729 -0.00129 0.83542
1559195990.4136987 -109.63572 -175.95760 -15.64850 0.57925 0.00727 0.00170 0.81512
1559195990.6135561 -109.72619 -175.28212 -15.65039 0.60771 0.00919 0.00320 0.79410
1559195990.8135781 -109.80342 -174.56142 -15.65194 0.63174 0.00757 0.00125 0.77514
1559195991.0141182 -109.89188 -173.77585 -15.64294 0.65126 0.00606 0.00136 0.75883
1559195991.21372 -109.93196 -172.96264 -15.64242 0.66596 0.00955 0.00340 0.74592
1559195991.4136622 -109.96678 -172.11166 -15.64098 0.67670 0.01069 0.00113 0.73618
1559195991.6136818 -109.97622 -171.23759 -15.63773 0.68446 0.00954 -0.00280 0.72898
1559195991.8136008 -109.96507 -170.30748 -15.62529 0.68963 0.01093 -0.00113 0.72408
1559195992.0141523 -109.94814 -169.35077 -15.61322 0.69503 0.01019 0.00022 0.71891
1559195992.2135804 -109.93411 -168.37883 -15.60822 0.70058 0.00813 -0.00189 0.71353
1559195992.4136012 -109.87623 -167.38717 -15.58959 0.70586 0.00868 -0.00056 0.70830
1559195992.6141794 -109.83402 -166.36530 -15.58524 0.71078 0.00983 -0.00068 0.70335
1559195992.813766 -109.77627 -165.32901 -15.57510 0.71403 0.00952 -0.00055 0.70005
1559195993.013588 -109.72047 -164.26815 -15.57205 0.71572 0.01069 -0.00037 0.69831
1559195993.2135415 -109.66683 -163.19614 -15.57123 0.71627 0.01050 -0.00124 0.69775
1559195993.4136927 -109.62036 -162.09047 -15.56370 0.71676 0.00905 -0.00201 0.69726
1559195993.6136718 -109.56927 -160.95872 -15.54855 0.71700 0.00827 -0.00035 0.69702
1559195993.8143375 -109.52744 -159.79950 -15.53524 0.71685 0.00758 -0.00028 0.69719
1559195994.013611 -109.48373 -158.62944 -15.52460 0.71644 0.00763 -0.00138 0.69761
1559195994.213749 -109.44461 -157.41602 -15.51669 0.71588 0.00753 -0.00178 0.69818
1559195994.4138627 -109.40762 -156.16816 -15.50209 0.71539 0.00719 -0.00060 0.69869
1559195994.613629 -109.37745 -154.87370 -15.49378 0.71451 0.00709 0.00023 0.69959
1559195994.8136582 -109.35906 -153.55052 -15.49560 0.71349 0.00813 0.00014 0.70062
1559195995.01359 -109.34518 -152.19673 -15.49432 0.71236 0.00968 -0.00114 0.70175
1559195995.2136352 -109.34301 -150.85966 -15.48491 0.71143 0.01019 -0.00132 0.70268
1559195995.4138165 -109.33743 -149.45097 -15.46905 0.71132 0.00952 -0.00107 0.70280
1559195995.613806 -109.32844 -148.02628 -15.46102 0.71135 0.00960 -0.00062 0.70278
1559195995.8138452 -109.32463 -146.59170 -15.46071 0.71140 0.00936 0.00059 0.70273
1559195996.013649 -109.30882 -145.13269 -15.45062 0.71112 0.00870 0.00144 0.70302
1559195996.2135484 -109.30203 -143.68526 -15.44104 0.70971 0.01037 0.00143 0.70442
1559195996.4136617 -109.29866 -142.21765 -15.43361 0.70749 0.01251 0.00205 0.70661
1559195996.613772 -109.30986 -140.71784 -15.41895 0.70459 0.00978 0.00251 0.70954
1559195996.8137176 -109.31105 -139.19196 -15.40010 0.70098 0.01040 0.00295 0.71310
1559195997.0135686 -109.33791 -137.66743 -15.39716 0.69679 0.01142 0.00138 0.71718
1559195997.2136838 -109.37571 -136.09449 -15.37702 0.69240 0.00912 0.00224 0.72145
1559195997.4147823 -109.46217 -134.52126 -15.36301 0.68810 0.00874 0.00306 0.72556
1559195997.613807 -109.54801 -132.92073 -15.36319 0.68361 0.01083 0.00180 0.72977
1559195997.8136892 -109.66479 -131.29554 -15.35866 0.67919 0.01273 0.00137 0.73385
1559195998.0137181 -109.80652 -129.65713 -15.34233 0.67532 0.01270 0.00171 0.73741
1559195998.213833 -109.96068 -128.00405 -15.32492 0.67241 0.01392 0.00147 0.74005
1559195998.4140067 -110.14303 -126.34302 -15.32455 0.67072 0.01387 0.00162 0.74158
1559195998.6138527 -110.31876 -124.65359 -15.28330 0.66992 0.01202 0.00276 0.74233
1559195998.8137052 -110.50838 -122.99135 -15.26628 0.66951 0.01145 0.00312 0.74271
1559195999.0135875 -110.69395 -121.30048 -15.25432 0.66942 0.01006 0.00271 0.74281
1559195999.2137616 -110.88229 -119.66135 -15.22923 0.66989 0.01012 0.00268 0.74238
1559195999.4137373 -111.05014 -117.91568 -15.21576 0.67145 0.00873 0.00073 0.74100
1559195999.6136708 -111.18923 -116.14347 -15.20051 0.67400 0.00776 0.00041 0.73869
1559195999.8135962 -111.32671 -114.44530 -15.19094 0.67729 0.00941 0.00474 0.73564
1559196000.013719 -111.44373 -112.73471 -15.18213 0.68081 0.01036 0.00464 0.73237
1559196000.2164752 -111.54871 -111.02942 -15.17743 0.68353 0.01538 0.00177 0.72976
1559196000.4137533 -111.62243 -109.37357 -15.15074 0.68669 0.01571 0.00197 0.72678
1559196000.6137617 -111.67444 -107.68501 -15.11003 0.68986 0.01372 0.00837 0.72376
1559196000.8143063 -111.71386 -106.00672 -15.09061 0.69254 0.01058 0.00717 0.72126
1559196001.0136445 -111.75330 -104.34813 -15.08787 0.69509 0.01140 0.00164 0.71883
1559196001.2138987 -111.76343 -102.69531 -15.06780 0.69770 0.00985 -0.00081 0.71633
1559196001.4138434 -111.74658 -101.03670 -15.04337 0.69975 0.00749 0.00299 0.71434
1559196001.6138146 -111.72468 -99.36084 -15.04265 0.70210 0.00872 0.00714 0.71199
1559196001.8141966 -111.68857 -97.70603 -15.04612 0.70371 0.01102 0.00540 0.71038
1559196002.013822 -111.66186 -96.01842 -15.04594 0.70555 0.01457 0.00410 0.70850
1559196002.2138302 -111.63600 -94.29164 -15.02122 0.70687 0.01277 0.00501 0.70721
1559196002.4139876 -111.64144 -92.51985 -15.01770 0.70821 0.01151 0.00348 0.70590
1559196002.6136749 -111.58197 -90.81122 -15.00136 0.70886 0.01311 0.00315 0.70522
1559196002.8138058 -111.55032 -89.04837 -14.98268 0.70974 0.01120 0.00269 0.70437
1559196003.0139112 -111.51257 -87.27108 -14.96450 0.71048 0.01209 0.00335 0.70360
1559196003.2139373 -111.46559 -85.49190 -14.95045 0.71124 0.01072 0.00345 0.70286
1559196003.4137826 -111.41366 -83.71431 -14.93460 0.71199 0.00842 0.00489 0.70212
1559196003.613767 -111.36249 -81.93208 -14.92821 0.71287 0.00969 0.00451 0.70121
1559196003.813798 -111.31076 -80.11959 -14.92232 0.71360 0.01082 0.00416 0.70046
1559196004.0138848 -111.25120 -78.29266 -14.90757 0.71431 0.01212 0.00488 0.69971
1559196004.2138484 -111.18513 -76.45478 -14.89329 0.71513 0.01351 0.00586 0.69884
1559196004.4139912 -111.11386 -74.63707 -14.87596 0.71595 0.01435 0.00626 0.69798
1559196004.6138532 -111.03651 -72.80432 -14.85817 0.71668 0.01442 0.00580 0.69722
1559196004.8137376 -110.95024 -70.97189 -14.84083 0.71749 0.01454 0.00525 0.69640
1559196005.0138528 -110.85984 -69.12633 -14.82845 0.71838 0.01412 0.00507 0.69549
1559196005.2138698 -110.77125 -67.29054 -14.81598 0.71957 0.01273 0.00305 0.69430
1559196005.4138858 -110.68075 -65.45041 -14.79642 0.72106 0.01121 0.00103 0.69278
1559196005.6139266 -110.57469 -63.60317 -14.77398 0.72277 0.00912 0.00179 0.69102
1559196005.813825 -110.45487 -61.77764 -14.75377 0.72471 0.00887 0.00404 0.68898
1559196006.0138812 -110.32621 -59.94725 -14.74573 0.72663 0.00929 0.00459 0.68695
1559196006.2135987 -110.19136 -58.13604 -14.74022 0.72883 0.00909 0.00393 0.68463
1559196006.4137273 -110.05423 -56.31446 -14.72648 0.73095 0.00956 0.00399 0.68235
1559196006.6139145 -109.90000 -54.50686 -14.71547 0.73319 0.01124 0.00382 0.67992
1559196006.8137503 -109.73569 -52.71191 -14.70546 0.73540 0.01166 0.00537 0.67752
1559196007.0138657 -109.57114 -50.90454 -14.69763 0.73741 0.01249 0.00607 0.67530
1559196007.2138298 -109.38576 -49.12113 -14.68702 0.73940 0.01234 0.00694 0.67312
1559196007.4139078 -109.19189 -47.33104 -14.67964 0.74141 0.01306 0.00722 0.67088
1559196007.6136792 -108.97691 -45.56737 -14.66790 0.74310 0.01406 0.00776 0.66899
1559196007.8136322 -108.76466 -43.84131 -14.64758 0.74453 0.01331 0.00804 0.66741
1559196008.013696 -108.54217 -42.13147 -14.63981 0.74595 0.01398 0.00729 0.66581
1559196008.2136905 -108.30927 -40.42556 -14.62564 0.74704 0.01433 0.00554 0.66460
1559196008.4138093 -108.06896 -38.72394 -14.61292 0.74769 0.01521 0.00560 0.66385
1559196008.6140883 -107.84062 -37.06012 -14.60072 0.74799 0.01473 0.00505 0.66352
1559196008.8137555 -107.61121 -35.41295 -14.58375 0.74826 0.01591 0.00417 0.66320
1559196009.0137823 -107.38467 -33.74337 -14.56262 0.74844 0.01642 0.00329 0.66299
1559196009.2138863 -107.16513 -32.08417 -14.53515 0.74854 0.01455 0.00235 0.66293
1559196009.4137752 -106.94062 -30.44909 -14.51682 0.74816 0.01330 0.00294 0.66338
1559196009.613845 -106.72906 -28.84330 -14.49758 0.74763 0.01314 0.00321 0.66398
1559196009.8136635 -106.51363 -27.23054 -14.48414 0.74696 0.01434 0.00407 0.66470
1559196010.0137398 -106.32840 -25.59804 -14.47328 0.74601 0.01390 0.00501 0.66578
1559196010.2138343 -106.15487 -23.97768 -14.46644 0.74512 0.01478 0.00466 0.66675
1559196010.413795 -105.98453 -22.34376 -14.45519 0.74437 0.01535 0.00476 0.66758
1559196010.613734 -105.82248 -20.72461 -14.44071 0.74358 0.01393 0.00552 0.66848
1559196010.8154233 -105.65907 -19.13357 -14.42907 0.74293 0.01333 0.00673 0.66920
1559196011.013954 -105.49778 -17.56979 -14.42410 0.74245 0.01161 0.00749 0.66975
1559196011.213854 -105.36520 -16.12605 -14.43431 0.74278 0.01119 0.00712 0.66940
1559196011.4138715 -105.20948 -14.68898 -14.43339 0.74357 0.01197 0.00726 0.66851
1559196011.6136768 -105.04004 -13.27759 -14.42660 0.74470 0.01290 0.00638 0.66724
1559196011.81404 -104.87339 -11.89626 -14.41808 0.74704 0.01329 0.00459 0.66463
1559196012.0140402 -104.71029 -10.56408 -14.41887 0.75103 0.01129 0.00440 0.66015
1559196012.2139266 -104.50403 -9.25089 -14.41645 0.75685 0.01028 0.00722 0.65347
1559196012.4138408 -104.27907 -7.99110 -14.42126 0.76507 0.01111 0.00884 0.64380
1559196012.6138382 -103.99980 -6.79398 -14.41069 0.77453 0.01323 0.01019 0.63231
1559196012.8138816 -103.69004 -5.53630 -14.40704 0.78632 0.01437 0.01084 0.61756
1559196013.013761 -103.34303 -4.30703 -14.41747 0.79993 0.01800 0.00987 0.59974
1559196013.2138407 -102.93884 -3.24434 -14.40407 0.81475 0.01957 0.00705 0.57944
1559196013.4137623 -102.46434 -2.24178 -14.38126 0.83005 0.01704 0.00845 0.55736
1559196013.6140568 -101.94752 -1.34382 -14.36053 0.84563 0.01486 0.00918 0.53348
1559196013.813824 -101.35918 -0.38908 -14.37103 0.86146 0.01615 0.00245 0.50757
1559196014.0139194 -100.68256 0.76378 -14.37905 0.87675 0.01796 -0.00166 0.48061
1559196014.2139747 -99.92756 1.91273 -14.36643 0.89100 0.01735 0.00248 0.45366
1559196014.4140606 -99.11206 3.09460 -14.36322 0.90471 0.01824 0.00352 0.42563
1559196014.6139007 -98.29154 3.85932 -14.36911 0.91757 0.02156 -0.00029 0.39699
1559196014.8137898 -97.35926 4.69717 -14.37259 0.92944 0.02446 0.00136 0.36817
1559196015.0139952 -96.41736 5.33896 -14.36221 0.94072 0.02136 0.00460 0.33848
1559196015.2142184 -95.35719 6.15406 -14.35250 0.95112 0.01906 0.00673 0.30817
1559196015.4140754 -94.29109 6.73990 -14.35647 0.96067 0.01989 0.00613 0.27692
1559196015.6140141 -93.11781 7.40396 -14.37939 0.96923 0.02065 0.00647 0.24522
1559196015.8138683 -91.87729 8.02510 -14.39801 0.97687 0.01727 0.00917 0.21294
1559196016.0138364 -90.58694 8.54669 -14.40629 0.98332 0.01691 0.01222 0.18066
1559196016.2139773 -89.23488 9.04719 -14.45296 0.98877 0.01701 0.00787 0.14824
1559196016.414161 -87.83406 9.44596 -14.48006 0.99286 0.01619 0.00396 0.11813
1559196016.6142871 -86.42070 9.70390 -14.48438 0.99600 0.01359 0.00461 0.08823
1559196016.8140724 -85.02075 9.80199 -14.49346 0.99825 0.01084 0.00204 0.05804
1559196017.014254 -83.56474 9.84848 -14.50502 0.99960 0.00788 0.00121 0.02724
1559196017.214205 -82.10143 9.74818 -14.50578 0.99995 0.00884 0.00471 0.00129
1559196017.4141111 -80.55289 9.67278 -14.53275 0.99977 0.00941 0.00663 -0.01808
1559196017.6142561 -78.96108 9.58571 -14.57698 0.99945 0.00572 0.00718 -0.03198
1559196017.814092 -77.38629 9.43142 -14.61246 0.99911 0.00528 0.00729 -0.04117
1559196018.0141528 -75.77971 9.24885 -14.65272 0.99883 0.00564 0.00742 -0.04754
1559196018.2142336 -74.17524 9.05067 -14.69738 0.99860 0.00487 0.00781 -0.05205
1559196018.4139898 -72.60478 8.78799 -14.72790 0.99850 0.00711 0.00861 -0.05354
1559196018.6141639 -70.97152 8.58807 -14.77266 0.99851 0.00659 0.00940 -0.05332
1559196018.8150632 -69.34416 8.41919 -14.81193 0.99861 0.00620 0.00984 -0.05142
1559196019.0143163 -67.71670 8.24309 -14.84962 0.99879 0.00913 0.01015 -0.04717
1559196019.2141397 -66.08762 8.05224 -14.90323 0.99903 0.01004 0.00985 -0.04174
1559196019.4140985 -64.42491 7.92571 -14.95223 0.99926 0.00963 0.00942 -0.03604
1559196019.6140342 -62.77580 7.73784 -14.98389 0.99945 0.01057 0.00857 -0.03023
1559196019.8142028 -61.06972 7.61900 -14.99236 0.99959 0.01166 0.00789 -0.02495
1559196020.0140903 -59.40115 7.58055 -15.01479 0.99969 0.01111 0.01025 -0.01999
1559196020.2140598 -57.67190 7.57227 -15.04057 0.99973 0.01247 0.01090 -0.01606
1559196020.4140975 -55.90774 7.60485 -15.09420 0.99981 0.01032 0.00881 -0.01392
1559196020.6139004 -54.10385 7.61104 -15.13529 0.99978 0.01332 0.00853 -0.01365
1559196020.8141387 -52.26444 7.61700 -15.18016 0.99979 0.01259 0.00825 -0.01395
1559196021.0141668 -50.36217 7.59644 -15.22424 0.99980 0.01076 0.00822 -0.01459
1559196021.2141695 -48.39155 7.54472 -15.27034 0.99978 0.01050 0.01044 -0.01477
1559196021.414247 -46.42687 7.47426 -15.32067 0.99976 0.01123 0.01117 -0.01529
1559196021.6142826 -44.45609 7.40395 -15.37473 0.99976 0.01377 0.00748 -0.01508
1559196021.814298 -42.51649 7.36391 -15.40957 0.99971 0.01791 0.00765 -0.01393
1559196022.014176 -40.53348 7.27560 -15.44271 0.99969 0.02096 0.00985 -0.00961
1559196022.2142358 -38.55104 7.22303 -15.48887 0.99976 0.02045 0.00483 -0.00602
1559196022.4142056 -36.64776 7.23509 -15.50493 0.99975 0.02127 0.00676 -0.00323
1559196022.614196 -34.81235 7.28609 -15.52049 0.99974 0.02234 0.00429 -0.00082
1559196022.8142529 -32.68487 7.17217 -15.55856 0.99971 0.02386 0.00336 0.00244
1559196023.0142195 -30.71134 7.19532 -15.57689 0.99979 0.01799 0.00820 0.00503
1559196023.2145321 -28.72329 7.19934 -15.61117 0.99974 0.01995 0.00857 0.00685
1559196023.414292 -26.74931 7.22280 -15.66280 0.99982 0.01704 0.00338 0.00743
1559196023.6141639 -24.76511 7.24214 -15.68285 0.99984 0.01524 0.00675 0.00624
1559196023.8140826 -22.78948 7.25391 -15.71730 0.99983 0.01366 0.01147 0.00354
1559196024.0142593 -20.84759 7.24139 -15.77758 0.99984 0.01474 0.00978 0.00056
1559196024.214288 -18.94276 7.22454 -15.83448 0.99984 0.01540 0.00919 -0.00242
1559196024.4143267 -17.06240 7.21070 -15.86232 0.99987 0.01245 0.00903 -0.00505
1559196024.6143472 -15.18861 7.15419 -15.89549 0.99990 0.01069 0.00631 -0.00666
1559196024.814293 -13.39103 7.16302 -15.91780 0.99990 0.01134 0.00529 -0.00700
1559196025.0143404 -11.59298 7.07340 -15.92273 0.99989 0.01258 0.00610 -0.00581
1559196025.214279 -9.77678 7.04509 -15.93674 0.99985 0.01629 0.00419 -0.00465
1559196025.4142022 -8.03084 7.04852 -15.94170 0.99985 0.01643 0.00571 -0.00172
1559196025.614218 -6.34750 6.96486 -15.92228 0.99986 0.01498 0.00661 0.00365
1559196025.8144166 -4.66304 6.97653 -15.92313 0.99986 0.01167 0.00726 0.00938
1559196026.0143664 -3.01672 7.01401 -15.92709 0.99982 0.01176 0.00377 0.01405
1559196026.2145653 -1.46204 7.09962 -15.92704 0.99974 0.01341 0.00082 0.01853
1559196026.4142587 -0.24114 7.27762 -15.88086 0.99968 0.01130 0.00447 0.02223
1559196026.6142888 1.75602 7.27599 -15.88516 0.99953 0.01195 0.00690 0.02737
1559196026.8143923 3.58026 7.33761 -15.91289 0.99942 0.01254 0.00421 0.03143
1559196027.014218 5.35022 7.45774 -15.91495 0.99931 0.01002 0.00773 0.03503
1559196027.2143464 6.54359 7.77736 -15.87737 0.99932 0.00872 0.00276 0.03585
1559196027.414176 8.17283 7.99380 -15.84703 0.99924 0.00597 0.00405 0.03819
1559196027.614194 10.88802 7.96143 -15.94293 0.99911 0.01078 0.00282 0.04071
1559196027.8141978 13.05093 8.05783 -15.98369 0.99907 0.01058 0.00130 0.04169
1559196028.014169 14.59039 8.39618 -15.94489 0.99919 0.00556 0.00338 0.03978
1559196028.2143512 16.74144 8.52219 -15.93407 0.99923 0.00709 0.00486 0.03822
1559196028.4143667 19.12944 8.48031 -16.02261 0.99923 0.01364 0.00072 0.03674
1559196028.614277 21.14967 8.56635 -16.03737 0.99925 0.01822 -0.00312 0.03405
1559196028.814571 23.11758 8.75281 -16.03692 0.99940 0.01593 -0.00549 0.03027
1559196029.014941 25.07386 8.76444 -15.98406 0.99948 0.01311 -0.00665 0.02870
1559196029.214335 27.08134 8.84263 -15.95768 0.99959 0.01171 0.00004 0.02623
1559196029.414356 29.14170 8.94253 -15.97425 0.99964 0.01137 0.00026 0.02418
1559196029.6159792 31.33621 9.00013 -16.01915 0.99962 0.01380 -0.00084 0.02401
1559196029.8144455 33.52348 9.07255 -16.01422 0.99962 0.01267 0.00106 0.02439
1559196030.0143018 35.73378 9.12100 -16.03793 0.99960 0.01186 0.00186 0.02547
1559196030.2142878 38.12655 9.27021 -16.08186 0.99962 0.01052 0.00095 0.02555
1559196030.414285 40.53451 9.37768 -16.10965 0.99964 0.00826 0.00264 0.02520
1559196030.6142974 42.91463 9.44551 -16.12718 0.99969 0.00656 0.00470 0.02347
1559196030.814172 45.29810 9.52904 -16.16783 0.99974 0.00638 0.00505 0.02147
1559196031.014572 47.66053 9.61182 -16.20971 0.99976 0.00554 0.00354 0.02067
1559196031.2141743 50.03497 9.67624 -16.23862 0.99979 0.00298 0.00266 0.02022
1559196031.416882 52.35462 9.72767 -16.25720 0.99974 0.00782 0.00779 0.02003
1559196031.6143079 54.74797 9.73493 -16.31446 0.99969 0.01276 -0.00318 0.02103
1559196031.8141274 57.01452 9.83724 -16.31422 0.99962 0.01421 -0.00687 0.02264
1559196032.0142858 59.38619 9.93584 -16.28563 0.99953 0.01672 0.00531 0.02528
1559196032.2146175 61.73518 10.03206 -16.32663 0.99948 0.01604 0.00765 0.02697
1559196032.414206 64.05575 10.15535 -16.38482 0.99952 0.01386 0.00073 0.02774
1559196032.6142693 66.47942 10.21954 -16.39588 0.99946 0.01440 -0.00162 0.02955
1559196032.8142831 68.72592 10.40815 -16.38775 0.99948 0.01084 0.00116 0.03032
1559196033.0143704 71.04419 10.52299 -16.39370 0.99947 0.01156 0.00017 0.03040
1559196033.214983 73.48068 10.58632 -16.40018 0.99936 0.01354 0.00382 0.03276
1559196033.4141355 75.46645 10.76405 -16.42761 0.99926 0.01515 0.00673 0.03461
1559196033.614259 77.72696 10.90619 -16.47690 0.99921 0.01294 0.00442 0.03722
1559196033.8143494 79.80373 11.05125 -16.49420 0.99911 0.01396 0.00344 0.03959
1559196034.0143347 81.94177 11.22167 -16.50655 0.99904 0.01298 0.00377 0.04158
1559196034.2142522 84.11635 11.39063 -16.51951 0.99904 0.01180 0.00196 0.04218
1559196034.4143462 86.25713 11.55648 -16.52278 0.99900 0.01282 0.00198 0.04267
1559196034.6142755 88.38216 11.72376 -16.52725 0.99898 0.01298 0.00415 0.04305
1559196034.814258 90.66955 11.85058 -16.54236 0.99895 0.01302 0.00363 0.04388
1559196035.014277 92.78936 12.02766 -16.55810 0.99890 0.01398 0.00209 0.04480
1559196035.2141833 94.63356 12.23395 -16.55502 0.99887 0.01378 0.00087 0.04550
1559196035.4142277 96.72707 12.42005 -16.55089 0.99880 0.01395 0.00158 0.04697
1559196035.614254 98.64965 12.60397 -16.55645 0.99866 0.01448 0.00284 0.04964
1559196035.8143382 100.72355 12.80369 -16.56237 0.99852 0.01476 0.00446 0.05207
1559196036.0143209 102.62353 12.99511 -16.57532 0.99839 0.01461 0.00448 0.05462
1559196036.2142534 105.02549 13.19708 -16.64776 0.99822 0.01566 0.00399 0.05734
1559196036.4143572 106.79971 13.50983 -16.60691 0.99812 0.01483 0.00573 0.05917
1559196036.6141994 108.73193 13.81010 -16.60598 0.99799 0.01382 0.00737 0.06145
1559196036.814179 112.03498 13.78951 -16.82234 0.99760 0.01771 0.00612 0.06671
1559196037.0143638 113.43959 14.15017 -16.73591 0.99753 0.01598 0.00294 0.06835
1559196037.2145762 115.33688 14.52552 -16.68999 0.99737 0.01507 0.00198 0.07090
1559196037.4144871 117.67448 14.80319 -16.70555 0.99712 0.01487 0.00285 0.07438
1559196037.6143026 119.92500 15.18304 -16.73247 0.99691 0.01435 0.00579 0.07703
1559196037.8145292 121.54739 15.65132 -16.75761 0.99681 0.01271 0.00594 0.07854
1559196038.0142982 122.03720 16.20606 -16.77312 0.99684 0.00964 0.00239 0.07887
1559196038.2146397 126.17238 16.26592 -16.77849 0.99635 0.01397 0.00213 0.08423
1559196038.4143686 127.88910 16.65227 -16.81815 0.99633 0.01282 0.00349 0.08458
1559196038.6154726 130.40086 16.93197 -16.83847 0.99612 0.01417 0.00509 0.08671
1559196038.8144014 131.68369 17.43044 -16.85493 0.99609 0.01198 0.00305 0.08753
1559196039.0145307 134.76922 17.65904 -16.86524 0.99559 0.01487 0.00342 0.09252
1559196039.2145624 137.07600 18.05795 -16.91554 0.99521 0.01530 0.00511 0.09638
1559196039.414431 139.42357 18.48608 -16.96607 0.99477 0.01689 0.00414 0.10067
1559196039.6146312 141.31902 18.99784 -16.97250 0.99434 0.01520 0.00114 0.10512
1559196039.8144224 142.21900 19.52648 -16.96540 0.99395 0.01273 0.00063 0.10909
1559196040.014231 144.52277 19.94544 -16.95771 0.99324 0.01301 0.00538 0.11521
1559196040.2144713 144.63561 20.54478 -16.96093 0.99286 0.00984 -0.00060 0.11886
1559196040.4142308 148.95324 20.95599 -16.95874 0.99185 0.01206 -0.00016 0.12684
1559196040.614428 147.80062 21.51543 -16.98802 0.99156 0.01262 0.00321 0.12899
1559196040.8146758 150.62015 22.13193 -17.04102 0.99090 0.01202 0.00798 0.13386
1559196041.0144534 154.30574 22.70394 -17.03444 0.99072 0.01513 0.00842 0.13482
1559196041.214385 156.96808 23.23555 -17.06116 0.99066 0.01589 0.00477 0.13537
1559196041.4146378 155.68053 23.75238 -17.04419 0.99102 0.01002 0.00286 0.13330
1559196041.614676 161.22096 24.41492 -17.16781 0.99088 0.00700 0.00516 0.13450
1559196041.8144462 162.24764 25.15329 -17.17179 0.99155 0.00745 0.00309 0.12946
1559196042.0143104 165.04561 25.71513 -17.21868 0.99158 0.01375 0.00082 0.12874
1559196042.2183444 167.33674 26.33387 -17.27841 0.99144 0.01344 0.00384 0.12985
1559196042.4145133 169.93155 26.75616 -17.29736 0.99102 0.01255 0.00754 0.13293
1559196042.6146433 172.13159 27.18471 -17.25044 0.99055 0.01354 0.00413 0.13641
1559196042.8145714 172.41492 28.35782 -17.49122 0.99073 0.00649 0.00152 0.13567
1559196043.0144467 175.42809 28.76472 -17.42231 0.98987 0.01011 0.00444 0.14157
1559196043.214465 177.99884 29.15185 -17.40025 0.98905 0.01295 0.00418 0.14696
1559196043.4144046 180.14189 29.59929 -17.29498 0.98825 0.01551 0.00563 0.15197
1559196043.6143472 180.54144 30.74511 -17.60002 0.98820 0.00634 0.00441 0.15297
1559196043.8144822 183.73494 31.09198 -17.46875 0.98703 0.00727 0.00306 0.16037
1559196044.015462 185.57224 31.77304 -17.57094 0.98635 0.00524 -0.00099 0.16460
1559196044.2145774 188.14653 32.15001 -17.37696 0.98526 0.00980 0.00726 0.17062
1559196044.414491 189.63660 33.09617 -17.48331 0.98488 0.01208 0.00631 0.17271
1559196044.6145911 191.77996 33.78415 -17.47410 0.98439 0.01477 0.00366 0.17533
1559196044.8147368 194.18247 34.23449 -17.41051 0.98362 0.01856 0.00410 0.17927
1559196045.014806 196.24130 34.97528 -17.40668 0.98320 0.01920 0.00420 0.18146
1559196045.214618 198.04085 35.81080 -17.45123 0.98291 0.01796 0.00316 0.18317
1559196045.4147644 200.15692 36.51980 -17.42047 0.98243 0.01880 0.00318 0.18567
1559196045.6145196 202.34446 37.27011 -17.42284 0.98201 0.01871 0.00195 0.18788
1559196045.8167515 204.28829 38.04728 -17.39678 0.98184 0.01672 -0.00128 0.18899
1559196046.0144448 206.08175 38.86332 -17.39520 0.98203 0.01362 -0.00217 0.18824
1559196046.2143478 208.28105 39.62246 -17.36459 0.98195 0.01284 0.00064 0.18872
1559196046.4143474 210.40977 40.49241 -17.40449 0.98223 0.01310 -0.00069 0.18723
1559196046.6145284 212.38616 41.24965 -17.36300 0.98244 0.01293 0.00297 0.18608
1559196046.8144119 214.44334 42.02602 -17.36833 0.98263 0.01201 0.00480 0.18513
1559196047.0144694 216.41884 42.69298 -17.37980 0.98276 0.01321 0.00280 0.18440
1559196047.2143688 218.37912 43.39716 -17.40572 0.98289 0.01253 0.00322 0.18375
1559196047.4144769 220.51358 44.22781 -17.41572 0.98313 0.01134 -0.00091 0.18256
1559196047.6144006 222.50443 44.96535 -17.41432 0.98321 0.01342 -0.00340 0.18197
1559196047.814494 224.46384 45.64944 -17.36924 0.98324 0.01375 0.00060 0.18180
1559196048.0144813 226.39556 46.36539 -17.36802 0.98344 0.01247 0.00199 0.18078
1559196048.2144117 228.38674 47.07964 -17.37511 0.98371 0.01190 0.00208 0.17933
1559196048.4144247 230.57703 47.92625 -17.41083 0.98405 0.01198 0.00191 0.17750
1559196048.6145732 232.49089 48.56306 -17.40591 0.98418 0.01307 0.00159 0.17670
1559196048.81454 234.50068 49.27218 -17.41204 0.98435 0.01518 0.00001 0.17555
1559196049.0143812 236.50100 49.97550 -17.40912 0.98450 0.01617 0.00129 0.17461
1559196049.2143755 238.56350 50.69943 -17.42246 0.98457 0.01618 0.00256 0.17422
1559196049.4144769 240.60987 51.43629 -17.42522 0.98467 0.01461 0.00113 0.17384
1559196049.61446 242.58663 52.11123 -17.43621 0.98469 0.01485 0.00127 0.17365
1559196049.8145275 244.63357 52.82540 -17.43287 0.98466 0.01661 0.00469 0.17361
1559196050.0143738 246.68677 53.56621 -17.46128 0.98461 0.01627 -0.00058 0.17403
1559196050.2147455 248.68936 54.26575 -17.44454 0.98447 0.01641 -0.00195 0.17480
1559196050.4144666 250.71345 54.98724 -17.42075 0.98435 0.01554 0.00208 0.17554
1559196050.6144583 252.74176 55.71388 -17.42370 0.98428 0.01352 0.00379 0.17606
1559196050.8144078 254.71088 56.41223 -17.43264 0.98425 0.01428 0.00167 0.17620
1559196051.0144322 256.66452 57.08114 -17.43948 0.98416 0.01408 0.00175 0.17672
1559196051.214425 258.64316 57.70011 -17.45487 0.98399 0.01419 0.00340 0.17761
1559196051.4144895 260.56921 58.44353 -17.44629 0.98407 0.01380 0.00368 0.17719
1559196051.6147165 262.56954 59.11812 -17.47669 0.98395 0.01324 0.00428 0.17789
1559196051.81437 264.50362 59.66861 -17.50958 0.98375 0.01368 0.00358 0.17896
1559196052.0148048 266.24693 60.23589 -17.52595 0.98380 0.01479 0.00386 0.17861
1559196052.2146804 267.97391 60.81150 -17.53103 0.98381 0.01766 0.00276 0.17832
1559196052.4145482 270.19977 61.82911 -17.53449 0.98413 0.01613 0.00046 0.17669
1559196052.6148934 272.04494 62.34199 -17.54816 0.98402 0.01556 0.00286 0.17735
1559196052.8153806 274.21718 63.12942 -17.57592 0.98407 0.01596 0.00320 0.17706
1559196053.014623 276.29552 63.85686 -17.57674 0.98399 0.01719 0.00109 0.17736
1559196053.2146316 278.32924 64.80024 -17.58583 0.98437 0.01872 0.00458 0.17507
1559196053.41484 280.27738 65.35765 -17.59432 0.98411 0.01920 0.00521 0.17642
