1559195809.0112681 23.69499 -0.40978 -1.54934 0.99955 0.00410 0.02941 -0.00445
1559195809.2113743 25.62083 -0.46414 -1.43939 0.99968 0.00072 0.02483 -0.00434
1559195809.411251 28.14995 -0.49923 -1.55306 0.99957 -0.01003 0.02702 -0.00469
1559195809.6115 30.24146 -0.54316 -1.88490 0.99913 -0.02649 0.03191 -0.00480
1559195809.8113174 32.15808 -0.60109 -2.13329 0.99885 -0.03610 0.03119 -0.00477
1559195810.0114295 34.07462 -0.64381 -2.31274 0.99867 -0.04138 0.03049 -0.00504
1559195810.2112806 35.74464 -0.67966 -2.44350 0.99840 -0.04777 0.02990 -0.00500
1559195810.4113045 36.93219 -0.71742 -2.46689 0.99822 -0.05263 0.02775 -0.00503
1559195810.6113791 36.33276 -0.70667 -2.28022 0.99808 -0.05759 0.02202 -0.00516
1559195810.8114707 29.32713 -0.54249 -1.84586 0.99780 -0.06374 0.01760 -0.00492
1559195811.0114834 30.29346 -0.56826 -1.88392 0.99765 -0.06654 0.01526 -0.00499
1559195811.21137 31.32861 -0.59434 -1.90722 0.99746 -0.06805 0.02023 -0.00536
1559195811.411395 32.39999 -0.61987 -1.93510 0.99742 -0.06661 0.02612 -0.00618
1559195811.6115031 33.45855 -0.64743 -1.99282 0.99751 -0.06535 0.02563 -0.00641
1559195811.8114033 34.54567 -0.68210 -2.05792 0.99760 -0.06433 0.02468 -0.00688
1559195812.0114386 35.68344 -0.71415 -2.11163 0.99765 -0.06277 0.02662 -0.00735
1559195812.2114842 36.83879 -0.75193 -2.16974 0.99763 -0.06256 0.02773 -0.00783
1559195812.4114227 38.00746 -0.79622 -2.23945 0.99775 -0.06077 0.02694 -0.00821
1559195812.6112957 39.21372 -0.84837 -2.30775 0.99789 -0.05844 0.02694 -0.00848
1559195812.8114471 40.44995 -0.89552 -2.37513 0.99795 -0.05721 0.02716 -0.00893
1559195813.0113878 41.70707 -0.94762 -2.44264 0.99807 -0.05547 0.02642 -0.00909
1559195813.2114275 42.98552 -0.99645 -2.51369 0.99813 -0.05458 0.02612 -0.00907
1559195813.4115589 44.30530 -1.04451 -2.58155 0.99820 -0.05313 0.02624 -0.00904
1559195813.6115887 45.62605 -1.08254 -2.65379 0.99818 -0.05384 0.02576 -0.00883
1559195813.8116224 46.96722 -1.12038 -2.72306 0.99814 -0.05439 0.02621 -0.00875
1559195814.0115569 48.33169 -1.16140 -2.79339 0.99820 -0.05205 0.02852 -0.00909
1559195814.2114432 49.72193 -1.19959 -2.87215 0.99805 -0.05420 0.02966 -0.00867
1559195814.4114244 51.13081 -1.25095 -2.95855 0.99821 -0.05162 0.02907 -0.00773
1559195814.6114492 52.56067 -1.28752 -3.04884 0.99833 -0.04986 0.02823 -0.00685
1559195814.8113804 54.00489 -1.32233 -3.13371 0.99840 -0.04982 0.02636 -0.00549
1559195815.0113442 55.47330 -1.35408 -3.21724 0.99839 -0.05046 0.02548 -0.00371
1559195815.2113943 56.94599 -1.38199 -3.29470 0.99831 -0.05068 0.02853 -0.00180
1559195815.4111743 58.41384 -1.40203 -3.37730 0.99780 -0.05722 0.03349 0.00033
1559195815.611275 59.86468 -1.41384 -3.47441 0.99748 -0.06388 0.03070 0.00308
1559195815.811342 61.32821 -1.43409 -3.57399 0.99740 -0.06800 0.02333 0.00565
1559195816.011361 62.83081 -1.43772 -3.64501 0.99687 -0.07476 0.02425 0.00809
1559195816.2115154 64.34044 -1.42710 -3.71080 0.99682 -0.07335 0.02958 0.00968
1559195816.411357 65.82244 -1.41460 -3.79602 0.99700 -0.06964 0.03207 0.01071
1559195816.611324 67.31429 -1.38924 -3.90007 0.99684 -0.07150 0.03243 0.01181
1559195816.8114188 68.82272 -1.38152 -4.00029 0.99697 -0.07033 0.03075 0.01269
1559195817.0113468 70.34717 -1.35806 -4.09881 0.99688 -0.07252 0.02807 0.01356
1559195817.211317 71.87441 -1.33199 -4.18984 0.99681 -0.07379 0.02628 0.01499
1559195817.4114993 73.40369 -1.31114 -4.27388 0.99688 -0.07207 0.02797 0.01620
1559195817.6112783 74.94458 -1.28579 -4.35726 0.99689 -0.07174 0.02715 0.01781
1559195817.8114104 76.42613 -1.25391 -4.44073 0.99693 -0.07168 0.02431 0.01996
1559195818.0115519 77.97248 -1.20153 -4.51860 0.99674 -0.07263 0.02687 0.02241
1559195818.2115982 79.48708 -1.15159 -4.59204 0.99658 -0.07272 0.03068 0.02428
1559195818.4129243 81.05170 -1.08337 -4.69756 0.99660 -0.07130 0.03185 0.02624
1559195818.6113555 82.55667 -1.02397 -4.79309 0.99676 -0.06871 0.03075 0.02839
1559195818.8112068 84.16576 -0.94046 -4.89887 0.99675 -0.06783 0.03085 0.03049
1559195819.011386 85.77364 -0.85201 -4.99673 0.99680 -0.06602 0.03110 0.03263
1559195819.2114635 87.36520 -0.75912 -5.09930 0.99679 -0.06506 0.03106 0.03478
1559195819.411391 88.96250 -0.66587 -5.19685 0.99687 -0.06262 0.03113 0.03689
1559195819.6112647 90.58354 -0.58218 -5.29887 0.99681 -0.06247 0.03074 0.03910
1559195819.8111708 92.13311 -0.48134 -5.37962 0.99696 -0.05885 0.03008 0.04132
1559195820.0114088 93.75482 -0.35698 -5.47351 0.99698 -0.05673 0.03047 0.04335
1559195820.211632 95.30773 -0.23552 -5.54652 0.99710 -0.05287 0.03026 0.04559
1559195820.411206 96.93388 -0.10179 -5.66169 0.99703 -0.05241 0.02987 0.04778
1559195820.61154 98.44559 0.03899 -5.73937 0.99705 -0.05056 0.02941 0.04964
1559195820.8114338 99.99476 0.19607 -5.83260 0.99707 -0.04978 0.02931 0.05012
1559195821.0116165 101.56369 0.34620 -5.91548 0.99714 -0.04795 0.02908 0.05069
1559195821.2112489 103.14224 0.49114 -6.00313 0.99720 -0.04719 0.02691 0.05133
1559195821.411412 104.81308 0.62195 -6.08362 0.99723 -0.04599 0.02688 0.05182
1559195821.6114576 106.35985 0.76955 -6.14875 0.99727 -0.04390 0.02831 0.05214
1559195821.8113976 107.92169 0.91946 -6.22269 0.99732 -0.04191 0.02904 0.05256
1559195822.0115385 109.60855 1.07061 -6.31947 0.99730 -0.04156 0.02945 0.05290
1559195822.2113419 111.19382 1.21832 -6.40821 0.99733 -0.04006 0.03005 0.05312
1559195822.411475 112.88784 1.35395 -6.51191 0.99728 -0.03989 0.03133 0.05346
1559195822.6115468 114.49357 1.51618 -6.62528 0.99730 -0.03838 0.03089 0.05443
1559195822.8113387 116.19478 1.67873 -6.72671 0.99723 -0.03865 0.03065 0.05574
1559195823.011323 117.86318 1.85129 -6.82475 0.99717 -0.03744 0.03174 0.05692
1559195823.211409 119.58303 2.00943 -6.92082 0.99714 -0.03593 0.03186 0.05828
1559195823.4112368 121.29170 2.19906 -7.01906 0.99720 -0.03392 0.02991 0.05948
1559195823.6113725 123.03186 2.37253 -7.11563 0.99725 -0.03223 0.02754 0.06086
1559195823.813443 124.79885 2.53823 -7.19780 0.99719 -0.03196 0.02637 0.06240
1559195824.0113244 126.53807 2.72034 -7.25809 0.99715 -0.03028 0.02686 0.06368
1559195824.2113824 128.30352 2.93347 -7.34578 0.99701 -0.03044 0.02897 0.06486
1559195824.4115946 130.07229 3.14812 -7.45431 0.99688 -0.02957 0.03119 0.06627
1559195824.612058 131.83446 3.29406 -7.53575 0.99679 -0.02702 0.03100 0.06874
1559195824.81147 133.59606 3.57407 -7.67437 0.99671 -0.02776 0.02875 0.07055
1559195825.0115561 135.38427 3.80953 -7.78685 0.99657 -0.02832 0.02775 0.07262
1559195825.2115147 137.16506 4.07650 -7.89973 0.99643 -0.02789 0.02866 0.07437
1559195825.4113321 138.96004 4.33454 -8.00205 0.99625 -0.02797 0.02941 0.07636
1559195825.6115928 140.76285 4.59835 -8.13244 0.99612 -0.02826 0.02871 0.07830
1559195825.8114848 142.56014 4.87364 -8.25415 0.99596 -0.02862 0.02890 0.08008
1559195826.0114613 144.36789 5.14557 -8.36375 0.99576 -0.02875 0.03122 0.08167
1559195826.2115796 146.16596 5.42393 -8.48978 0.99563 -0.02878 0.03134 0.08309
1559195826.4116116 147.95589 5.70614 -8.62126 0.99557 -0.02903 0.02899 0.08461
1559195826.6116529 149.72233 6.04923 -8.73015 0.99552 -0.02943 0.02741 0.08558
1559195826.8116724 151.52780 6.31236 -8.83328 0.99535 -0.02822 0.02902 0.08742
1559195827.0118241 153.33914 6.59490 -8.93496 0.99513 -0.02828 0.03174 0.08893
1559195827.2114165 155.13387 6.89937 -9.05357 0.99503 -0.02895 0.02841 0.09095
1559195827.4116192 156.93156 7.21114 -9.16694 0.99498 -0.02713 0.02627 0.09268
1559195827.6116962 158.73276 7.52488 -9.23046 0.99473 -0.02627 0.03082 0.09424
1559195827.8116026 160.53522 7.84629 -9.38359 0.99465 -0.02096 0.03099 0.09633
1559195828.0115838 162.34496 8.18884 -9.51072 0.99424 -0.02117 0.03251 0.09991
1559195828.2116368 164.16102 8.55697 -9.59676 0.99378 -0.02336 0.03508 0.10311
1559195828.4117873 165.98407 8.86986 -9.75608 0.99349 -0.02101 0.03327 0.10690
1559195828.6116168 167.75002 9.30136 -9.85707 0.99342 -0.01847 0.03029 0.10891
1559195828.811706 169.56924 9.66561 -9.96853 0.99313 -0.01770 0.02822 0.11215
1559195829.0116403 171.37912 10.08197 -10.04393 0.99285 -0.01608 0.03056 0.11428
1559195829.2140622 173.19283 10.49502 -10.12828 0.99274 -0.01254 0.02774 0.11634
1559195829.4118164 174.94527 10.91802 -10.18246 0.99267 -0.00971 0.02246 0.11837
1559195829.611642 176.75010 11.34413 -10.24755 0.99235 -0.00845 0.02546 0.12053
1559195829.8115816 178.55478 11.76976 -10.30711 0.99204 -0.00341 0.03137 0.12188
1559195830.0116937 180.34821 12.19693 -10.40138 0.99186 0.00181 0.02989 0.12375
1559195830.2117567 182.15067 12.63968 -10.48155 0.99169 0.00465 0.02728 0.12561
1559195830.4116447 183.97435 13.09532 -10.55663 0.99133 0.01081 0.03272 0.12679
1559195830.6116793 185.77905 13.58204 -10.66416 0.99121 0.00854 0.03232 0.12804
1559195830.8117323 187.57458 14.05873 -10.77881 0.99120 0.00715 0.02535 0.12970
1559195831.0131755 189.38404 14.54405 -10.86144 0.99120 0.00283 0.01999 0.13084
1559195831.2115755 191.19299 15.00930 -10.92339 0.99096 0.00175 0.02350 0.13207
1559195831.4114263 193.01299 15.47709 -11.02118 0.99079 0.00204 0.02521 0.13302
1559195831.6116576 194.81635 15.94270 -11.06957 0.99065 0.00317 0.02570 0.13396
1559195831.8115072 196.61666 16.40949 -11.15084 0.99053 0.00278 0.02622 0.13470
1559195832.0115297 198.42005 16.88557 -11.23183 0.99038 0.00225 0.02956 0.13519
1559195832.2116532 200.20393 17.34638 -11.31898 0.99020 0.00226 0.03367 0.13550
1559195832.4115572 201.96357 17.81603 -11.44347 0.99018 0.00230 0.03435 0.13551
1559195832.6114602 203.71705 18.27691 -11.56291 0.99034 0.00296 0.03116 0.13507
1559195832.8117766 205.47183 18.73302 -11.67246 0.99053 0.00338 0.02815 0.13436
1559195833.011827 207.22133 19.19670 -11.75648 0.99066 0.00375 0.02693 0.13361
1559195833.2117348 208.96060 19.64772 -11.83925 0.99080 0.00334 0.02531 0.13293
1559195833.4117439 210.69118 20.09876 -11.92450 0.99093 0.00268 0.02403 0.13222
1559195833.611787 212.43513 20.55193 -12.00277 0.99102 0.00181 0.02378 0.13154
1559195833.8116968 214.19343 21.01261 -12.07514 0.99112 0.00299 0.02320 0.13090
1559195834.0116627 215.95588 21.47427 -12.16110 0.99123 0.00397 0.02195 0.13028
1559195834.2116246 217.74021 21.91284 -12.23876 0.99136 0.00346 0.02232 0.12923
1559195834.4116724 219.52115 22.37104 -12.31737 0.99154 0.00239 0.02197 0.12794
1559195834.6118453 221.28302 22.80994 -12.38790 0.99175 0.00404 0.02139 0.12632
1559195834.8117218 223.03205 23.23446 -12.45937 0.99198 0.00410 0.02112 0.12453
1559195835.0117364 224.77327 23.66081 -12.53325 0.99217 0.00359 0.02315 0.12270
1559195835.2117643 226.50671 24.07232 -12.61474 0.99234 0.00163 0.02452 0.12106
1559195835.4117765 228.20709 24.46801 -12.69791 0.99259 0.00109 0.02182 0.11957
1559195835.6117256 229.88116 24.85709 -12.77502 0.99282 -0.00125 0.01890 0.11813
1559195835.8116658 231.53643 25.23727 -12.83573 0.99290 -0.00226 0.02203 0.11688
1559195836.011698 233.17286 25.60535 -12.89625 0.99289 -0.00015 0.02247 0.11689
1559195836.2118134 234.79682 25.92214 -12.99215 0.99267 0.00147 0.02098 0.11899
1559195836.4119182 236.39092 26.33570 -13.03802 0.99240 -0.00016 0.02153 0.12119
1559195836.6116428 237.97520 26.70831 -13.09797 0.99211 0.00018 0.02185 0.12347
1559195836.811556 239.54562 27.09221 -13.15915 0.99188 0.00120 0.02124 0.12542
1559195837.0117319 241.10054 27.48142 -13.21327 0.99160 0.00268 0.02182 0.12750
1559195837.2116566 242.61529 27.88050 -13.27951 0.99134 0.00352 0.02285 0.12928
1559195837.411584 244.09500 28.27321 -13.35105 0.99119 0.00308 0.02218 0.13058
1559195837.6115751 245.55528 28.66098 -13.41307 0.99107 0.00299 0.02208 0.13146
1559195837.811733 246.99040 29.04967 -13.47669 0.99113 0.00095 0.02303 0.13086
1559195838.012375 248.40360 29.42399 -13.54134 0.99147 0.00082 0.02501 0.12793
1559195838.211741 249.78831 29.76494 -13.61866 0.99180 0.00449 0.02733 0.12478
1559195838.4120352 251.12918 30.14023 -13.69682 0.99242 0.00213 0.02689 0.11992
1559195838.611954 252.45166 30.39663 -13.76949 0.99313 0.00706 0.02611 0.11382
1559195838.811562 253.73348 30.65844 -13.84104 0.99422 0.00721 0.02404 0.10440
1559195839.0116246 254.97716 30.87459 -13.90605 0.99540 0.00745 0.02433 0.09238
1559195839.2116878 256.18321 31.04880 -13.96004 0.99682 0.00620 0.02455 0.07551
1559195839.4118314 257.36141 31.17600 -14.00254 0.99818 0.00322 0.02315 0.05557
1559195839.6116827 258.49176 31.22232 -14.04865 0.99919 0.00302 0.02089 0.03431
1559195839.812431 259.63021 31.26056 -14.08972 0.99978 0.00132 0.01791 0.01041
1559195840.0117126 260.70363 31.22730 -14.11309 0.99976 -0.00099 0.01457 -0.01623
1559195840.2116852 261.71251 31.09878 -14.14941 0.99890 -0.00052 0.01469 -0.04448
1559195840.4116633 262.71724 30.92536 -14.16268 0.99722 0.00400 0.01692 -0.07245
1559195840.6116233 263.65796 30.73550 -14.16515 0.99473 -0.00894 0.01498 -0.10103
1559195840.81158 264.51044 30.42869 -14.18535 0.99132 -0.01222 0.01647 -0.12983
1559195841.0117323 265.39039 30.10465 -14.20880 0.98712 -0.01080 0.01842 -0.15857
1559195841.2117362 266.09530 29.70330 -14.20734 0.98218 -0.01555 0.01706 -0.18655
1559195841.4118876 266.59284 29.21753 -14.24368 0.97655 -0.01979 0.01321 -0.21398
1559195841.6118038 267.17100 28.74227 -14.26380 0.97023 -0.02022 0.01173 -0.24104
1559195841.8117473 267.55870 28.18721 -14.25648 0.96369 -0.01830 0.01315 -0.26608
1559195842.0118556 267.94863 27.62644 -14.26732 0.95680 -0.01963 0.01388 -0.28975
1559195842.2119956 268.43940 27.07230 -14.29235 0.95016 -0.01943 0.01181 -0.31093
1559195842.411916 268.88813 26.51664 -14.31350 0.94381 -0.01895 0.01119 -0.32975
1559195842.6118402 269.40593 25.95345 -14.33929 0.93752 -0.01794 0.01076 -0.34729
1559195842.81204 269.97338 25.37887 -14.38185 0.93073 -0.01628 0.01066 -0.36518
1559195843.0119395 270.40140 24.79381 -14.37759 0.92427 -0.01598 0.00983 -0.38129
1559195843.2117686 270.87631 24.20895 -14.40310 0.91724 -0.01502 0.00735 -0.39799
1559195843.4136827 271.35654 23.60304 -14.42639 0.90977 -0.01236 0.00410 -0.41491
1559195843.6120613 271.79554 23.00299 -14.42622 0.90196 -0.01055 0.00452 -0.43167
1559195843.8119311 272.23577 22.39333 -14.41859 0.89371 -0.01719 0.00743 -0.44826
1559195844.0119908 272.61764 21.73617 -14.41157 0.88534 -0.01268 0.00048 -0.46477
1559195844.212064 273.00886 21.05752 -14.41643 0.87623 -0.01016 -0.00337 -0.48177
1559195844.4119542 273.38506 20.38107 -14.40323 0.86620 -0.01783 0.00116 -0.49937
1559195844.6119113 273.70382 19.66551 -14.36912 0.85653 -0.01256 0.00385 -0.51593
1559195844.8118403 274.00560 18.91393 -14.35857 0.84624 -0.01077 0.00228 -0.53268
1559195845.011923 274.29027 18.16373 -14.36569 0.83522 -0.01394 0.00166 -0.54973
1559195845.2118883 274.54855 17.36034 -14.36421 0.82385 -0.01233 0.00115 -0.56668
1559195845.4119558 274.76123 16.55138 -14.35951 0.81190 -0.00819 -0.00011 -0.58374
1559195845.6118073 274.96739 15.74140 -14.35227 0.79906 -0.01037 0.00062 -0.60117
1559195845.8119926 275.13354 14.90688 -14.35131 0.78593 -0.01116 -0.00076 -0.61822
1559195846.0120108 275.26351 14.04495 -14.34896 0.77224 -0.00945 -0.00403 -0.63525
1559195846.2121372 275.35681 13.17071 -14.33740 0.75966 -0.00803 -0.00463 -0.65026
1559195846.411832 275.41668 12.28828 -14.32426 0.74938 -0.00742 -0.00479 -0.66208
1559195846.6118488 275.47236 11.38220 -14.32304 0.74117 -0.00711 -0.00474 -0.67126
1559195846.811912 275.52282 10.45808 -14.32102 0.73416 -0.00707 -0.00393 -0.67893
1559195847.012483 275.56181 9.52269 -14.31976 0.72713 -0.00655 -0.00381 -0.68646
1559195847.2122118 275.58876 8.58229 -14.32247 0.72081 -0.00684 -0.00468 -0.69309
1559195847.412151 275.59913 7.62176 -14.31868 0.71558 -0.00696 -0.00662 -0.69846
1559195847.612252 275.60805 6.62016 -14.31145 0.71125 -0.00654 -0.00766 -0.70286
1559195847.812014 275.61028 5.58993 -14.29777 0.70752 -0.00536 -0.00783 -0.70663
1559195848.0119042 275.60476 4.55256 -14.28938 0.70525 -0.00355 -0.00907 -0.70889
1559195848.211969 275.60198 3.48483 -14.28645 0.70443 -0.00240 -0.01002 -0.70970
1559195848.4118907 275.58951 2.38264 -14.27645 0.70418 -0.00198 -0.00957 -0.70995
1559195848.6120076 275.58569 1.27631 -14.25953 0.70412 -0.00066 -0.01033 -0.71001
1559195848.8129325 275.58993 0.12873 -14.24925 0.70401 -0.00035 -0.01111 -0.71011
1559195849.012011 275.59920 -1.05529 -14.24532 0.70437 0.00048 -0.00974 -0.70977
1559195849.211946 275.60303 -2.28322 -14.23200 0.70496 0.00105 -0.00773 -0.70921
1559195849.4119165 275.60554 -3.52256 -14.22408 0.70552 -0.00041 -0.00918 -0.70863
1559195849.61206 275.61742 -4.81238 -14.21838 0.70597 -0.00278 -0.00699 -0.70820
1559195849.8119912 275.62269 -6.14777 -14.20019 0.70673 -0.00177 -0.00315 -0.70748
1559195850.0121193 275.62967 -7.47690 -14.20555 0.70689 -0.00122 -0.00743 -0.70729
1559195850.2122126 275.65280 -8.81780 -14.21365 0.70688 -0.00614 -0.00724 -0.70727
1559195850.411954 275.66716 -10.16051 -14.20241 0.70690 -0.00341 -0.00679 -0.70727
1559195850.612151 275.63847 -11.58374 -14.19086 0.70670 0.00153 -0.00575 -0.70749
1559195850.8119411 275.63456 -12.93900 -14.19349 0.70609 0.00459 -0.00419 -0.70809
1559195851.0118625 275.63130 -14.33473 -14.21203 0.70615 0.00062 -0.00567 -0.70804
1559195851.211938 275.60779 -15.74437 -14.21829 0.70588 0.00214 -0.00823 -0.70828
1559195851.4120688 275.59563 -17.14103 -14.22318 0.70534 0.00452 -0.00818 -0.70881
1559195851.612068 275.59754 -18.55248 -14.23098 0.70503 0.00244 -0.00655 -0.70914
1559195851.812037 275.57768 -19.99389 -14.22993 0.70505 0.00413 -0.00537 -0.70913
1559195852.0119696 275.56195 -21.44277 -14.23362 0.70491 0.00194 -0.00653 -0.70926
1559195852.2119708 275.53817 -22.91725 -14.23702 0.70471 -0.00102 -0.00655 -0.70947
1559195852.4122875 275.50924 -24.37781 -14.23387 0.70450 0.00073 -0.00894 -0.70965
1559195852.612044 275.47932 -25.84748 -14.22817 0.70492 0.00157 -0.01087 -0.70920
1559195852.8120291 275.46331 -27.32746 -14.21228 0.70549 0.00177 -0.00788 -0.70867
1559195853.0121286 275.44773 -28.81684 -14.19881 0.70580 0.00243 -0.00633 -0.70838
1559195853.2121286 275.41321 -30.31703 -14.19001 0.70592 0.00323 -0.00711 -0.70825
1559195853.4121966 275.39255 -31.80550 -14.19111 0.70596 0.00280 -0.00762 -0.70821
1559195853.6122165 275.35847 -33.31327 -14.17415 0.70566 0.00269 -0.00861 -0.70850
1559195853.8121822 275.32425 -34.79647 -14.15814 0.70504 0.00293 -0.01028 -0.70909
1559195854.0121534 275.29969 -36.29002 -14.14274 0.70444 0.00433 -0.00655 -0.70972
1559195854.2121606 275.26984 -37.77335 -14.13999 0.70384 0.00608 -0.00682 -0.71030
1559195854.4121234 275.24121 -39.21066 -14.14538 0.70306 0.00543 -0.00933 -0.71105
1559195854.6120226 275.20947 -40.63304 -14.13284 0.70276 0.00739 -0.00883 -0.71134
1559195854.8122478 275.17755 -42.07471 -14.12215 0.70233 0.00779 -0.00826 -0.71176
1559195855.012456 275.14439 -43.48594 -14.11798 0.70199 0.00784 -0.00958 -0.71208
1559195855.2123015 275.10626 -44.89529 -14.11132 0.70187 0.01028 -0.01044 -0.71215
1559195855.412113 275.06889 -46.29536 -14.11321 0.70170 0.01214 -0.01120 -0.71228
1559195855.6122043 275.02823 -47.69792 -14.11095 0.70148 0.01320 -0.01431 -0.71242
1559195855.8136902 274.98437 -49.13161 -14.10496 0.70119 0.01410 -0.01486 -0.71268
1559195856.0122414 274.95028 -50.57472 -14.10141 0.70099 0.01322 -0.01381 -0.71291
1559195856.2121878 274.90854 -52.01854 -14.10234 0.70080 0.01416 -0.01450 -0.71307
1559195856.412075 274.88001 -53.45005 -14.10024 0.70040 0.00715 -0.01332 -0.71359
1559195856.6121175 274.85538 -54.87496 -14.09677 0.70066 -0.00113 -0.01426 -0.71336
1559195856.8121305 274.81773 -56.31223 -14.06478 0.70059 0.00116 -0.00928 -0.71350
1559195857.012108 274.77400 -57.76177 -14.03991 0.70038 0.00634 -0.00044 -0.71375
1559195857.2123616 274.74325 -59.17177 -14.05535 0.70048 0.00218 -0.00424 -0.71365
1559195857.4123664 274.70062 -60.58515 -14.07415 0.70093 -0.00043 -0.00963 -0.71317
1559195857.6130247 274.67362 -62.02969 -14.05625 0.70138 0.00168 -0.00315 -0.71278
1559195857.8123808 274.65045 -63.44302 -14.05171 0.70180 0.00249 -0.00035 -0.71237
1559195858.0123324 274.62354 -64.84817 -14.07364 0.70223 0.00002 -0.00008 -0.71195
1559195858.212176 274.59060 -66.28165 -14.08067 0.70264 0.00164 0.00166 -0.71155
1559195858.4122572 274.55483 -67.72821 -14.09081 0.70276 0.00709 0.00190 -0.71139
1559195858.6121724 274.51567 -69.19085 -14.11842 0.70272 0.01285 -0.00149 -0.71135
1559195858.8121612 274.49938 -70.63645 -14.15495 0.70332 0.00613 -0.00450 -0.71083
1559195859.01219 274.48318 -72.09355 -14.16889 0.70381 0.00354 -0.00820 -0.71034
1559195859.2120523 274.46183 -73.53393 -14.15247 0.70380 0.00498 -0.00484 -0.71037
1559195859.4120266 274.44120 -74.95426 -14.15583 0.70420 0.00296 -0.00299 -0.70999
1559195859.6121864 274.41392 -76.37601 -14.16724 0.70457 0.00287 -0.00281 -0.70962
1559195859.8123982 274.40656 -77.78023 -14.17032 0.70489 0.00303 0.00196 -0.70931
1559195860.0121593 274.39007 -79.16244 -14.18094 0.70516 0.00188 0.00204 -0.70905
1559195860.2121518 274.37624 -80.56338 -14.19692 0.70534 0.00079 0.00082 -0.70886
1559195860.412283 274.37657 -81.95713 -14.20408 0.70553 0.00045 0.00145 -0.70868
1559195860.6121933 274.36088 -83.26351 -14.19778 0.70541 0.00149 0.00087 -0.70879
1559195860.8123672 274.34803 -84.44561 -14.19696 0.70526 0.00099 0.00179 -0.70895
1559195861.0122762 274.33198 -85.55780 -14.18914 0.70533 0.00020 0.00109 -0.70888
1559195861.2122564 274.32683 -86.59784 -14.18206 0.70534 -0.00088 -0.00001 -0.70887
1559195861.4122756 274.32005 -87.52044 -14.16842 0.70515 -0.00443 0.00191 -0.70904
1559195861.6120844 274.30539 -88.45253 -14.15756 0.70527 -0.00428 0.00301 -0.70892
1559195861.8122065 274.29179 -89.34306 -14.14996 0.70502 -0.00340 0.00482 -0.70916
1559195862.0124023 274.27854 -90.23551 -14.14926 0.70501 -0.00346 0.00733 -0.70915
1559195862.2123175 274.25022 -91.20625 -14.15538 0.70503 -0.00136 0.00506 -0.70916
1559195862.4123235 274.23477 -91.99651 -14.16036 0.70488 -0.00131 0.00499 -0.70931
1559195862.6121266 274.23395 -92.62104 -14.15630 0.70481 -0.00242 0.00573 -0.70937
1559195862.8122442 274.22354 -93.40741 -14.16187 0.70494 -0.00039 0.00345 -0.70926
1559195863.0120952 274.21636 -94.06423 -14.16051 0.70490 0.00077 0.00243 -0.70931
1559195863.2122874 274.21430 -94.79667 -14.16973 0.70481 0.00008 0.00291 -0.70939
1559195863.4122753 274.19975 -95.40650 -14.17101 0.70487 0.00107 0.00235 -0.70933
1559195863.6121671 274.19026 -96.10977 -14.17986 0.70501 0.00275 0.00130 -0.70920
1559195863.812454 274.19096 -96.60007 -14.18626 0.70502 0.00443 0.00076 -0.70917
1559195864.0123503 274.18474 -97.20015 -14.18705 0.70499 0.00535 -0.00013 -0.70919
1559195864.2121315 274.18185 -97.64144 -14.18794 0.70496 0.00509 -0.00007 -0.70923
1559195864.412198 274.18447 -98.01111 -14.18966 0.70490 0.00593 -0.00040 -0.70928
1559195864.6121404 274.17084 -98.58559 -14.20514 0.70485 0.00700 -0.00134 -0.70932
1559195864.81227 274.17769 -98.89079 -14.20743 0.70480 0.00706 -0.00070 -0.70937
1559195865.0121014 274.16964 -99.15732 -14.20071 0.70474 0.00826 -0.00161 -0.70941
1559195865.2120645 274.15782 -99.54567 -14.20870 0.70475 0.00852 -0.00107 -0.70940
1559195865.412291 274.15848 -99.78088 -14.21619 0.70478 0.00803 -0.00003 -0.70938
1559195865.6123216 274.15331 -99.97979 -14.22289 0.70485 0.00869 -0.00041 -0.70930
1559195865.8123755 274.15010 -100.13827 -14.22336 0.70502 0.00873 -0.00006 -0.70914
1559195866.0123656 274.14863 -100.25651 -14.22457 0.70503 0.00855 0.00035 -0.70913
1559195866.2123752 274.14517 -100.35275 -14.22674 0.70502 0.00862 0.00010 -0.70913
1559195866.4122906 274.14597 -100.41842 -14.22655 0.70504 0.00744 -0.00086 -0.70913
1559195866.6122975 274.14748 -100.44977 -14.22500 0.70503 0.00743 -0.00081 -0.70914
1559195866.8122172 274.14925 -100.46351 -14.22355 0.70502 0.00766 -0.00063 -0.70915
1559195867.0120933 274.15192 -100.45348 -14.22285 0.70500 0.00753 -0.00061 -0.70917
1559195867.2120833 274.15199 -100.47016 -14.22266 0.70501 0.00763 -0.00055 -0.70916
1559195867.4122732 274.15202 -100.48866 -14.22302 0.70500 0.00765 -0.00058 -0.70917
1559195867.6121755 274.15152 -100.50129 -14.22316 0.70502 0.00771 -0.00059 -0.70914
1559195867.8122547 274.15281 -100.50261 -14.22248 0.70501 0.00770 -0.00054 -0.70916
1559195868.0121317 274.15477 -100.48934 -14.22195 0.70499 0.00772 -0.00055 -0.70917
1559195868.2121148 274.15490 -100.48373 -14.22214 0.70497 0.00771 -0.00053 -0.70920
1559195868.4121253 274.15491 -100.47486 -14.22232 0.70496 0.00771 -0.00055 -0.70920
1559195868.6123714 274.15462 -100.45939 -14.22187 0.70496 0.00771 -0.00053 -0.70920
1559195868.8124568 274.15425 -100.44391 -14.22176 0.70497 0.00770 -0.00053 -0.70920
1559195869.0122187 274.15389 -100.43161 -14.22168 0.70496 0.00771 -0.00052 -0.70920
1559195869.212376 274.15421 -100.41795 -14.22138 0.70496 0.00769 -0.00051 -0.70921
1559195869.412297 274.15435 -100.40586 -14.22131 0.70497 0.00769 -0.00054 -0.70920
1559195869.612296 274.15430 -100.39404 -14.22200 0.70498 0.00774 -0.00057 -0.70919
1559195869.8122318 274.15426 -100.38254 -14.22243 0.70499 0.00769 -0.00058 -0.70918
1559195870.0123181 274.15448 -100.36596 -14.22180 0.70498 0.00764 -0.00055 -0.70919
1559195870.2124624 274.15397 -100.34389 -14.22151 0.70500 0.00770 -0.00057 -0.70917
1559195870.4123333 274.15373 -100.31982 -14.22131 0.70499 0.00766 -0.00056 -0.70918
1559195870.6122706 274.15385 -100.30292 -14.22079 0.70498 0.00765 -0.00054 -0.70918
1559195870.8125327 274.15417 -100.28541 -14.22025 0.70498 0.00763 -0.00056 -0.70919
1559195871.0122242 274.15408 -100.26928 -14.22003 0.70498 0.00763 -0.00054 -0.70918
1559195871.2122793 274.15412 -100.25352 -14.21994 0.70497 0.00759 -0.00054 -0.70919
1559195871.4121673 274.15419 -100.23782 -14.21943 0.70497 0.00757 -0.00052 -0.70919
1559195871.6122034 274.15393 -100.22199 -14.21935 0.70496 0.00759 -0.00054 -0.70920
1559195871.8123984 274.15292 -100.20529 -14.21949 0.70498 0.00760 -0.00059 -0.70919
1559195872.0135767 274.15083 -100.18868 -14.21909 0.70496 0.00753 -0.00056 -0.70920
1559195872.2123814 274.15039 -100.17239 -14.21874 0.70498 0.00756 -0.00060 -0.70919
1559195872.412269 274.15237 -100.15971 -14.21838 0.70496 0.00751 -0.00057 -0.70921
1559195872.6122046 274.15264 -100.14879 -14.21809 0.70496 0.00748 -0.00056 -0.70921
1559195872.8123765 274.15335 -100.13863 -14.21795 0.70495 0.00745 -0.00057 -0.70922
1559195873.0121837 274.15388 -100.12741 -14.21794 0.70493 0.00742 -0.00059 -0.70924
1559195873.2122464 274.15364 -100.11863 -14.21803 0.70495 0.00743 -0.00057 -0.70922
1559195873.4123507 274.15336 -100.10918 -14.21819 0.70495 0.00739 -0.00060 -0.70922
1559195873.61273 274.15379 -100.09686 -14.21784 0.70495 0.00737 -0.00062 -0.70922
1559195873.8134952 274.15436 -100.08509 -14.21742 0.70492 0.00735 -0.00061 -0.70925
1559195874.0125337 274.15587 -100.06854 -14.21693 0.70493 0.00730 -0.00059 -0.70924
1559195874.2123582 274.15684 -100.03092 -14.21618 0.70495 0.00738 -0.00063 -0.70922
1559195874.4122674 274.15747 -100.01932 -14.21569 0.70493 0.00730 -0.00057 -0.70924
1559195874.6122684 274.15729 -100.01126 -14.21548 0.70496 0.00733 -0.00061 -0.70921
1559195874.8123744 274.15796 -100.00417 -14.21515 0.70495 0.00731 -0.00060 -0.70922
1559195875.0124223 274.16126 -99.59979 -14.21758 0.70487 0.00661 -0.00069 -0.70930
1559195875.2124407 274.16124 -99.60029 -14.21757 0.70487 0.00660 -0.00067 -0.70931
1559195875.4124382 274.16085 -99.60202 -14.21847 0.70487 0.00663 -0.00071 -0.70930
1559195875.6123562 274.15998 -99.60442 -14.21896 0.70489 0.00667 -0.00070 -0.70928
1559195875.812412 274.15995 -99.60129 -14.21821 0.70489 0.00669 -0.00073 -0.70928
1559195876.0124154 274.16004 -99.59980 -14.21795 0.70489 0.00667 -0.00072 -0.70928
1559195876.2123318 274.15973 -99.60275 -14.21839 0.70491 0.00668 -0.00073 -0.70927
1559195876.4128056 274.15982 -99.60425 -14.21781 0.70491 0.00672 -0.00074 -0.70926
1559195876.612505 274.15996 -99.60390 -14.21697 0.70491 0.00679 -0.00075 -0.70927
1559195876.8122444 274.15998 -99.60555 -14.21696 0.70490 0.00678 -0.00072 -0.70927
1559195877.012447 274.15997 -99.60596 -14.21757 0.70490 0.00678 -0.00074 -0.70927
1559195877.2125056 274.15977 -99.60566 -14.21754 0.70490 0.00674 -0.00074 -0.70927
1559195877.4124463 274.15970 -99.60489 -14.21696 0.70491 0.00675 -0.00074 -0.70926
1559195877.6123695 274.15966 -99.60601 -14.21708 0.70492 0.00675 -0.00075 -0.70925
1559195877.8123631 274.15943 -99.60842 -14.21725 0.70493 0.00679 -0.00076 -0.70925
1559195878.0123465 274.15929 -99.61016 -14.21727 0.70492 0.00678 -0.00074 -0.70925
1559195878.212541 274.15968 -99.60953 -14.21721 0.70491 0.00674 -0.00071 -0.70927
1559195878.4122865 274.15971 -99.60923 -14.21768 0.70490 0.00672 -0.00072 -0.70927
1559195878.6122966 274.15960 -99.60648 -14.21786 0.70490 0.00674 -0.00074 -0.70927
1559195878.8123493 274.15951 -99.60476 -14.21764 0.70491 0.00676 -0.00073 -0.70927
1559195879.0124385 274.15951 -99.60575 -14.21737 0.70491 0.00676 -0.00073 -0.70927
1559195879.2124755 274.15950 -99.60814 -14.21738 0.70491 0.00676 -0.00072 -0.70927
1559195879.4124887 274.15958 -99.60915 -14.21733 0.70491 0.00677 -0.00073 -0.70927
1559195879.6124363 274.15987 -99.60932 -14.21744 0.70490 0.00673 -0.00072 -0.70928
1559195879.812457 274.16016 -99.60952 -14.21728 0.70490 0.00672 -0.00071 -0.70928
1559195880.0124545 274.16020 -99.61157 -14.21726 0.70490 0.00672 -0.00072 -0.70927
1559195880.21243 274.16051 -99.61245 -14.21741 0.70489 0.00668 -0.00069 -0.70929
1559195880.412484 274.16079 -99.61340 -14.21746 0.70488 0.00665 -0.00067 -0.70929
1559195880.6125124 274.16078 -99.61387 -14.21740 0.70489 0.00664 -0.00066 -0.70929
1559195880.812543 274.16110 -99.61355 -14.21674 0.70490 0.00666 -0.00064 -0.70928
1559195881.0132496 274.16081 -99.61436 -14.21691 0.70490 0.00667 -0.00064 -0.70927
1559195881.2124982 274.16056 -99.61534 -14.21713 0.70491 0.00667 -0.00063 -0.70927
1559195881.4123452 274.16020 -99.61685 -14.21724 0.70491 0.00668 -0.00064 -0.70926
1559195881.6126137 274.15955 -99.61530 -14.21722 0.70491 0.00667 -0.00066 -0.70926
1559195881.8124368 274.15964 -99.61472 -14.21700 0.70490 0.00667 -0.00065 -0.70927
1559195882.0125124 274.15970 -99.61304 -14.21682 0.70490 0.00666 -0.00065 -0.70927
1559195882.2124615 274.15705 -99.61995 -14.21875 0.70491 0.00661 -0.00064 -0.70927
1559195882.4124188 274.15623 -99.63429 -14.22008 0.70491 0.00658 -0.00064 -0.70926
1559195882.6123817 274.15651 -99.63427 -14.22013 0.70491 0.00656 -0.00063 -0.70927
1559195882.8137772 274.15598 -99.64009 -14.22059 0.70491 0.00657 -0.00063 -0.70926
1559195883.0125098 274.15493 -99.64645 -14.22099 0.70492 0.00658 -0.00065 -0.70925
1559195883.2124035 274.15466 -99.64953 -14.22090 0.70492 0.00660 -0.00066 -0.70926
1559195883.412348 274.15500 -99.64794 -14.22075 0.70491 0.00661 -0.00066 -0.70926
1559195883.6124473 274.15464 -99.64724 -14.22084 0.70492 0.00661 -0.00067 -0.70925
1559195883.8124206 274.15456 -99.64540 -14.22131 0.70492 0.00661 -0.00067 -0.70925
1559195884.0124776 274.15493 -99.64431 -14.22075 0.70492 0.00660 -0.00067 -0.70926
1559195884.2124803 274.15536 -99.64372 -14.22061 0.70491 0.00658 -0.00066 -0.70926
1559195884.4124289 274.15549 -99.64431 -14.22075 0.70491 0.00657 -0.00066 -0.70926
1559195884.6129425 274.15540 -99.64449 -14.22105 0.70492 0.00657 -0.00066 -0.70926
1559195884.81256 274.15562 -99.64433 -14.22057 0.70491 0.00660 -0.00067 -0.70926
1559195885.012492 274.15536 -99.64334 -14.22058 0.70491 0.00659 -0.00066 -0.70927
1559195885.2126422 274.15550 -99.64164 -14.22064 0.70490 0.00657 -0.00066 -0.70928
1559195885.4126236 274.15575 -99.63911 -14.22031 0.70490 0.00657 -0.00066 -0.70928
1559195885.6125858 274.15559 -99.63690 -14.22020 0.70490 0.00658 -0.00067 -0.70927
1559195885.8126123 274.15596 -99.63704 -14.22023 0.70490 0.00656 -0.00066 -0.70928
1559195886.0126796 274.15641 -99.63797 -14.22020 0.70489 0.00654 -0.00064 -0.70929
1559195886.212519 274.15625 -99.63986 -14.22032 0.70488 0.00657 -0.00065 -0.70929
1559195886.4147704 274.15580 -99.63994 -14.22042 0.70489 0.00661 -0.00067 -0.70929
1559195886.6125069 274.15558 -99.64006 -14.22038 0.70489 0.00661 -0.00068 -0.70928
1559195886.812597 274.15545 -99.64230 -14.22046 0.70490 0.00661 -0.00068 -0.70927
1559195887.0125043 274.15500 -99.64601 -14.22052 0.70492 0.00661 -0.00067 -0.70926
1559195887.212421 274.15469 -99.64861 -14.22052 0.70493 0.00663 -0.00069 -0.70924
1559195887.412658 274.15505 -99.64871 -14.22006 0.70494 0.00664 -0.00070 -0.70923
1559195887.6126852 274.15509 -99.64899 -14.21988 0.70493 0.00664 -0.00070 -0.70924
1559195887.8124082 274.15544 -99.64851 -14.21996 0.70491 0.00663 -0.00069 -0.70926
1559195888.0127313 274.15520 -99.64866 -14.22020 0.70490 0.00662 -0.00069 -0.70927
1559195888.2141445 274.15516 -99.64822 -14.22030 0.70491 0.00663 -0.00070 -0.70927
1559195888.4124882 274.15500 -99.64959 -14.22016 0.70491 0.00664 -0.00070 -0.70926
1559195888.612581 274.15480 -99.65189 -14.21972 0.70493 0.00666 -0.00070 -0.70925
1559195888.8125863 274.15514 -99.65403 -14.21951 0.70493 0.00667 -0.00071 -0.70924
1559195889.012581 274.15551 -99.65497 -14.21944 0.70493 0.00665 -0.00070 -0.70924
1559195889.2125857 274.15565 -99.65393 -14.21985 0.70492 0.00662 -0.00069 -0.70925
1559195889.412522 274.15507 -99.65321 -14.22030 0.70492 0.00662 -0.00069 -0.70926
1559195889.6126134 274.15474 -99.65124 -14.22058 0.70491 0.00665 -0.00069 -0.70926
1559195889.812596 274.15272 -99.64842 -14.22089 0.70491 0.00667 -0.00072 -0.70927
1559195890.0125523 274.15260 -99.64426 -14.22039 0.70491 0.00670 -0.00074 -0.70927
1559195890.2127316 274.16009 -99.63189 -14.21865 0.70493 0.00665 -0.00072 -0.70924
1559195890.4124742 274.16093 -99.63111 -14.21814 0.70493 0.00664 -0.00071 -0.70924
1559195890.6125145 274.16146 -99.63151 -14.21778 0.70494 0.00663 -0.00069 -0.70924
1559195890.812453 274.16165 -99.63378 -14.21787 0.70495 0.00644 -0.00091 -0.70923
1559195891.0125196 274.16126 -99.64223 -14.21923 0.70495 0.00598 -0.00131 -0.70923
1559195891.2125452 274.16084 -99.65405 -14.21884 0.70495 0.00604 -0.00130 -0.70923
1559195891.4124904 274.16008 -99.67412 -14.21846 0.70496 0.00588 -0.00135 -0.70923
1559195891.6125326 274.16096 -99.71185 -14.21829 0.70494 0.00527 -0.00173 -0.70924
1559195891.8147044 274.16233 -99.76701 -14.21993 0.70497 0.00485 -0.00194 -0.70921
1559195892.0125191 274.16190 -99.85263 -14.22002 0.70501 0.00506 -0.00212 -0.70917
1559195892.212653 274.15943 -99.98622 -14.22066 0.70481 0.00528 -0.00248 -0.70938
1559195892.4126468 274.15451 -100.15828 -14.22023 0.70461 0.00547 -0.00315 -0.70957
1559195892.6126268 274.14200 -100.39568 -14.21607 0.70455 0.00575 -0.00449 -0.70962
1559195892.8125505 274.13650 -100.66477 -14.21831 0.70420 0.00685 -0.00595 -0.70994
1559195893.012673 274.12916 -100.98978 -14.22506 0.70384 0.00801 -0.00690 -0.71028
1559195893.212644 274.11612 -101.46153 -14.23066 0.70358 0.00829 -0.00611 -0.71054
1559195893.4125214 274.10706 -101.86935 -14.23358 0.70305 0.00747 -0.00576 -0.71107
1559195893.6147034 274.07975 -102.47731 -14.26571 0.70231 0.00506 -0.00579 -0.71183
1559195893.8125145 274.07890 -102.97612 -14.25160 0.70229 0.00697 -0.00502 -0.71184
1559195894.012465 274.06173 -103.66751 -14.26484 0.70175 0.00979 -0.00612 -0.71233
1559195894.2123592 274.04655 -104.38450 -14.27300 0.70129 0.00895 -0.00575 -0.71279
1559195894.4127574 274.02261 -105.02657 -14.28029 0.70088 0.00896 -0.00399 -0.71321
1559195894.6123536 273.99293 -105.85459 -14.28857 0.70019 0.00998 -0.00448 -0.71387
1559195894.812555 273.96821 -106.59368 -14.30019 0.69872 0.00994 -0.00452 -0.71531
1559195895.012372 273.92324 -107.53233 -14.31443 0.69698 0.01039 -0.00525 -0.71700
1559195895.2124493 273.87758 -108.47612 -14.32657 0.69489 0.01145 -0.00725 -0.71899
1559195895.412612 273.82717 -109.43151 -14.33447 0.69288 0.01212 -0.00820 -0.72090
1559195895.6125515 273.77644 -110.42565 -14.34889 0.69074 0.01269 -0.00884 -0.72294
1559195895.8126066 273.71274 -111.45741 -14.35841 0.68856 0.01382 -0.00911 -0.72499
1559195896.0124967 273.63883 -112.48399 -14.37393 0.68625 0.01392 -0.01014 -0.72716
1559195896.2126017 273.56462 -113.52477 -14.38696 0.68403 0.01377 -0.01074 -0.72925
1559195896.4125328 273.47586 -114.56178 -14.39614 0.68155 0.01453 -0.01083 -0.73155
1559195896.6126504 273.37275 -115.66737 -14.40861 0.67910 0.01541 -0.01109 -0.73380
1559195896.812733 273.25685 -116.82181 -14.42468 0.67650 0.01536 -0.01143 -0.73619
1559195897.0126915 273.13764 -117.97684 -14.44535 0.67406 0.01498 -0.01115 -0.73844
1559195897.212571 273.00550 -119.14238 -14.46295 0.67187 0.01470 -0.01066 -0.74045
1559195897.41254 272.86586 -120.34243 -14.47791 0.66965 0.01434 -0.01034 -0.74247
1559195897.612432 272.71839 -121.53489 -14.48957 0.66790 0.01363 -0.01095 -0.74404
1559195897.8126447 272.55854 -122.77444 -14.50090 0.66704 0.01317 -0.01062 -0.74483
1559195898.012732 272.39276 -124.05144 -14.51517 0.66689 0.01451 -0.01044 -0.74494
1559195898.2126138 272.23053 -125.33031 -14.53264 0.66753 0.01566 -0.00882 -0.74437
1559195898.4125257 272.06809 -126.63626 -14.55393 0.66852 0.01602 -0.00816 -0.74347
1559195898.6126375 271.91492 -127.95582 -14.58555 0.66915 0.01520 -0.01035 -0.74290
1559195898.812703 271.78796 -129.25976 -14.60956 0.66996 0.01385 -0.01110 -0.74218
1559195899.0126793 271.64714 -130.59282 -14.62207 0.67150 0.01323 -0.01008 -0.74082
1559195899.2126985 271.51033 -131.91187 -14.63433 0.67285 0.01398 -0.01279 -0.73954
1559195899.4126546 271.37827 -133.24748 -14.65120 0.67450 0.01420 -0.01538 -0.73798
1559195899.6125946 271.25297 -134.59475 -14.65956 0.67656 0.01613 -0.01667 -0.73603
1559195899.8126283 271.12741 -135.96585 -14.66224 0.67949 0.01880 -0.01737 -0.73324
1559195900.0126576 271.03435 -137.32416 -14.67451 0.68221 0.01973 -0.01774 -0.73068
1559195900.2126918 270.94901 -138.69404 -14.68372 0.68490 0.02019 -0.01767 -0.72814
1559195900.4128547 270.87817 -140.07373 -14.69494 0.68751 0.02143 -0.01865 -0.72562
1559195900.614588 270.81889 -141.48602 -14.71320 0.68999 0.02213 -0.02008 -0.72320
1559195900.8127859 270.76539 -142.90575 -14.72688 0.69177 0.02262 -0.02154 -0.72144
1559195901.0127034 270.70823 -144.38438 -14.73745 0.69345 0.02450 -0.02161 -0.71977
1559195901.2126842 270.65838 -145.86233 -14.74752 0.69512 0.02545 -0.02207 -0.71811
1559195901.4126687 270.60583 -147.34676 -14.75864 0.69684 0.02517 -0.02340 -0.71641
1559195901.6127703 270.56464 -148.85827 -14.76632 0.69847 0.02406 -0.02176 -0.71490
1559195901.8126035 270.53769 -150.33020 -14.78039 0.69936 0.02631 -0.02037 -0.71400
1559195902.0125792 270.46492 -151.96103 -14.78833 0.70022 0.02786 -0.01739 -0.71318
1559195902.2124765 270.41304 -153.48622 -14.80616 0.70075 0.02876 -0.01770 -0.71261
1559195902.4126258 270.36988 -155.02340 -14.83903 0.70121 0.02904 -0.01829 -0.71213
1559195902.6127267 270.34217 -156.52201 -14.85946 0.70144 0.02552 -0.01758 -0.71206
1559195902.8126123 270.30267 -157.99527 -14.87659 0.70197 0.02036 -0.01710 -0.71171
1559195903.0126338 270.25707 -159.49130 -14.88359 0.70229 0.02073 -0.01553 -0.71142
1559195903.2126212 270.19981 -161.02297 -14.89239 0.70255 0.02068 -0.01322 -0.71121
1559195903.4125447 270.13795 -162.58451 -14.90802 0.70302 0.02144 -0.01339 -0.71073
1559195903.6128235 270.08335 -164.12243 -14.92575 0.70340 0.02390 -0.01298 -0.71027
1559195903.8125784 270.03669 -165.66715 -14.94496 0.70366 0.02733 -0.01208 -0.70991
1559195904.012655 270.00208 -167.21222 -14.97841 0.70381 0.02808 -0.01299 -0.70972
1559195904.2143958 269.96966 -168.70874 -15.01493 0.70400 0.02891 -0.01502 -0.70945
1559195904.412708 269.94606 -170.16733 -15.04301 0.70392 0.03016 -0.01515 -0.70948
1559195904.612707 269.90846 -171.59727 -15.06938 0.70352 0.02994 -0.01467 -0.70989
1559195904.812815 269.87012 -173.00439 -15.09985 0.70308 0.02864 -0.01501 -0.71038
1559195905.0124397 269.83654 -174.35232 -15.12239 0.70252 0.02829 -0.01501 -0.71094
1559195905.212541 269.80239 -175.65422 -15.13760 0.70198 0.02974 -0.01407 -0.71144
1559195905.412981 269.77432 -176.87855 -15.15246 0.70152 0.03022 -0.01318 -0.71189
1559195905.6128209 269.74555 -177.98134 -15.16516 0.70085 0.03024 -0.01421 -0.71253
1559195905.812538 269.72266 -178.96297 -15.17694 0.70026 0.02840 -0.01453 -0.71317
1559195906.0150223 269.67776 -179.96249 -15.18614 0.69970 0.02966 -0.01276 -0.71370
1559195906.2126207 269.63546 -180.94687 -15.19790 0.69917 0.03026 -0.01066 -0.71424
1559195906.4127474 269.59281 -181.97115 -15.21529 0.69865 0.02673 -0.01252 -0.71486
1559195906.6125095 269.56673 -182.88370 -15.23736 0.69806 0.02418 -0.01212 -0.71553
1559195906.8123715 269.54231 -183.65364 -15.25717 0.69762 0.02156 -0.01136 -0.71605
1559195907.0125134 269.50566 -184.42074 -15.25679 0.69690 0.02661 -0.00866 -0.71663
1559195907.2124565 269.47911 -185.11152 -15.26879 0.69571 0.02841 -0.00616 -0.71773
1559195907.4124467 269.44888 -185.81287 -15.29073 0.69428 0.02854 -0.00355 -0.71913
1559195907.612488 269.40599 -186.43387 -15.31404 0.69223 0.03106 -0.00345 -0.72100
1559195907.81346 269.36275 -187.06255 -15.34509 0.68966 0.03245 -0.00503 -0.72339
1559195908.0126286 269.31616 -187.68568 -15.37082 0.68632 0.03134 -0.00516 -0.72661
1559195908.212624 269.27308 -188.15768 -15.39175 0.68195 0.03097 -0.00415 -0.73073
1559195908.412507 269.20758 -188.66802 -15.41127 0.67728 0.03126 -0.00559 -0.73504
1559195908.6124825 269.13803 -189.07101 -15.42346 0.67216 0.03081 -0.00643 -0.73973
1559195908.8125648 269.05839 -189.52104 -15.43729 0.66699 0.03014 -0.00710 -0.74442
1559195909.0126576 268.98282 -189.90316 -15.44249 0.66130 0.02870 -0.00885 -0.74952
1559195909.2126172 268.89968 -190.30890 -15.45812 0.65524 0.02918 -0.01023 -0.75479
1559195909.4125416 268.82369 -190.64058 -15.47246 0.64895 0.02946 -0.00987 -0.76020
1559195909.6135063 268.73269 -190.91789 -15.48051 0.64259 0.03113 -0.00991 -0.76552
1559195909.8126643 268.63950 -191.23344 -15.49346 0.63691 0.03259 -0.01170 -0.77016
1559195910.0126588 268.56315 -191.51290 -15.50389 0.63141 0.03213 -0.01157 -0.77470
1559195910.2126079 268.48757 -191.74862 -15.51592 0.62676 0.03089 -0.01062 -0.77853
1559195910.4125981 268.40950 -191.98354 -15.52551 0.62262 0.03197 -0.01120 -0.78179
1559195910.6125855 268.34167 -192.16434 -15.52957 0.61881 0.03352 -0.01044 -0.78476
1559195910.8126538 268.29354 -192.30331 -15.53511 0.61583 0.03344 -0.00758 -0.78713
1559195911.0126317 268.24790 -192.41739 -15.54181 0.61314 0.03382 -0.00672 -0.78923
1559195911.2126167 268.21136 -192.50892 -15.54840 0.61108 0.03464 -0.00811 -0.79077
1559195911.4126377 268.19195 -192.56124 -15.54980 0.60960 0.03477 -0.00819 -0.79191
1559195911.612769 268.17521 -192.61199 -15.55347 0.60859 0.03475 -0.00804 -0.79269
1559195911.8125367 268.17083 -192.61933 -15.55283 0.60819 0.03480 -0.00815 -0.79299
1559195912.0126295 268.17364 -192.61570 -15.55230 0.60818 0.03450 -0.00804 -0.79301
1559195912.2124863 268.17519 -192.61638 -15.55078 0.60816 0.03405 -0.00820 -0.79304
1559195912.4125361 268.17617 -192.61728 -15.55049 0.60810 0.03412 -0.00835 -0.79308
1559195912.6126401 268.17752 -192.61686 -15.54949 0.60808 0.03413 -0.00817 -0.79310
1559195912.8126752 268.17843 -192.61551 -15.54906 0.60807 0.03412 -0.00818 -0.79311
1559195913.012727 268.17908 -192.61471 -15.54853 0.60808 0.03414 -0.00821 -0.79310
1559195913.214024 268.17952 -192.61604 -15.54805 0.60807 0.03410 -0.00818 -0.79311
1559195913.412803 268.17971 -192.61580 -15.54767 0.60807 0.03413 -0.00821 -0.79310
1559195913.6126423 268.17997 -192.61642 -15.54691 0.60804 0.03414 -0.00819 -0.79313
1559195913.8126438 268.18034 -192.61636 -15.54614 0.60804 0.03414 -0.00819 -0.79313
1559195914.0125966 268.18152 -192.61254 -15.54477 0.60803 0.03409 -0.00817 -0.79314
1559195914.2126548 268.18231 -192.61011 -15.54348 0.60803 0.03409 -0.00815 -0.79314
1559195914.4126406 268.18227 -192.61169 -15.54320 0.60801 0.03410 -0.00817 -0.79315
1559195914.6125228 268.18201 -192.61339 -15.54294 0.60802 0.03411 -0.00817 -0.79315
1559195914.8125718 268.18174 -192.61507 -15.54282 0.60802 0.03412 -0.00820 -0.79314
1559195915.0126176 268.18153 -192.61643 -15.54278 0.60803 0.03409 -0.00817 -0.79314
1559195915.2128468 268.18119 -192.61750 -15.54268 0.60803 0.03412 -0.00818 -0.79314
1559195915.4126456 268.18084 -192.61925 -15.54260 0.60803 0.03411 -0.00820 -0.79314
1559195915.6126902 268.18032 -192.62068 -15.54258 0.60804 0.03412 -0.00822 -0.79313
1559195915.8128068 268.18003 -192.62255 -15.54245 0.60803 0.03412 -0.00822 -0.79314
1559195916.012759 268.17949 -192.62433 -15.54239 0.60804 0.03414 -0.00826 -0.79313
1559195916.2125423 268.17952 -192.62582 -15.54228 0.60803 0.03413 -0.00823 -0.79314
1559195916.4127138 268.17908 -192.62731 -15.54232 0.60804 0.03412 -0.00825 -0.79313
1559195916.6126485 268.17874 -192.62832 -15.54224 0.60805 0.03413 -0.00825 -0.79312
1559195916.8127527 268.17788 -192.63137 -15.54371 0.60796 0.03376 -0.00850 -0.79321
1559195917.0126572 268.17510 -192.63928 -15.54485 0.60781 0.03327 -0.00875 -0.79333
1559195917.212748 268.16697 -192.66332 -15.54533 0.60728 0.03289 -0.00886 -0.79375
1559195917.4127028 268.15005 -192.70866 -15.54626 0.60617 0.03289 -0.00885 -0.79461
1559195917.6127157 268.12608 -192.77080 -15.54868 0.60437 0.03290 -0.00895 -0.79597
1559195917.8127503 268.09265 -192.85185 -15.55230 0.60174 0.03279 -0.00896 -0.79797
1559195918.012546 268.04557 -192.96836 -15.55997 0.59784 0.03215 -0.00885 -0.80092
1559195918.2125561 267.98726 -193.08090 -15.56333 0.59312 0.03164 -0.00876 -0.80444
1559195918.4124818 267.91501 -193.20797 -15.57023 0.58700 0.03202 -0.00935 -0.80890
1559195918.6127558 267.91011 -193.48255 -15.63909 0.57875 0.02944 -0.00889 -0.81493
1559195918.8127422 267.74883 -193.54549 -15.58881 0.57124 0.03063 -0.00985 -0.82015
1559195919.0125935 267.63546 -193.69264 -15.59871 0.56228 0.03125 -0.00971 -0.82630
1559195919.2127287 267.54331 -193.87459 -15.62358 0.55202 0.03021 -0.00843 -0.83324
1559195919.4127362 267.40110 -194.04598 -15.62655 0.54156 0.02989 -0.00858 -0.84008
1559195919.6128354 267.26131 -194.23451 -15.64100 0.53012 0.03021 -0.00881 -0.84734
1559195919.8126352 267.10853 -194.42642 -15.65482 0.51763 0.02951 -0.00822 -0.85506
1559195920.012635 266.94230 -194.63368 -15.66882 0.50409 0.02724 -0.00604 -0.86320
1559195920.212591 266.75381 -194.83832 -15.67939 -0.49014 -0.02596 0.00438 0.87124
1559195920.4127512 266.54378 -195.03648 -15.69061 -0.47545 -0.02673 0.00683 0.87931
1559195920.6127198 266.32478 -195.24898 -15.71086 -0.45970 -0.02632 0.01006 0.88763
1559195920.812613 266.09745 -195.46635 -15.73142 -0.44350 -0.02441 0.01149 0.89587
1559195921.0128248 265.85955 -195.69163 -15.74386 -0.42676 -0.02327 0.00815 0.90403
1559195921.2126284 265.59574 -195.90091 -15.75054 -0.41053 -0.02653 0.00692 0.91144
1559195921.412561 265.32341 -196.09807 -15.77678 -0.39294 -0.02714 0.00514 0.91915
1559195921.612593 265.04266 -196.30726 -15.80878 -0.37440 -0.02442 -0.00234 0.92694
1559195921.8125365 264.73187 -196.49590 -15.82316 -0.35539 -0.02536 -0.00564 0.93436
1559195922.012686 264.40075 -196.67080 -15.83579 -0.33532 -0.02673 -0.00423 0.94171
1559195922.2127328 264.04967 -196.84935 -15.85334 -0.31374 -0.02692 -0.00440 0.94912
1559195922.4128022 263.67196 -197.02427 -15.87236 -0.29032 -0.02748 -0.00383 0.95653
1559195922.6127064 263.26135 -197.19960 -15.90126 -0.26450 -0.02455 -0.00357 0.96407
1559195922.8127413 262.81736 -197.37651 -15.93543 -0.23681 -0.02001 -0.00680 0.97133
1559195923.01267 262.33744 -197.50530 -15.94132 -0.20922 -0.01672 -0.00769 0.97770
1559195923.212772 261.79583 -197.64585 -15.97333 -0.18330 -0.01593 -0.00355 0.98292
1559195923.4129186 261.20840 -197.77421 -15.98957 -0.16143 -0.01600 -0.00029 0.98675
1559195923.6129215 260.59081 -197.90520 -16.00775 -0.14231 -0.01384 -0.00120 0.98972
1559195923.8127759 259.94000 -198.00540 -16.03038 -0.12638 -0.01181 0.00122 0.99191
1559195924.0129364 259.25334 -198.10461 -16.06199 -0.11370 -0.00887 0.00345 0.99347
1559195924.2128167 258.53304 -198.20391 -16.08733 -0.10311 -0.00808 0.00373 0.99463
1559195924.4128103 257.78184 -198.29191 -16.10094 -0.09441 -0.01004 0.00491 0.99547
1559195924.6129367 256.99723 -198.39230 -16.13379 -0.08754 -0.01015 0.00754 0.99608
1559195924.8128521 256.19939 -198.49721 -16.17228 -0.08124 -0.00871 0.00858 0.99662
1559195925.0128577 255.39380 -198.57311 -16.19190 -0.07509 -0.00711 0.00923 0.99711
1559195925.2129676 254.55432 -198.63858 -16.20843 -0.06836 -0.00644 0.01148 0.99757
1559195925.4127784 253.69755 -198.76671 -16.23051 -0.06160 -0.00611 0.01126 0.99802
1559195925.6127563 252.81522 -198.86022 -16.24522 -0.05475 -0.00569 0.01213 0.99841
1559195925.8154054 251.92003 -198.93753 -16.25046 -0.04751 -0.00473 0.01314 0.99877
1559195926.013073 251.03433 -199.00468 -16.25526 -0.03998 -0.00408 0.01244 0.99911
1559195926.2128606 250.12374 -199.05824 -16.25914 -0.03252 -0.00360 0.01206 0.99939
1559195926.41282 249.19029 -199.09555 -16.26009 -0.02491 -0.00365 0.01140 0.99962
1559195926.6130462 248.22671 -199.11120 -16.26094 -0.01842 -0.00392 0.01207 0.99975
1559195926.812964 247.23202 -199.11620 -16.26712 -0.01289 -0.00385 0.01143 0.99984
1559195927.0129616 246.20631 -199.11571 -16.27462 -0.00852 -0.00338 0.01087 0.99990
1559195927.2129793 245.11308 -199.11896 -16.28954 -0.00588 -0.00268 0.01049 0.99992
1559195927.4130304 244.04463 -199.11440 -16.30139 -0.00439 -0.00232 0.00961 0.99994
1559195927.615367 242.87656 -199.11476 -16.31430 -0.00360 -0.00281 0.00981 0.99994
1559195927.8129568 241.78640 -199.11575 -16.32394 -0.00332 -0.00303 0.00849 0.99995
1559195928.0129228 240.55653 -199.12483 -16.34395 -0.00339 -0.00338 0.00940 0.99994
1559195928.213211 239.41026 -199.12266 -16.35834 -0.00379 -0.00388 0.00908 0.99994
1559195928.4129345 238.10027 -199.14028 -16.38160 -0.00439 -0.00511 0.00944 0.99993
1559195928.6131043 236.91598 -199.14438 -16.40135 -0.00532 -0.00457 0.00932 0.99993
1559195928.8129551 235.53477 -199.17281 -16.42485 -0.00727 -0.00560 0.00996 0.99991
1559195929.0129683 234.31305 -199.19358 -16.44659 -0.00910 -0.00739 0.00882 0.99989
1559195929.2128878 232.86620 -199.22562 -16.47256 -0.01098 -0.00733 0.00941 0.99987
1559195929.4129398 231.38915 -199.25584 -16.49929 -0.01284 -0.00655 0.01014 0.99984
1559195929.6129286 229.89133 -199.30262 -16.53550 -0.01504 -0.00630 0.00999 0.99982
1559195929.8130782 228.36237 -199.35798 -16.57177 -0.01672 -0.00837 0.00850 0.99979
1559195930.0131063 226.83123 -199.40360 -16.61303 -0.01776 -0.00981 0.01028 0.99974
1559195930.2129366 225.31530 -199.44316 -16.65389 -0.01847 -0.00970 0.01053 0.99973
1559195930.4129384 223.81087 -199.48467 -16.68978 -0.01791 -0.00770 0.00967 0.99976
1559195930.6131222 222.28521 -199.51428 -16.71527 -0.01709 -0.00582 0.01142 0.99977
1559195930.8131516 220.73946 -199.54104 -16.73636 -0.01592 -0.00639 0.01317 0.99977
1559195931.0131662 219.21318 -199.57047 -16.75679 -0.01505 -0.00861 0.01310 0.99976
1559195931.2132528 217.69626 -199.59568 -16.78812 -0.01420 -0.00863 0.01347 0.99977
1559195931.413216 216.19946 -199.61087 -16.82210 -0.01299 -0.00888 0.01526 0.99976
1559195931.6130497 214.72366 -199.63189 -16.84994 -0.01166 -0.00955 0.01411 0.99979
1559195931.8130603 213.23344 -199.64602 -16.88581 -0.00989 -0.00794 0.01453 0.99981
1559195932.0129943 211.75155 -199.65554 -16.92009 -0.00849 -0.00838 0.01409 0.99983
1559195932.2134736 210.25885 -199.66291 -16.94777 -0.00691 -0.00987 0.01287 0.99984
1559195932.4131496 208.73890 -199.66046 -16.97930 -0.00605 -0.00837 0.01333 0.99986
1559195932.61315 207.20983 -199.65395 -17.01163 -0.00606 -0.00715 0.01394 0.99986
1559195932.8141458 205.64488 -199.64312 -17.03765 -0.00605 -0.00843 0.01591 0.99982
1559195933.0130029 204.05223 -199.63549 -17.06795 -0.00600 -0.00751 0.01735 0.99980
1559195933.2130003 202.45275 -199.63723 -17.09990 -0.00580 -0.00707 0.01893 0.99978
1559195933.4131262 200.80256 -199.64860 -17.12677 -0.00572 -0.00918 0.01877 0.99977
1559195933.613036 199.15122 -199.66541 -17.15923 -0.00511 -0.00878 0.01903 0.99977
1559195933.8130946 197.50667 -199.67709 -17.19680 -0.00448 -0.00719 0.01799 0.99980
1559195934.0130212 195.87597 -199.67856 -17.22018 -0.00478 -0.00549 0.01720 0.99983
1559195934.2132084 194.22017 -199.68008 -17.23759 -0.00413 -0.00700 0.01391 0.99987
1559195934.4132593 192.58657 -199.67960 -17.25936 -0.00254 -0.01226 0.01187 0.99985
1559195934.613009 190.95421 -199.66922 -17.30861 -0.00160 -0.01162 0.00895 0.99989
1559195934.8130312 189.32856 -199.64724 -17.35985 0.00055 -0.00578 0.01413 0.99988
1559195935.0129883 187.69787 -199.64388 -17.40283 0.00164 -0.00818 0.00663 0.99994
1559195935.2131402 186.02225 -199.60796 -17.44143 0.00257 -0.01248 0.01443 0.99981
1559195935.4130466 184.34822 -199.57426 -17.50888 0.00270 -0.00726 0.01324 0.99988
1559195935.6130838 182.67568 -199.53291 -17.54496 0.00417 -0.00918 0.01603 0.99982
1559195935.8131685 181.01946 -199.48464 -17.57925 0.00412 -0.00817 0.01910 0.99978
1559195936.0129678 179.37211 -199.46890 -17.62497 0.00376 -0.00018 0.01678 0.99985
1559195936.21305 177.72881 -199.44898 -17.62069 0.00288 -0.00334 0.01547 0.99987
1559195936.4143507 176.10441 -199.44755 -17.62627 0.00210 -0.00597 0.01310 0.99989
1559195936.6133487 174.50442 -199.42830 -17.64380 0.00093 -0.00464 0.01275 0.99991
1559195936.8131623 172.93711 -199.41586 -17.65623 0.00022 -0.00388 0.01327 0.99990
1559195937.0129871 171.37149 -199.39964 -17.66034 -0.00076 -0.00478 0.01322 0.99990
1559195937.2129562 169.82273 -199.38522 -17.66100 -0.00163 -0.00466 0.01339 0.99990
1559195937.4131072 168.25757 -199.37482 -17.66797 -0.00257 -0.00277 0.01309 0.99991
1559195937.6131256 166.69126 -199.36457 -17.67150 -0.00343 -0.00280 0.01301 0.99991
1559195937.8131282 165.13231 -199.36693 -17.67344 -0.00434 -0.00408 0.01212 0.99991
1559195938.0129647 163.61881 -199.36091 -17.68068 -0.00519 -0.00409 0.01276 0.99990
1559195938.2130282 162.10115 -199.36640 -17.68880 -0.00589 -0.00461 0.01288 0.99989
1559195938.4132154 160.58706 -199.37032 -17.69753 -0.00640 -0.00514 0.01244 0.99989
1559195938.6130612 159.06942 -199.38301 -17.71126 -0.00670 -0.00517 0.01281 0.99988
1559195938.8132272 157.51185 -199.39402 -17.73443 -0.00667 -0.00759 0.01470 0.99984
1559195939.0133126 155.93052 -199.41305 -17.76379 -0.00673 -0.01079 0.01583 0.99979
1559195939.2132783 154.41364 -199.41724 -17.80642 -0.00652 -0.00972 0.01503 0.99982
1559195939.4131484 152.91118 -199.42474 -17.84850 -0.00586 -0.00598 0.01651 0.99983
1559195939.6131444 151.35698 -199.42436 -17.87501 -0.00529 -0.00530 0.01661 0.99983
1559195939.8130934 149.79182 -199.43682 -17.89479 -0.00467 -0.00648 0.01545 0.99985
1559195940.013049 148.24660 -199.43965 -17.91805 -0.00447 -0.00716 0.01392 0.99987
1559195940.2131834 146.73514 -199.44178 -17.94409 -0.00333 -0.00300 0.01272 0.99991
1559195940.413154 145.23979 -199.42878 -17.95954 -0.00248 -0.00106 0.01722 0.99985
1559195940.6132386 143.75992 -199.42660 -17.95771 -0.00187 -0.00311 0.01535 0.99988
1559195940.8131719 142.29988 -199.41377 -17.96539 -0.00148 -0.00249 0.01593 0.99987
1559195941.0131354 140.80693 -199.40922 -17.97276 -0.00066 -0.00095 0.01456 0.99989
1559195941.212979 139.29854 -199.39984 -17.97441 -0.00037 0.00097 0.01396 0.99990
1559195941.4129531 137.74136 -199.38643 -17.97139 -0.00066 -0.00124 0.01440 0.99990
1559195941.6130953 136.18033 -199.37355 -17.97226 -0.00093 -0.00226 0.01526 0.99988
1559195941.813078 134.61963 -199.36375 -17.98067 -0.00113 -0.00139 0.01508 0.99988
1559195942.0131085 133.04741 -199.34734 -17.98810 -0.00144 -0.00110 0.01643 0.99986
1559195942.213281 131.41973 -199.33517 -17.99450 -0.00156 -0.00052 0.01656 0.99986
1559195942.4131157 129.79605 -199.32852 -18.00293 -0.00124 -0.00094 0.01632 0.99987
1559195942.6131623 128.13828 -199.31053 -18.00766 -0.00055 -0.00198 0.01683 0.99986
1559195942.8131394 126.50173 -199.30068 -18.01459 0.00010 -0.00178 0.01645 0.99986
1559195943.013342 124.92365 -199.29008 -18.02103 0.00070 -0.00138 0.01680 0.99986
1559195943.213201 123.37899 -199.28159 -18.02326 0.00136 -0.00277 0.01616 0.99986
1559195943.4130406 121.95621 -199.25650 -18.02879 0.00197 -0.00309 0.01546 0.99987
1559195943.6129487 120.48582 -199.22906 -18.04680 0.00222 -0.00219 0.01524 0.99988
1559195943.8131456 118.95630 -199.21038 -18.05520 0.00222 -0.00213 0.01437 0.99989
1559195944.0133073 117.49593 -199.19346 -18.05995 0.00214 -0.00341 0.01450 0.99989
1559195944.213355 116.07185 -199.17712 -18.06409 0.00212 -0.00400 0.01462 0.99988
1559195944.4134545 114.71617 -199.16258 -18.07608 0.00215 -0.00355 0.01549 0.99987
1559195944.6131139 113.40615 -199.13450 -18.08597 0.00219 -0.00293 0.01570 0.99987
1559195944.8132524 112.15866 -199.09960 -18.08734 0.00215 -0.00312 0.01616 0.99986
1559195945.01317 110.90916 -199.07787 -18.09018 0.00201 -0.00342 0.01640 0.99986
1559195945.213029 109.73084 -199.06013 -18.09403 0.00160 -0.00415 0.01645 0.99985
1559195945.4131968 108.57959 -199.05039 -18.10322 0.00113 -0.00405 0.01727 0.99984
1559195945.613307 107.50467 -199.03595 -18.10872 0.00066 -0.00362 0.01753 0.99984
1559195945.813257 106.42884 -199.04260 -18.11712 0.00050 -0.00326 0.01796 0.99983
1559195946.0132625 105.36742 -199.03471 -18.11767 -0.00001 -0.00286 0.01770 0.99984
1559195946.2133594 104.34699 -199.03234 -18.11922 -0.00040 -0.00329 0.01701 0.99985
1559195946.413242 103.40678 -199.02833 -18.12094 -0.00073 -0.00377 0.01718 0.99984
1559195946.6132584 102.52072 -199.02461 -18.12280 -0.00107 -0.00483 0.01799 0.99983
1559195946.813144 101.69771 -199.02176 -18.12802 -0.00119 -0.00605 0.01775 0.99982
1559195947.0132291 100.91223 -199.02249 -18.13475 -0.00144 -0.00625 0.01747 0.99983
1559195947.2132068 100.23099 -199.01452 -18.13915 -0.00162 -0.00644 0.01830 0.99981
1559195947.4132473 99.49978 -199.01031 -18.14591 -0.00188 -0.00619 0.01841 0.99981
1559195947.613255 98.92824 -199.00495 -18.15228 -0.00215 -0.00542 0.01796 0.99982
1559195947.8132422 98.29414 -199.00248 -18.15559 -0.00229 -0.00483 0.01812 0.99982
1559195948.013283 97.85396 -198.99989 -18.15832 -0.00254 -0.00439 0.01784 0.99983
1559195948.213243 97.35694 -198.99476 -18.15947 -0.00270 -0.00423 0.01838 0.99982
1559195948.4131658 96.94925 -198.99126 -18.16004 -0.00275 -0.00391 0.01942 0.99980
1559195948.613331 96.56412 -198.98913 -18.16128 -0.00281 -0.00424 0.01950 0.99980
1559195948.8131928 96.23648 -198.99175 -18.16266 -0.00282 -0.00388 0.01876 0.99981
1559195949.0132651 95.94406 -198.98900 -18.16225 -0.00284 -0.00364 0.01863 0.99982
1559195949.2132673 95.71101 -198.98745 -18.16418 -0.00289 -0.00354 0.01877 0.99981
1559195949.4132838 95.50257 -198.98761 -18.16578 -0.00294 -0.00351 0.01840 0.99982
1559195949.6132615 95.30177 -198.98441 -18.16649 -0.00295 -0.00328 0.01832 0.99982
1559195949.8132963 95.15682 -198.98273 -18.16702 -0.00298 -0.00278 0.01805 0.99983
1559195950.0132596 94.99495 -198.98257 -18.16857 -0.00302 -0.00182 0.01786 0.99983
1559195950.2131917 94.84037 -198.98150 -18.16759 -0.00315 -0.00170 0.01805 0.99983
1559195950.413302 94.70889 -198.98184 -18.16542 -0.00322 -0.00190 0.01830 0.99983
1559195950.6132123 94.55509 -198.97850 -18.16375 -0.00322 -0.00185 0.01874 0.99982
1559195950.814755 94.43728 -198.97878 -18.16376 -0.00316 -0.00171 0.01869 0.99982
1559195951.013307 94.32235 -198.97857 -18.16429 -0.00319 -0.00165 0.01862 0.99982
1559195951.2132041 94.22222 -198.97824 -18.16400 -0.00325 -0.00139 0.01881 0.99982
1559195951.4132113 94.11386 -198.97919 -18.16439 -0.00324 -0.00077 0.01886 0.99982
1559195951.6133757 94.00163 -198.98024 -18.16470 -0.00335 -0.00047 0.01876 0.99982
1559195951.8132954 93.87646 -198.97839 -18.16401 -0.00327 -0.00039 0.01856 0.99982
1559195952.0132623 93.75053 -198.97837 -18.16345 -0.00328 -0.00066 0.01827 0.99983
1559195952.2132137 93.61136 -198.97745 -18.16425 -0.00339 -0.00095 0.01852 0.99982
1559195952.4132757 93.46769 -198.97715 -18.16543 -0.00346 -0.00116 0.01883 0.99982
1559195952.6134522 93.32156 -198.97895 -18.16546 -0.00353 -0.00098 0.01864 0.99982
1559195952.813462 93.16715 -198.97961 -18.16637 -0.00369 -0.00085 0.01876 0.99982
1559195953.013379 93.02696 -198.97686 -18.16693 -0.00378 -0.00098 0.01871 0.99982
1559195953.2133977 92.87493 -198.97477 -18.16637 -0.00400 -0.00114 0.01853 0.99982
1559195953.4133027 92.72366 -198.97482 -18.16659 -0.00432 -0.00113 0.01870 0.99982
1559195953.6133192 92.57765 -198.97646 -18.16682 -0.00447 -0.00147 0.01868 0.99981
1559195953.813319 92.44580 -198.97696 -18.16749 -0.00468 -0.00153 0.01848 0.99982
1559195954.0132987 92.37100 -198.97725 -18.17145 -0.00474 -0.00148 0.01834 0.99982
1559195954.2132554 92.26255 -198.97768 -18.17202 -0.00488 -0.00140 0.01849 0.99982
1559195954.4136608 92.16638 -198.97897 -18.17291 -0.00505 -0.00143 0.01841 0.99982
1559195954.61341 92.08491 -198.98018 -18.17307 -0.00517 -0.00137 0.01842 0.99982
1559195954.8132796 92.01792 -198.98072 -18.17285 -0.00528 -0.00133 0.01848 0.99981
1559195955.0133176 91.96013 -198.98108 -18.17317 -0.00539 -0.00138 0.01846 0.99981
1559195955.213302 91.92167 -198.98132 -18.17377 -0.00547 -0.00134 0.01855 0.99981
1559195955.4133368 91.89501 -198.98116 -18.17425 -0.00554 -0.00136 0.01856 0.99981
1559195955.6132872 91.92811 -198.98371 -18.17792 -0.00544 -0.00137 0.01853 0.99981
1559195955.8134778 91.94323 -198.98354 -18.17642 -0.00543 -0.00132 0.01853 0.99981
1559195956.0132854 91.94678 -198.98356 -18.17567 -0.00545 -0.00122 0.01856 0.99981
1559195956.215142 91.95069 -198.98363 -18.17536 -0.00546 -0.00120 0.01856 0.99981
1559195956.4134479 91.95284 -198.98349 -18.17495 -0.00547 -0.00129 0.01859 0.99981
1559195956.6132793 91.95615 -198.98325 -18.17491 -0.00549 -0.00131 0.01860 0.99981
1559195956.813236 91.95380 -198.98308 -18.17485 -0.00549 -0.00131 0.01862 0.99981
1559195957.0132077 91.94994 -198.98301 -18.17478 -0.00548 -0.00135 0.01861 0.99981
1559195957.2134967 91.94921 -198.98317 -18.17487 -0.00545 -0.00139 0.01862 0.99981
1559195957.4134324 91.94165 -198.98324 -18.17557 -0.00544 -0.00136 0.01866 0.99981
1559195957.61332 91.93920 -198.98327 -18.17555 -0.00545 -0.00142 0.01863 0.99981
1559195957.8134623 91.93940 -198.98305 -18.17577 -0.00547 -0.00138 0.01868 0.99981
1559195958.0134335 91.93809 -198.98317 -18.17627 -0.00549 -0.00117 0.01871 0.99981
1559195958.2134626 91.92972 -198.98227 -18.17750 -0.00549 -0.00064 0.01867 0.99981
1559195958.41342 91.91194 -198.98113 -18.17583 -0.00554 -0.00077 0.01866 0.99981
1559195958.6134496 91.88921 -198.98068 -18.17492 -0.00556 -0.00094 0.01870 0.99981
1559195958.8134286 91.85522 -198.98020 -18.17398 -0.00560 -0.00070 0.01865 0.99981
1559195959.0133276 91.79955 -198.97999 -18.17413 -0.00565 0.00009 0.01854 0.99981
1559195959.213393 91.71651 -198.97945 -18.17222 -0.00571 0.00091 0.01856 0.99981
1559195959.4135897 91.59683 -198.97924 -18.16897 -0.00583 0.00090 0.01845 0.99981
1559195959.6134667 91.44626 -198.98028 -18.16926 -0.00592 0.00095 0.01839 0.99981
1559195959.8160098 91.24733 -198.98182 -18.17161 -0.00600 0.00159 0.01822 0.99981
1559195960.0136015 91.00832 -198.98286 -18.17205 -0.00622 0.00216 0.01786 0.99982
1559195960.2134972 90.70765 -198.98417 -18.17175 -0.00636 0.00242 0.01801 0.99981
1559195960.4135692 90.41826 -198.98588 -18.16577 -0.00657 0.00213 0.01763 0.99982
1559195960.6133568 90.02717 -198.99070 -18.17256 -0.00663 0.00220 0.01730 0.99983
1559195960.8133066 89.58624 -198.99128 -18.17419 -0.00659 0.00239 0.01705 0.99983
1559195961.013302 89.17564 -198.97585 -18.17032 -0.00684 0.00137 0.01777 0.99982
1559195961.2133064 88.61438 -198.99108 -18.17822 -0.00620 0.00097 0.01777 0.99982
1559195961.4133098 88.08365 -198.99547 -18.18439 -0.00583 0.00107 0.01734 0.99983
1559195961.6134279 87.45396 -198.99684 -18.18292 -0.00559 -0.00003 0.01750 0.99983
1559195961.8134665 86.83231 -198.99928 -18.18785 -0.00521 -0.00056 0.01720 0.99984
1559195962.013415 86.11507 -199.00045 -18.19040 -0.00495 -0.00052 0.01743 0.99984
1559195962.2134576 85.41987 -198.99942 -18.20118 -0.00465 0.00037 0.01798 0.99983
1559195962.413532 84.62345 -199.00096 -18.20356 -0.00420 0.00065 0.01835 0.99982
1559195962.6134973 83.85252 -199.00280 -18.20711 -0.00388 0.00090 0.01727 0.99984
1559195962.813612 83.03498 -198.99797 -18.21095 -0.00355 0.00107 0.01765 0.99984
1559195963.0135539 82.17905 -198.98895 -18.21155 -0.00294 0.00045 0.01820 0.99983
1559195963.2133403 81.27730 -198.98151 -18.20941 -0.00219 -0.00014 0.01760 0.99984
1559195963.4157705 80.32241 -198.97340 -18.21250 -0.00140 -0.00033 0.01802 0.99984
1559195963.6134953 79.35724 -198.95840 -18.22157 -0.00073 0.00058 0.01871 0.99982
1559195963.8134525 78.34003 -198.94373 -18.22828 0.00022 0.00210 0.01783 0.99984
1559195964.013204 77.28191 -198.92320 -18.22913 0.00063 0.00279 0.01777 0.99984
1559195964.213475 76.17942 -198.91101 -18.23447 0.00103 0.00239 0.01630 0.99986
1559195964.4134014 75.04447 -198.90085 -18.23286 0.00059 -0.00170 0.01187 0.99993
1559195964.6135771 73.89304 -198.87726 -18.23423 0.00022 -0.00368 0.01585 0.99987
1559195964.813408 72.74002 -198.86702 -18.24836 0.00038 0.00380 0.01558 0.99987
1559195965.013091 71.54610 -198.87252 -18.26530 0.00022 0.00570 0.01292 0.99990
1559195965.2134366 70.30771 -198.84488 -18.23901 -0.00016 -0.00236 0.01901 0.99982
1559195965.4134514 69.07060 -198.84235 -18.24324 0.00007 -0.00300 0.01871 0.99982
1559195965.613535 67.82016 -198.85044 -18.26385 -0.00042 -0.00063 0.01650 0.99986
1559195965.8135185 66.53488 -198.83304 -18.27169 -0.00142 -0.00148 0.02059 0.99979
1559195966.0137477 65.22624 -198.83060 -18.27802 -0.00213 -0.00233 0.02196 0.99975
1559195966.2135062 63.90122 -198.83983 -18.29220 -0.00336 -0.00082 0.01921 0.99981
1559195966.4135647 62.54418 -198.83099 -18.31457 -0.00477 -0.00071 0.02167 0.99975
1559195966.6134856 61.15338 -198.83522 -18.32654 -0.00534 -0.00117 0.02286 0.99972
1559195966.814033 59.72688 -198.85216 -18.33126 -0.00519 -0.00090 0.02283 0.99973
1559195967.0136614 58.28812 -198.85544 -18.33542 -0.00519 -0.00127 0.02573 0.99965
1559195967.2135997 56.83612 -198.86374 -18.34383 -0.00488 0.00068 0.02332 0.99972
1559195967.4134963 55.35332 -198.86013 -18.35337 -0.00444 -0.00047 0.02028 0.99978
1559195967.613496 53.84963 -198.83213 -18.36069 -0.00317 -0.00219 0.02240 0.99974
1559195967.8133147 52.33952 -198.83131 -18.38383 -0.00136 -0.00118 0.02164 0.99976
1559195968.0134864 50.81029 -198.80670 -18.39951 -0.00057 0.00001 0.02145 0.99977
1559195968.2134955 49.26184 -198.77415 -18.41209 0.00107 -0.00303 0.02416 0.99970
1559195968.4134548 47.70319 -198.74961 -18.42208 0.00247 -0.00711 0.02489 0.99966
1559195968.6135483 46.14809 -198.71754 -18.45584 0.00367 0.00031 0.02496 0.99968
1559195968.8134835 44.56867 -198.68454 -18.46918 0.00499 0.00391 0.02348 0.99970
1559195969.0134482 42.95621 -198.65003 -18.45198 0.00630 -0.00132 0.02231 0.99973
1559195969.2135253 41.34434 -198.60222 -18.45207 0.00731 -0.00244 0.02231 0.99972
1559195969.4135265 39.72682 -198.55133 -18.46981 0.00809 0.00006 0.02344 0.99969
1559195969.613556 38.08904 -198.49995 -18.47646 0.00884 0.00051 0.02472 0.99966
1559195969.8135602 36.42933 -198.44091 -18.47266 0.00987 -0.00127 0.03039 0.99949
1559195970.013538 34.77566 -198.40818 -18.48136 0.00929 0.00506 0.02089 0.99973
1559195970.2133636 33.08857 -198.35397 -18.47119 0.01000 0.00245 0.02449 0.99965
1559195970.4133115 31.38407 -198.30532 -18.45753 0.00964 -0.00241 0.01993 0.99975
1559195970.6135275 29.67704 -198.26015 -18.47431 0.00992 0.00112 0.02009 0.99975
1559195970.813561 27.93996 -198.22868 -18.48963 0.01006 0.00390 0.01861 0.99977
1559195971.0135908 26.15905 -198.14576 -18.47610 0.00925 0.00210 0.01707 0.99981
1559195971.2136264 24.35741 -198.12816 -18.47392 0.00755 -0.00007 0.01805 0.99981
1559195971.4137402 22.54094 -197.95559 -18.47963 0.00436 -0.00056 0.01963 0.99980
1559195971.6136708 20.74075 -198.03917 -18.49985 0.00338 0.00158 0.01938 0.99981
1559195971.8135881 18.91572 -198.05672 -18.48730 0.00194 0.00003 0.01884 0.99982
1559195972.013646 17.06450 -197.93564 -18.49485 -0.00016 -0.00089 0.02000 0.99980
1559195972.2133431 15.22369 -197.97067 -18.49427 -0.00016 0.00015 0.01887 0.99982
1559195972.413665 13.37214 -197.95242 -18.50008 -0.00028 0.00052 0.01800 0.99984
1559195972.6136825 11.51802 -197.93826 -18.50884 -0.00017 0.00152 0.01798 0.99984
1559195972.8135734 9.65943 -197.92255 -18.50904 -0.00013 0.00136 0.01762 0.99984
1559195973.0136678 7.79549 -197.91903 -18.49691 -0.00030 -0.00012 0.01712 0.99985
1559195973.2136736 5.93425 -197.91318 -18.51060 -0.00024 0.00089 0.01690 0.99986
1559195973.4136603 4.06514 -197.92686 -18.49263 0.00027 -0.00015 0.01837 0.99983
1559195973.613953 2.20104 -197.88155 -18.49089 0.00052 0.00083 0.02111 0.99978
1559195973.8136122 0.35546 -197.86625 -18.49568 0.00099 0.00300 0.02047 0.99979
1559195974.0135608 -1.50112 -197.86735 -18.48108 0.00124 0.00058 0.01856 0.99983
1559195974.213518 -3.35242 -197.88377 -18.48445 0.00225 0.00140 0.01645 0.99986
1559195974.4135182 -5.23661 -197.83226 -18.48688 0.00249 0.00329 0.01701 0.99985
1559195974.6135912 -7.14334 -197.79980 -18.48203 0.00307 0.00244 0.01816 0.99983
1559195974.8137026 -9.07983 -197.76412 -18.48063 0.00336 0.00129 0.01750 0.99984
1559195975.0137124 -11.04283 -197.68893 -18.47980 0.00311 0.00008 0.01854 0.99982
1559195975.2135558 -12.99969 -197.71243 -18.49649 0.00403 -0.00050 0.01737 0.99984
1559195975.413582 -14.97691 -197.68489 -18.51083 0.00415 -0.00043 0.01654 0.99985
1559195975.6136136 -16.95597 -197.64919 -18.52390 0.00422 0.00344 0.01556 0.99986
1559195975.8135707 -18.95537 -197.62034 -18.50821 0.00455 0.00099 0.01505 0.99988
1559195976.0136755 -20.95816 -197.55492 -18.51295 0.00428 -0.00140 0.01514 0.99988
1559195976.213665 -22.95355 -197.53190 -18.53145 0.00472 0.00080 0.01555 0.99987
1559195976.4135962 -24.94769 -197.44867 -18.52838 0.00459 0.00075 0.01603 0.99986
1559195976.613691 -26.93081 -197.43158 -18.51948 0.00492 -0.00039 0.01528 0.99987
1559195976.8136423 -28.90855 -197.34523 -18.52131 0.00445 -0.00028 0.01669 0.99985
1559195977.0135977 -30.88580 -197.26150 -18.53840 0.00383 0.00004 0.01679 0.99985
1559195977.21352 -32.84570 -197.26043 -18.53391 0.00387 -0.00085 0.01574 0.99987
1559195977.4135118 -34.79453 -197.26107 -18.53347 0.00401 0.00003 0.01430 0.99989
1559195977.6134772 -36.73003 -197.17678 -18.53569 0.00424 0.00035 0.01543 0.99987
1559195977.8136525 -38.65376 -197.17398 -18.53513 0.00530 0.00050 0.01296 0.99990
1559195978.0136347 -40.57158 -197.02675 -18.52512 0.00566 -0.00095 0.01505 0.99987
1559195978.2137039 -42.43999 -197.05278 -18.50845 0.00753 -0.00148 0.01354 0.99988
1559195978.4135942 -44.29902 -196.97706 -18.51460 0.00875 -0.00104 0.01424 0.99986
1559195978.6135204 -46.16524 -196.93145 -18.51701 0.01083 -0.00160 0.01514 0.99983
1559195978.8136525 -48.03971 -196.87632 -18.52805 0.01341 -0.00259 0.01384 0.99981
1559195979.013556 -49.90887 -196.83753 -18.54033 0.01684 -0.00411 0.01309 0.99976
1559195979.2135932 -51.74954 -196.70649 -18.55858 0.02043 -0.00207 0.01827 0.99962
1559195979.414599 -53.57016 -196.60199 -18.56990 0.02431 0.00027 0.01802 0.99954
1559195979.613689 -55.34878 -196.44885 -18.58543 0.02819 -0.00242 0.01502 0.99949
1559195979.813765 -57.13661 -196.38989 -18.57912 0.03327 -0.00298 0.01183 0.99937
1559195980.0138214 -58.86864 -196.20122 -18.59552 0.03753 -0.00208 0.01265 0.99921
1559195980.2135866 -60.59001 -196.02683 -18.61058 0.04170 -0.00223 0.01245 0.99905
1559195980.413649 -62.29497 -195.84387 -18.61931 0.04613 -0.00236 0.01429 0.99883
1559195980.613665 -63.97594 -195.64897 -18.63008 0.05032 -0.00232 0.01571 0.99861
1559195980.8137174 -65.63297 -195.45042 -18.64180 0.05402 -0.00159 0.01587 0.99841
1559195981.0136163 -67.28274 -195.24608 -18.65626 0.05632 -0.00203 0.01816 0.99825
1559195981.2152011 -68.91050 -195.03449 -18.66668 0.05769 -0.00221 0.01863 0.99816
1559195981.41355 -70.48647 -194.83240 -18.68102 0.05808 -0.00079 0.01875 0.99814
1559195981.6136267 -72.04719 -194.59195 -18.68728 0.05675 -0.00095 0.01960 0.99820
1559195981.8136384 -73.58513 -194.41641 -18.67708 0.05539 -0.00130 0.01787 0.99830
1559195982.0135815 -75.07964 -194.22649 -18.67250 0.05323 -0.00260 0.01723 0.99843
1559195982.2135916 -76.53487 -194.06189 -18.66193 0.05101 -0.00473 0.01683 0.99855
1559195982.4136295 -77.95270 -193.91584 -18.64927 0.04846 -0.00421 0.01538 0.99870
1559195982.6136026 -79.35033 -193.77607 -18.64909 0.04577 -0.00275 0.01552 0.99883
1559195982.8136635 -80.71582 -193.65253 -18.64062 0.04308 -0.00155 0.01519 0.99895
1559195983.0137024 -82.08683 -193.54021 -18.62932 0.03999 -0.00104 0.01463 0.99909
1559195983.213695 -83.43942 -193.42452 -18.62400 0.03699 -0.00122 0.01560 0.99919
1559195983.4135795 -84.77097 -193.31797 -18.61944 0.03399 -0.00167 0.01546 0.99930
1559195983.6137075 -86.07139 -193.22170 -18.61711 0.03106 -0.00170 0.01519 0.99940
1559195983.8137765 -87.35015 -193.14584 -18.61715 0.02829 -0.00135 0.01540 0.99948
1559195984.013651 -88.60877 -193.07831 -18.61563 0.02624 -0.00103 0.01632 0.99952
1559195984.213573 -89.82776 -193.02371 -18.61842 0.02496 -0.00034 0.01464 0.99958
1559195984.416441 -91.01706 -192.96291 -18.62064 0.02458 -0.00006 0.01423 0.99960
1559195984.6136343 -92.13735 -192.89980 -18.61741 0.02462 0.00075 0.01550 0.99958
1559195984.8150883 -93.24863 -192.83582 -18.61320 0.02557 0.00024 0.01599 0.99955
1559195985.013686 -94.29817 -192.77848 -18.61622 0.02793 -0.00189 0.01397 0.99951
1559195985.2135108 -95.30127 -192.71653 -18.61119 0.03193 -0.00310 0.01243 0.99941
1559195985.413546 -96.24662 -192.63575 -18.61884 0.03802 -0.00193 0.01217 0.99920
1559195985.6136699 -97.15248 -192.53241 -18.62555 0.04691 -0.00040 0.01127 0.99884
1559195985.8137245 -97.97843 -192.41484 -18.62994 0.05772 0.00011 0.01087 0.99827
1559195986.0136416 -98.73108 -192.26463 -18.62174 0.06943 -0.00085 0.01213 0.99751
1559195986.2136087 -99.46769 -192.12663 -18.61890 0.08192 -0.00065 0.00855 0.99660
1559195986.4136875 -100.14886 -191.94697 -18.60368 0.09513 -0.00051 0.00942 0.99542
1559195986.6164572 -100.79377 -191.73942 -18.59830 0.10953 -0.00057 0.01075 0.99393
1559195986.813748 -101.33394 -191.52997 -18.60191 0.12593 0.00225 0.01114 0.99197
1559195987.0136297 -101.82360 -191.31082 -18.59771 0.14264 0.00297 0.00649 0.98975
1559195987.213642 -102.31819 -191.06612 -18.59185 0.16043 0.00279 0.00609 0.98703
1559195987.4137504 -102.74289 -190.79737 -18.59047 0.17925 0.00321 0.00685 0.98378
1559195987.6137335 -103.09847 -190.52022 -18.58801 0.19872 0.00373 0.00622 0.98003
1559195987.8135948 -103.45587 -190.23940 -18.58375 0.21943 0.00357 0.00716 0.97559
1559195988.0136206 -103.76846 -189.94630 -18.58239 0.24081 0.00267 0.00672 0.97054
1559195988.2135653 -104.12042 -189.62907 -18.57799 0.26374 0.00295 0.00770 0.96456
1559195988.4147758 -104.39765 -189.31576 -18.57387 0.28808 0.00401 0.00738 0.95757
1559195988.6136334 -104.65218 -188.97393 -18.57412 0.31301 0.00278 0.00627 0.94972
1559195988.8137221 -104.86914 -188.62412 -18.57661 0.33930 0.00453 0.00578 0.94065
1559195989.013875 -105.06288 -188.25740 -18.58588 0.36776 0.00696 0.00502 0.92988
1559195989.2136045 -105.27903 -187.83826 -18.58357 0.39685 0.00657 0.00526 0.91785
1559195989.4137542 -105.49119 -187.37856 -18.58723 0.42700 0.00761 0.00442 0.90421
1559195989.6137195 -105.71410 -186.89790 -18.59277 0.45763 0.00642 0.00086 0.88912
1559195989.813659 -105.93385 -186.35438 -18.59309 0.48800 0.00618 0.00366 0.87281
1559195990.0135367 -106.12431 -185.78970 -18.59672 0.51967 0.00889 0.00395 0.85431
1559195990.2151663 -106.36322 -185.16930 -18.60825 0.55106 0.00691 -0.00143 0.83444
1559195990.4136987 -106.47406 -184.54356 -18.60652 0.58082 0.00693 0.00148 0.81400
1559195990.6135561 -106.59039 -183.86214 -18.60909 0.60943 0.00878 0.00294 0.79279
1559195990.8135781 -106.62386 -183.16580 -18.60768 0.63331 0.00721 0.00100 0.77386
1559195991.0141182 -106.68183 -182.40161 -18.59884 0.65272 0.00574 0.00112 0.75758
1559195991.21372 -106.70921 -181.61171 -18.59845 0.66747 0.00925 0.00311 0.74457
1559195991.4136622 -106.71517 -180.79509 -18.59407 0.67812 0.01042 0.00077 0.73487
1559195991.6136818 -106.70621 -179.94776 -18.58816 0.68582 0.00928 -0.00318 0.72770
1559195991.8136008 -106.68066 -179.04518 -18.57246 0.69095 0.01067 -0.00151 0.72283
1559195992.0141523 -106.65878 -178.11026 -18.55879 0.69633 0.00992 -0.00012 0.71766
1559195992.2135804 -106.63536 -177.16389 -18.55170 0.70186 0.00785 -0.00223 0.71227
1559195992.4136012 -106.60937 -176.18165 -18.53895 0.70735 0.00839 -0.00103 0.70681
1559195992.6141794 -106.53158 -175.19003 -18.52874 0.71207 0.00956 -0.00102 0.70204
1559195992.813766 -106.48250 -174.17155 -18.52246 0.71534 0.00929 -0.00089 0.69872
1559195993.013588 -106.42099 -173.13724 -18.52005 0.71700 0.01045 -0.00075 0.69699
1559195993.2135415 -106.36469 -172.08840 -18.51785 0.71755 0.01026 -0.00160 0.69643
1559195993.4136927 -106.31715 -171.01936 -18.50933 0.71805 0.00880 -0.00244 0.69594
1559195993.6136718 -106.24786 -169.93285 -18.49128 0.71823 0.00806 -0.00084 0.69576
1559195993.8143375 -106.18807 -168.81553 -18.47614 0.71799 0.00742 -0.00083 0.69601
1559195994.013611 -106.13485 -167.66479 -18.46466 0.71754 0.00748 -0.00195 0.69647
1559195994.213749 -106.08655 -166.44932 -18.45640 0.71695 0.00741 -0.00234 0.69708
1559195994.4138627 -106.04270 -165.18951 -18.44176 0.71644 0.00709 -0.00113 0.69761
1559195994.613629 -106.00678 -163.90396 -18.43241 0.71554 0.00700 -0.00031 0.69853
1559195994.8136582 -105.98135 -162.58914 -18.43301 0.71449 0.00805 -0.00039 0.69960
1559195995.01359 -105.96095 -161.25201 -18.43012 0.71331 0.00961 -0.00169 0.70078
1559195995.2136352 -105.95358 -159.93094 -18.41969 0.71238 0.01012 -0.00186 0.70172
1559195995.4138165 -105.94208 -158.53609 -18.40196 0.71223 0.00946 -0.00161 0.70188
1559195995.613806 -105.92996 -157.13548 -18.39199 0.71223 0.00955 -0.00116 0.70188
1559195995.8138452 -105.92352 -155.71495 -18.39016 0.71227 0.00932 0.00006 0.70184
1559195996.013649 -105.90468 -154.26236 -18.37887 0.71198 0.00866 0.00093 0.70214
1559195996.2135484 -105.89290 -152.78255 -18.36970 0.71058 0.01032 0.00096 0.70354
1559195996.4136617 -105.88385 -151.27009 -18.36369 0.70835 0.01245 0.00163 0.70575
1559195996.613772 -105.88907 -149.72978 -18.35033 0.70546 0.00970 0.00214 0.70868
1559195996.8137176 -105.88444 -148.17350 -18.33261 0.70185 0.01031 0.00261 0.71224
1559195997.0135686 -105.90548 -146.61571 -18.33072 0.69766 0.01132 0.00107 0.71634
1559195997.2136838 -105.93887 -145.02120 -18.31175 0.69328 0.00901 0.00195 0.72061
1559195997.4147823 -105.99999 -143.41181 -18.29906 0.68886 0.00866 0.00278 0.72484
1559195997.613807 -106.08680 -141.79730 -18.29922 0.68440 0.01071 0.00152 0.72902
1559195997.8136892 -106.19962 -140.15014 -18.29721 0.67999 0.01261 0.00110 0.73311
1559195998.0137181 -106.33740 -138.47025 -18.28224 0.67612 0.01255 0.00146 0.73668
1559195998.213833 -106.49187 -136.76989 -18.26566 0.67323 0.01373 0.00125 0.73931
1559195998.4140067 -106.65516 -135.05697 -18.24948 0.67146 0.01358 0.00172 0.74092
1559195998.6138527 -106.83670 -133.33415 -18.22728 0.67073 0.01181 0.00259 0.74160
1559195998.8137052 -107.02360 -131.60541 -18.21188 0.67033 0.01121 0.00299 0.74198
1559195999.0135875 -107.20719 -129.85133 -18.20115 0.67023 0.00980 0.00263 0.74208
1559195999.2137616 -107.39399 -128.11826 -18.17866 0.67068 0.00983 0.00268 0.74168
1559195999.4137373 -107.56244 -126.32055 -18.16644 0.67223 0.00843 0.00076 0.74029
1559195999.6136708 -107.70147 -124.51286 -18.15139 0.67479 0.00746 0.00047 0.73798
1559195999.8135962 -107.84082 -122.74413 -18.14302 0.67807 0.00907 0.00482 0.73493
1559196000.013719 -107.95969 -120.96402 -18.13543 0.68160 0.00999 0.00476 0.73165
1559196000.2164752 -108.06628 -119.17720 -18.13238 0.68432 0.01499 0.00193 0.72903
1559196000.4137533 -108.13420 -117.41385 -18.10159 0.68743 0.01523 0.00223 0.72609
1559196000.6137617 -108.20154 -115.62411 -18.07063 0.69067 0.01327 0.00863 0.72299
1559196000.8143063 -108.24610 -113.83662 -18.05453 0.69337 0.01010 0.00748 0.72048
1559196001.0136445 -108.28880 -112.07378 -18.05503 0.69592 0.01090 0.00199 0.71803
1559196001.2138987 -108.30718 -110.28231 -18.03953 0.69855 0.00933 -0.00038 0.71550
1559196001.4138434 -108.29654 -108.48216 -18.01933 0.70062 0.00696 0.00350 0.71349
1559196001.6138146 -108.27930 -106.67088 -18.02348 0.70299 0.00821 0.00773 0.71111
1559196001.8141966 -108.24927 -104.85767 -18.02448 0.70460 0.01057 0.00625 0.70950
1559196002.013822 -108.21688 -103.04197 -18.03071 0.70644 0.01412 0.00500 0.70762
1559196002.2138302 -108.18644 -101.19318 -18.01199 0.70775 0.01232 0.00595 0.70633
1559196002.4139876 -108.18988 -99.32233 -18.01299 0.70908 0.01106 0.00445 0.70502
1559196002.6136749 -108.12540 -97.46421 -18.00092 0.70974 0.01266 0.00419 0.70434
1559196002.8138058 -108.08741 -95.58291 -17.98750 0.71059 0.01076 0.00375 0.70351
1559196003.0139112 -108.04245 -93.68537 -17.97274 0.71136 0.01164 0.00450 0.70272
1559196003.2139373 -107.98730 -91.79580 -17.96506 0.71207 0.01027 0.00451 0.70202
1559196003.4137826 -107.92762 -89.89240 -17.95400 0.71280 0.00795 0.00596 0.70130
1559196003.613767 -107.86883 -87.99857 -17.95205 0.71367 0.00920 0.00558 0.70040
1559196003.813798 -107.80873 -86.09950 -17.95016 0.71438 0.01031 0.00520 0.69966
1559196004.0138848 -107.74049 -84.17824 -17.93909 0.71508 0.01160 0.00590 0.69892
1559196004.2138484 -107.66536 -82.24920 -17.92821 0.71590 0.01299 0.00689 0.69805
1559196004.4139912 -107.58543 -80.32310 -17.91516 0.71672 0.01382 0.00728 0.69719
1559196004.6138532 -107.49883 -78.39036 -17.90107 0.71745 0.01390 0.00682 0.69644
1559196004.8137376 -107.40321 -76.45617 -17.88743 0.71825 0.01401 0.00627 0.69561
1559196005.0138528 -107.30326 -74.52579 -17.87833 0.71913 0.01358 0.00607 0.69472
1559196005.2138698 -107.20602 -72.60475 -17.86878 0.72031 0.01220 0.00406 0.69353
1559196005.4138858 -107.10869 -70.72108 -17.85055 0.72180 0.01069 0.00200 0.69202
1559196005.6139266 -106.99733 -68.87980 -17.82727 0.72351 0.00862 0.00270 0.69026
1559196005.813825 -106.87368 -67.07933 -17.80565 0.72546 0.00840 0.00489 0.68820
1559196006.0138812 -106.74156 -65.28608 -17.79604 0.72738 0.00885 0.00538 0.68616
1559196006.2135987 -106.60046 -63.47495 -17.79070 0.72958 0.00867 0.00469 0.68383
1559196006.4137273 -106.45806 -61.67330 -17.77619 0.73170 0.00916 0.00471 0.68155
1559196006.6139145 -106.29686 -59.85677 -17.76578 0.73393 0.01086 0.00451 0.67912
1559196006.8137503 -106.12328 -58.02610 -17.75773 0.73613 0.01129 0.00606 0.67671
1559196007.0138657 -105.95016 -56.17532 -17.75262 0.73814 0.01213 0.00675 0.67450
1559196007.2138298 -105.75365 -54.32782 -17.74503 0.74012 0.01200 0.00764 0.67232
1559196007.4139078 -105.54869 -52.46398 -17.74120 0.74213 0.01273 0.00793 0.67009
1559196007.6136792 -105.31981 -50.60047 -17.73345 0.74382 0.01372 0.00849 0.66819
1559196007.8136322 -105.08881 -48.71304 -17.71838 0.74524 0.01296 0.00885 0.66661
1559196008.013696 -104.84350 -46.80055 -17.71758 0.74666 0.01361 0.00818 0.66502
1559196008.2136905 -104.58362 -44.86968 -17.71100 0.74774 0.01395 0.00653 0.66381
1559196008.4138093 -104.31350 -42.93332 -17.70697 0.74839 0.01481 0.00669 0.66306
1559196008.6140883 -104.05449 -41.02263 -17.70370 0.74868 0.01432 0.00624 0.66275
1559196008.8137555 -103.79133 -39.10165 -17.69657 0.74894 0.01549 0.00547 0.66244
1559196009.0137823 -103.52887 -37.14755 -17.68522 0.74911 0.01597 0.00469 0.66224
1559196009.2138863 -103.27001 -35.18085 -17.66716 0.74919 0.01408 0.00385 0.66219
1559196009.4137752 -103.00959 -33.29816 -17.65700 0.74881 0.01281 0.00450 0.66265
1559196009.613845 -102.76052 -31.45354 -17.64401 0.74828 0.01275 0.00488 0.66325
1559196009.8136635 -102.51243 -29.60961 -17.63696 0.74761 0.01381 0.00567 0.66397
1559196010.0137398 -102.29530 -27.77039 -17.63192 0.74664 0.01337 0.00664 0.66506
1559196010.2138343 -102.09042 -25.94366 -17.62961 0.74574 0.01424 0.00630 0.66606
1559196010.413795 -101.92744 -24.16781 -17.63344 0.74533 0.01442 0.00587 0.66651
1559196010.613734 -101.74473 -22.38523 -17.62668 0.74455 0.01299 0.00655 0.66740
1559196010.8154233 -101.56278 -20.61898 -17.62554 0.74390 0.01240 0.00768 0.66813
1559196011.013954 -101.38568 -18.92155 -17.61413 0.74350 0.01050 0.00832 0.66860
1559196011.213854 -101.17781 -17.26420 -17.61551 0.74339 0.01049 0.00857 0.66872
1559196011.4138715 -100.99623 -15.65606 -17.61751 0.74416 0.01124 0.00869 0.66785
1559196011.6136768 -100.80518 -14.07846 -17.61388 0.74529 0.01212 0.00776 0.66659
1559196011.81404 -100.60286 -12.50883 -17.60207 0.74757 0.01247 0.00604 0.66404
1559196012.0140402 -100.40952 -10.98824 -17.60685 0.75151 0.01046 0.00591 0.65961
1559196012.2139266 -100.19168 -9.51858 -17.61353 0.75740 0.00941 0.00858 0.65283
1559196012.4138408 -99.93623 -8.08778 -17.62275 0.76561 0.01026 0.01023 0.64314
1559196012.6138382 -99.62510 -6.71790 -17.61524 0.77512 0.01243 0.01168 0.63158
1559196012.8138816 -99.26633 -5.32041 -17.61137 0.78687 0.01358 0.01243 0.61684
1559196013.013761 -98.89374 -4.07877 -17.61586 0.80053 0.01717 0.01140 0.59894
1559196013.2138407 -98.48114 -3.01655 -17.61343 0.81551 0.01884 0.00846 0.57837
1559196013.4137623 -98.01736 -2.09317 -17.59404 0.83097 0.01656 0.00972 0.55599
1559196013.6140568 -97.48503 -1.27173 -17.57663 0.84663 0.01457 0.01043 0.53188
1559196013.813824 -96.90950 -0.41545 -17.57986 0.86258 0.01577 0.00349 0.50567
1559196014.0139194 -96.28456 0.19144 -17.58539 0.87777 0.01801 -0.00072 0.47874
1559196014.2139747 -95.55975 0.93495 -17.56468 0.89188 0.01760 0.00331 0.45192
1559196014.4140606 -94.74520 1.84122 -17.54457 0.90540 0.01846 0.00441 0.42413
1559196014.6139007 -93.90281 2.64790 -17.54194 0.91829 0.02161 0.00058 0.39533
1559196014.8137898 -92.96230 3.44733 -17.54396 0.93013 0.02447 0.00217 0.36642
1559196015.0139952 -92.00754 4.13389 -17.54106 0.94142 0.02132 0.00533 0.33651
1559196015.2142184 -90.95710 4.87749 -17.53501 0.95178 0.01905 0.00736 0.30611
1559196015.4140754 -89.87680 5.48885 -17.55268 0.96131 0.01990 0.00670 0.27468
1559196015.6140141 -88.70737 6.10240 -17.57374 0.96978 0.02061 0.00700 0.24303
1559196015.8138683 -87.49114 6.63431 -17.59014 0.97736 0.01727 0.00958 0.21068
1559196016.0138364 -86.23241 7.07688 -17.59885 0.98374 0.01698 0.01249 0.17837
1559196016.2139773 -84.92821 7.45565 -17.63554 0.98910 0.01712 0.00800 0.14606
1559196016.414161 -83.57858 7.73957 -17.65588 0.99309 0.01635 0.00393 0.11610
1559196016.6142871 -82.20693 7.92830 -17.65480 0.99617 0.01373 0.00443 0.08627
1559196016.8140724 -80.82245 8.01281 -17.66421 0.99837 0.01093 0.00177 0.05606
1559196017.014254 -79.39627 8.04351 -17.67298 0.99965 0.00789 0.00086 0.02520
1559196017.214205 -77.95808 7.94336 -17.67138 0.99995 0.00877 0.00424 -0.00087
1559196017.4141111 -76.45958 7.82768 -17.69086 0.99973 0.00934 0.00609 -0.02014
1559196017.6142561 -74.91796 7.70422 -17.72921 0.99939 0.00563 0.00655 -0.03390
1559196017.814092 -73.38841 7.52067 -17.75876 0.99904 0.00514 0.00660 -0.04297
1559196018.0141528 -71.84167 7.32055 -17.79351 0.99875 0.00547 0.00659 -0.04921
1559196018.2142336 -70.28048 7.13341 -17.82874 0.99852 0.00456 0.00691 -0.05374
1559196018.4139898 -68.73169 6.93272 -17.85258 0.99841 0.00663 0.00769 -0.05549
1559196018.6141639 -67.16626 6.71102 -17.89191 0.99842 0.00612 0.00841 -0.05520
1559196018.8150632 -65.60169 6.49776 -17.93310 0.99854 0.00567 0.00877 -0.05309
1559196019.0143163 -64.04919 6.33460 -17.97637 0.99873 0.00855 0.00887 -0.04885
1559196019.2141397 -62.50114 6.13947 -18.01936 0.99898 0.00919 0.00852 -0.04341
1559196019.4140985 -60.95976 5.98371 -18.04156 0.99922 0.00875 0.00797 -0.03763
1559196019.6140342 -59.41552 5.83903 -18.06905 0.99942 0.00951 0.00698 -0.03194
1559196019.8142028 -57.86055 5.74958 -18.07228 0.99957 0.01047 0.00610 -0.02674
1559196020.0140903 -56.31443 5.67547 -18.06558 0.99968 0.01011 0.00842 -0.02168
1559196020.2140598 -54.70034 5.68516 -18.08043 0.99974 0.01139 0.00899 -0.01785
1559196020.4140975 -52.96238 5.68732 -18.12676 0.99981 0.00954 0.00697 -0.01563
1559196020.6139004 -51.19005 5.66664 -18.16205 0.99978 0.01272 0.00675 -0.01522
1559196020.8141387 -49.36915 5.65065 -18.20180 0.99979 0.01212 0.00654 -0.01544
1559196021.0141668 -47.49838 5.61514 -18.23939 0.99980 0.01037 0.00654 -0.01603
1559196021.2141695 -45.57536 5.55261 -18.27683 0.99978 0.01016 0.00878 -0.01617
1559196021.414247 -43.63622 5.47138 -18.32276 0.99976 0.01094 0.00956 -0.01666
1559196021.6142826 -41.67305 5.39023 -18.37472 0.99976 0.01352 0.00593 -0.01642
1559196021.814298 -39.70448 5.33504 -18.41184 0.99971 0.01770 0.00621 -0.01523
1559196022.014176 -37.71342 5.21149 -18.44047 0.99969 0.02089 0.00847 -0.01079
1559196022.2142358 -35.74898 5.15228 -18.48409 0.99976 0.02034 0.00350 -0.00718
1559196022.4142056 -33.78920 5.15071 -18.50555 0.99975 0.02117 0.00558 -0.00439
1559196022.614196 -31.84735 5.16547 -18.52982 0.99974 0.02239 0.00332 -0.00190
1559196022.8142529 -29.84704 5.07263 -18.55190 0.99972 0.02368 0.00228 0.00130
1559196023.0142195 -27.85717 5.08563 -18.56973 0.99981 0.01780 0.00723 0.00387
1559196023.2145321 -25.87364 5.08688 -18.60300 0.99976 0.01972 0.00764 0.00566
1559196023.414292 -23.88322 5.10398 -18.65405 0.99984 0.01680 0.00253 0.00623
1559196023.6141639 -21.86512 5.11652 -18.67614 0.99986 0.01503 0.00600 0.00504
1559196023.8140826 -19.84959 5.12010 -18.71434 0.99985 0.01349 0.01081 0.00234
1559196024.0142593 -17.85298 5.10230 -18.78116 0.99985 0.01459 0.00920 -0.00063
1559196024.214288 -15.86047 5.07977 -18.84780 0.99984 0.01529 0.00873 -0.00360
1559196024.4143267 -13.85557 5.05327 -18.89198 0.99987 0.01246 0.00872 -0.00621
1559196024.6143472 -11.84440 4.99353 -18.93879 0.99989 0.01070 0.00614 -0.00782
1559196024.814293 -9.81276 4.98648 -18.97923 0.99989 0.01140 0.00541 -0.00816
1559196025.0143404 -7.78740 4.89164 -19.00696 0.99987 0.01271 0.00642 -0.00695
1559196025.214279 -5.72752 4.85531 -19.04516 0.99984 0.01645 0.00475 -0.00577
1559196025.4142022 -3.65398 4.84707 -19.07896 0.99984 0.01663 0.00658 -0.00283
1559196025.614218 -1.60738 4.75963 -19.08965 0.99985 0.01517 0.00779 0.00251
1559196025.8144166 0.48874 4.76068 -19.12587 0.99986 0.01191 0.00878 0.00825
1559196026.0143664 2.60273 4.78634 -19.16915 0.99983 0.01204 0.00565 0.01293
1559196026.2145653 4.74311 4.86579 -19.21713 0.99975 0.01369 0.00314 0.01742
1559196026.4142587 6.84849 5.03792 -19.25301 0.99968 0.01173 0.00742 0.02121
1559196026.6142888 9.07207 5.02927 -19.27082 0.99953 0.01226 0.00988 0.02634
1559196026.8143923 11.25114 5.09975 -19.33150 0.99943 0.01268 0.00728 0.03037
1559196027.014218 13.44617 5.22389 -19.36519 0.99931 0.01010 0.01100 0.03396
1559196027.2143464 15.54903 5.50560 -19.39895 0.99932 0.00918 0.00669 0.03494
1559196027.414176 17.74740 5.65894 -19.42971 0.99924 0.00691 0.00821 0.03747
1559196027.614194 20.06346 5.69436 -19.49405 0.99913 0.01102 0.00633 0.03980
1559196027.8141978 22.34396 5.81843 -19.53882 0.99910 0.01064 0.00476 0.04070
1559196028.014169 24.55678 6.08632 -19.58148 0.99919 0.00614 0.00701 0.03908
1559196028.2143512 26.84645 6.23343 -19.57235 0.99924 0.00745 0.00842 0.03738
1559196028.4143667 29.15212 6.28794 -19.63455 0.99927 0.01340 0.00409 0.03558
1559196028.614277 31.44806 6.40829 -19.66347 0.99930 0.01781 0.00027 0.03275
1559196028.814571 33.76348 6.57643 -19.67973 0.99945 0.01573 -0.00192 0.02902
1559196029.014941 36.08712 6.61701 -19.66427 0.99954 0.01274 -0.00320 0.02736
1559196029.214335 38.40936 6.70788 -19.65284 0.99962 0.01139 0.00356 0.02482
1559196029.414356 40.73217 6.79070 -19.67776 0.99967 0.01114 0.00384 0.02272
1559196029.6159792 43.07216 6.84897 -19.70773 0.99965 0.01373 0.00296 0.02253
1559196029.8144455 45.37499 6.93035 -19.72239 0.99965 0.01251 0.00456 0.02281
1559196030.0143018 47.68136 6.98310 -19.74816 0.99963 0.01174 0.00532 0.02386
1559196030.2142878 50.01031 7.11902 -19.78723 0.99965 0.01060 0.00424 0.02401
1559196030.414285 52.34030 7.21752 -19.81198 0.99967 0.00833 0.00572 0.02365
1559196030.6142974 54.66105 7.27828 -19.83072 0.99971 0.00649 0.00758 0.02189
1559196030.814172 56.97603 7.34804 -19.87017 0.99975 0.00629 0.00775 0.01988
1559196031.014572 59.30155 7.42066 -19.91199 0.99978 0.00546 0.00609 0.01909
1559196031.2141743 61.63381 7.47183 -19.94055 0.99981 0.00290 0.00505 0.01867
1559196031.416882 64.01298 7.51543 -19.96467 0.99975 0.00777 0.01009 0.01848
1559196031.6143079 66.29616 7.50347 -20.01812 0.99973 0.01275 -0.00108 0.01951
1559196031.8141274 68.62868 7.60115 -20.02315 0.99966 0.01429 -0.00484 0.02117
1559196032.0142858 71.01170 7.68871 -19.99528 0.99955 0.01691 0.00723 0.02386
1559196032.2146175 73.39777 7.77158 -20.03845 0.99949 0.01632 0.00951 0.02562
1559196032.414206 75.76825 7.88248 -20.09993 0.99955 0.01417 0.00255 0.02646
1559196032.6142693 78.17122 7.92610 -20.11098 0.99949 0.01475 0.00009 0.02831
1559196032.8142831 80.55967 8.12400 -20.11447 0.99951 0.01109 0.00285 0.02908
1559196033.0143704 82.95051 8.23739 -20.12622 0.99950 0.01176 0.00182 0.02915
1559196033.214983 85.36415 8.29307 -20.13019 0.99940 0.01371 0.00537 0.03149
1559196033.4141355 87.66171 8.47977 -20.17534 0.99929 0.01529 0.00839 0.03335
1559196033.614259 90.03208 8.64232 -20.22917 0.99925 0.01291 0.00608 0.03589
1559196033.8143494 92.33392 8.79218 -20.26620 0.99916 0.01390 0.00513 0.03825
1559196034.0143347 94.70412 8.95982 -20.29526 0.99909 0.01295 0.00550 0.04028
1559196034.2142522 97.05428 9.13344 -20.31582 0.99909 0.01173 0.00373 0.04087
1559196034.4143462 99.40626 9.29830 -20.33315 0.99905 0.01277 0.00379 0.04139
1559196034.6142755 101.75613 9.46926 -20.35195 0.99903 0.01292 0.00599 0.04178
1559196034.814258 104.11613 9.59200 -20.37476 0.99899 0.01297 0.00541 0.04263
1559196035.014277 106.44559 9.77424 -20.40363 0.99895 0.01392 0.00391 0.04356
1559196035.2141833 108.66232 10.00585 -20.42380 0.99892 0.01364 0.00277 0.04426
1559196035.4142277 110.97792 10.20846 -20.42540 0.99885 0.01377 0.00352 0.04571
1559196035.614254 113.19411 10.41126 -20.45334 0.99872 0.01429 0.00480 0.04838
1559196035.8143382 115.49170 10.63304 -20.47668 0.99858 0.01459 0.00643 0.05083
1559196036.0143209 117.68671 10.83978 -20.50730 0.99845 0.01436 0.00645 0.05336
1559196036.2142534 119.99587 11.01852 -20.58126 0.99829 0.01546 0.00580 0.05613
1559196036.4143572 122.21426 11.37059 -20.55877 0.99818 0.01463 0.00764 0.05798
1559196036.6141994 124.44326 11.67553 -20.56953 0.99804 0.01385 0.00930 0.06036
1559196036.814179 126.77359 11.56191 -20.74397 0.99766 0.01765 0.00752 0.06557
1559196037.0143638 128.90633 11.98931 -20.68010 0.99760 0.01589 0.00467 0.06722
1559196037.2145762 131.04933 12.41057 -20.64262 0.99745 0.01483 0.00371 0.06975
1559196037.4144871 133.22658 12.66437 -20.65403 0.99719 0.01466 0.00442 0.07327
1559196037.6143026 135.37449 13.03610 -20.67160 0.99699 0.01416 0.00726 0.07594
1559196037.8145292 137.48456 13.47723 -20.69236 0.99686 0.01283 0.00764 0.07778
1559196038.0142982 139.51933 14.01238 -20.71062 0.99682 0.01059 0.00494 0.07878
1559196038.2146397 141.77517 14.06984 -20.70061 0.99641 0.01390 0.00347 0.08339
1559196038.4143686 143.85290 14.48176 -20.74831 0.99639 0.01273 0.00497 0.08382
1559196038.6154726 146.01460 14.76542 -20.76223 0.99620 0.01384 0.00630 0.08581
1559196038.8144014 148.03859 15.29537 -20.80283 0.99614 0.01192 0.00461 0.08684
1559196039.0145307 150.25291 15.48924 -20.78160 0.99568 0.01458 0.00452 0.09157
1559196039.2145624 152.39925 15.88081 -20.82331 0.99531 0.01502 0.00612 0.09538
1559196039.414431 154.54375 16.29051 -20.86734 0.99487 0.01661 0.00502 0.09963
1559196039.6146312 156.65608 16.79629 -20.88372 0.99444 0.01509 0.00207 0.10422
1559196039.8144224 158.68540 17.39609 -20.89834 0.99401 0.01292 0.00209 0.10852
1559196040.014231 160.85266 17.80525 -20.90495 0.99330 0.01302 0.00660 0.11461
1559196040.2144713 162.83037 18.54017 -20.95947 0.99287 0.01035 0.00146 0.11875
1559196040.4142308 165.10531 18.85685 -20.89718 0.99200 0.01131 0.00082 0.12576
1559196040.614428 167.02437 19.64310 -20.97583 0.99154 0.01309 0.00573 0.12900
1559196040.8146758 169.18896 20.22656 -21.01546 0.99094 0.01198 0.00996 0.13340
1559196041.0144534 171.53855 20.58755 -20.99573 0.99077 0.01542 0.00975 0.13433
1559196041.214385 173.74175 21.07887 -21.02433 0.99073 0.01581 0.00579 0.13480
1559196041.4146378 175.55308 22.02642 -21.05667 0.99102 0.01016 0.00530 0.13322
1559196041.614676 178.09911 22.25032 -21.10240 0.99096 0.00712 0.00614 0.13385
1559196041.8144462 180.23115 22.92341 -21.12017 0.99148 0.00949 0.00450 0.12987
1559196042.0143104 182.50671 23.37664 -21.14507 0.99151 0.01586 0.00197 0.12906
1559196042.2183444 184.80619 23.90462 -21.17914 0.99130 0.01599 0.00509 0.13057
1559196042.4145133 186.99218 24.40502 -21.22068 0.99095 0.01389 0.00856 0.13321
1559196042.6146433 189.21191 24.91809 -21.22724 0.99052 0.01425 0.00497 0.13654
1559196042.8145714 191.36559 25.73510 -21.27643 0.99029 0.01208 0.00348 0.13844
1559196043.0144467 193.59167 26.23742 -21.23663 0.98954 0.01374 0.00581 0.14348
1559196043.214465 195.77354 26.80300 -21.26469 0.98885 0.01467 0.00525 0.14812
1559196043.4144046 197.90280 27.43763 -21.27128 0.98818 0.01560 0.00607 0.15241
1559196043.6143472 199.97794 28.19387 -21.28661 0.98766 0.01152 0.00675 0.15605
1559196043.8144822 202.09788 28.78633 -21.30070 0.98676 0.00925 0.00421 0.16185
1559196044.015462 204.16419 29.50221 -21.35226 0.98608 0.00724 0.00060 0.16610
1559196044.2145774 206.25889 30.18465 -21.30733 0.98521 0.00945 0.00805 0.17088
1559196044.414491 208.31333 30.97643 -21.36304 0.98462 0.01363 0.00745 0.17404
1559196044.6145911 210.38738 31.70671 -21.36233 0.98409 0.01646 0.00501 0.17682
1559196044.8147368 212.50059 32.36034 -21.37705 0.98347 0.01857 0.00503 0.18004
1559196045.014806 214.56294 33.12065 -21.38043 0.98303 0.01939 0.00516 0.18236
1559196045.214618 216.55140 33.99235 -21.41071 0.98273 0.01790 0.00420 0.18413
1559196045.4147644 218.60194 34.74686 -21.39800 0.98226 0.01861 0.00413 0.18654
1559196045.6145196 220.64105 35.48342 -21.40674 0.98187 0.01851 0.00276 0.18865
1559196045.8167515 222.65658 36.30315 -21.38710 0.98170 0.01648 -0.00048 0.18973
1559196046.0144448 224.58815 37.17403 -21.37138 0.98189 0.01343 -0.00125 0.18899
1559196046.2143478 226.65490 37.88255 -21.35224 0.98181 0.01267 0.00133 0.18943
1559196046.4143474 228.67037 38.67065 -21.37652 0.98207 0.01315 -0.00002 0.18807
1559196046.6145284 230.69884 39.44734 -21.34310 0.98228 0.01301 0.00364 0.18695
1559196046.8144119 232.71244 40.21436 -21.35078 0.98246 0.01204 0.00544 0.18602
1559196047.0144694 234.74276 40.93905 -21.36837 0.98260 0.01306 0.00339 0.18524
1559196047.2143688 236.77278 41.68814 -21.38925 0.98274 0.01233 0.00385 0.18456
1559196047.4144769 238.76994 42.48479 -21.39569 0.98297 0.01132 -0.00034 0.18340
1559196047.6144006 240.76426 43.22586 -21.39187 0.98306 0.01334 -0.00289 0.18278
1559196047.814494 242.76650 43.93260 -21.34989 0.98308 0.01365 0.00109 0.18264
1559196048.0144813 244.75150 44.65149 -21.34653 0.98328 0.01242 0.00249 0.18167
1559196048.2144117 246.73519 45.38089 -21.35856 0.98356 0.01176 0.00252 0.18020
1559196048.4144247 248.70658 46.12292 -21.38941 0.98385 0.01216 0.00220 0.17856
1559196048.6145732 250.68344 46.80893 -21.37345 0.98402 0.01294 0.00195 0.17760
1559196048.81454 252.64518 47.51007 -21.37904 0.98420 0.01499 0.00030 0.17644
1559196049.0143812 254.61325 48.21959 -21.37516 0.98436 0.01591 0.00152 0.17546
1559196049.2143755 256.57553 48.92069 -21.38122 0.98443 0.01590 0.00271 0.17502
1559196049.4144769 258.52670 49.63514 -21.37720 0.98453 0.01435 0.00127 0.17462
1559196049.61446 260.49259 50.31096 -21.38651 0.98455 0.01462 0.00142 0.17447
1559196049.8145275 262.47076 51.00454 -21.37861 0.98452 0.01645 0.00485 0.17444
1559196050.0143738 264.44715 51.72785 -21.40362 0.98446 0.01614 -0.00043 0.17485
1559196050.2147455 266.43989 52.43064 -21.38798 0.98432 0.01631 -0.00179 0.17561
1559196050.4144666 268.43526 53.14471 -21.36123 0.98420 0.01548 0.00226 0.17634
1559196050.6144583 270.42350 53.85959 -21.36190 0.98414 0.01347 0.00395 0.17684
1559196050.8144078 272.40217 54.56524 -21.36941 0.98410 0.01423 0.00187 0.17702
1559196051.0144322 274.39084 55.24644 -21.37899 0.98401 0.01404 0.00195 0.17754
1559196051.214425 276.40575 55.88922 -21.38908 0.98385 0.01414 0.00363 0.17842
1559196051.4144895 278.38368 56.62963 -21.38551 0.98390 0.01386 0.00396 0.17812
1559196051.6147165 280.38611 57.30397 -21.41061 0.98378 0.01332 0.00459 0.17885
1559196051.81437 282.41003 57.88112 -21.42824 0.98357 0.01377 0.00399 0.17993
1559196052.0148048 284.41925 58.46429 -21.45725 0.98354 0.01521 0.00442 0.17998
1559196052.2146804 286.43443 59.02871 -21.45923 0.98348 0.01826 0.00349 0.18006
1559196052.4145482 288.29286 60.10350 -21.47619 0.98397 0.01602 0.00082 0.17763
1559196052.6148934 290.37766 60.60260 -21.48543 0.98374 0.01583 0.00350 0.17887
1559196052.8153806 292.37012 61.27695 -21.51128 0.98374 0.01642 0.00380 0.17881
1559196053.014623 294.34029 61.93345 -21.51074 0.98364 0.01771 0.00164 0.17928
1559196053.2146316 296.25987 62.86140 -21.53424 0.98403 0.01913 0.00495 0.17691
