1559195809.0112681 23.69499 -0.40978 -1.54934 0.99955 0.00410 0.02941 -0.00445
1559195809.2113743 25.62083 -0.46414 -1.43939 0.99968 0.00072 0.02483 -0.00434
1559195809.411251 28.14995 -0.49923 -1.55306 0.99957 -0.01003 0.02702 -0.00469
1559195809.6115 30.24146 -0.54316 -1.88490 0.99913 -0.02649 0.03191 -0.00480
1559195809.8113174 32.15808 -0.60109 -2.13329 0.99885 -0.03610 0.03119 -0.00477
1559195810.0114295 34.07462 -0.64381 -2.31274 0.99867 -0.04138 0.03049 -0.00504
1559195810.2112806 35.74464 -0.67966 -2.44350 0.99840 -0.04777 0.02990 -0.00500
1559195810.4113045 36.93219 -0.71742 -2.46689 0.99822 -0.05263 0.02775 -0.00503
1559195810.6113791 36.33276 -0.70667 -2.28022 0.99808 -0.05759 0.02202 -0.00516
1559195810.8114707 30.27198 -0.56452 -1.90567 0.99781 -0.06361 0.01755 -0.00492
1559195811.0114834 30.86226 -0.58114 -1.92152 0.99766 -0.06650 0.01526 -0.00498
1559195811.21137 31.79158 -0.60481 -1.93841 0.99746 -0.06804 0.02025 -0.00535
1559195811.411395 32.80151 -0.62867 -1.96306 0.99740 -0.06683 0.02615 -0.00616
1559195811.6115031 33.81838 -0.65512 -2.01877 0.99748 -0.06583 0.02570 -0.00638
1559195811.8114033 34.88352 -0.68932 -2.08322 0.99760 -0.06433 0.02477 -0.00687
1559195812.0114386 35.98753 -0.72066 -2.13571 0.99765 -0.06261 0.02672 -0.00735
1559195812.2114842 37.11191 -0.75762 -2.19304 0.99763 -0.06241 0.02785 -0.00782
1559195812.4114227 38.27536 -0.80161 -2.26356 0.99775 -0.06085 0.02708 -0.00819
1559195812.6112957 39.49851 -0.85398 -2.33421 0.99786 -0.05885 0.02711 -0.00846
1559195812.8114471 40.74217 -0.90087 -2.40344 0.99789 -0.05828 0.02737 -0.00889
1559195813.0113878 42.00603 -0.95289 -2.47299 0.99796 -0.05737 0.02666 -0.00902
1559195813.2114275 43.29381 -1.00189 -2.54647 0.99796 -0.05739 0.02641 -0.00896
1559195813.4115589 44.61074 -1.04925 -2.61495 0.99797 -0.05712 0.02655 -0.00889
1559195813.6115887 45.95231 -1.08733 -2.68908 0.99791 -0.05849 0.02608 -0.00866
1559195813.8116224 47.31768 -1.12566 -2.76038 0.99783 -0.05967 0.02654 -0.00855
1559195814.0115569 48.70922 -1.16740 -2.83241 0.99789 -0.05753 0.02884 -0.00891
1559195814.2114432 50.11512 -1.20618 -2.91265 0.99773 -0.05963 0.02998 -0.00849
1559195814.4114244 51.54221 -1.25820 -3.00106 0.99791 -0.05698 0.02940 -0.00755
1559195814.6114492 52.98297 -1.29521 -3.09296 0.99805 -0.05504 0.02856 -0.00667
1559195814.8113804 54.45073 -1.33046 -3.18028 0.99810 -0.05523 0.02671 -0.00530
1559195815.0113442 55.91936 -1.36238 -3.26451 0.99810 -0.05580 0.02584 -0.00350
1559195815.2113943 57.38077 -1.38976 -3.34215 0.99803 -0.05567 0.02888 -0.00161
1559195815.4111743 58.85114 -1.40993 -3.42552 0.99752 -0.06172 0.03384 0.00049
1559195815.611275 60.32501 -1.42253 -3.52479 0.99716 -0.06859 0.03108 0.00326
1559195815.811342 61.79547 -1.44308 -3.62509 0.99705 -0.07279 0.02371 0.00588
1559195816.011361 63.28506 -1.44554 -3.69599 0.99661 -0.07813 0.02459 0.00827
1559195816.2115154 64.78056 -1.43399 -3.76154 0.99659 -0.07633 0.02990 0.00983
1559195816.411357 66.26443 -1.42128 -3.84784 0.99678 -0.07259 0.03239 0.01085
1559195816.611324 67.76529 -1.39580 -3.95280 0.99661 -0.07458 0.03274 0.01195
1559195816.8114188 69.28474 -1.38788 -4.05440 0.99673 -0.07350 0.03106 0.01283
1559195817.0113468 70.81103 -1.36413 -4.15430 0.99662 -0.07583 0.02839 0.01372
1559195817.211317 72.33101 -1.33768 -4.24604 0.99655 -0.07720 0.02661 0.01516
1559195817.4114993 73.86027 -1.31642 -4.33106 0.99660 -0.07563 0.02831 0.01636
1559195817.6112783 75.38504 -1.29063 -4.41437 0.99662 -0.07526 0.02749 0.01798
1559195817.8114104 76.92189 -1.25821 -4.50261 0.99665 -0.07528 0.02466 0.02014
1559195818.0115519 78.46032 -1.20528 -4.58096 0.99647 -0.07619 0.02723 0.02258
1559195818.2115982 80.03038 -1.15437 -4.65999 0.99628 -0.07654 0.03105 0.02444
1559195818.4129243 81.58793 -1.08585 -4.76666 0.99630 -0.07514 0.03224 0.02639
1559195818.6113555 83.19820 -1.02504 -4.87273 0.99642 -0.07325 0.03119 0.02856
1559195818.8112068 84.83807 -0.94013 -4.98582 0.99637 -0.07291 0.03134 0.03068
1559195819.011386 86.47714 -0.85030 -5.09077 0.99637 -0.07194 0.03166 0.03284
1559195819.2114635 88.07300 -0.75689 -5.19708 0.99634 -0.07133 0.03165 0.03500
1559195819.411391 89.70436 -0.66195 -5.30296 0.99635 -0.06994 0.03180 0.03714
1559195819.6112647 91.33337 -0.57713 -5.40887 0.99628 -0.06989 0.03142 0.03935
1559195819.8111708 92.90204 -0.47497 -5.50239 0.99633 -0.06814 0.03092 0.04161
1559195820.0114088 94.52634 -0.35050 -5.60409 0.99632 -0.06675 0.03137 0.04366
1559195820.211632 96.08212 -0.22808 -5.69464 0.99634 -0.06489 0.03136 0.04593
1559195820.411206 97.71014 -0.09321 -5.81009 0.99635 -0.06335 0.03091 0.04811
1559195820.61154 99.30067 0.05215 -5.91119 0.99629 -0.06300 0.03063 0.05001
1559195820.8114338 100.93697 0.21423 -6.01822 0.99632 -0.06217 0.03055 0.05050
1559195821.0116165 102.61778 0.37127 -6.11730 0.99638 -0.06079 0.03036 0.05107
1559195821.2112489 104.31646 0.52283 -6.21896 0.99645 -0.06010 0.02821 0.05174
1559195821.411412 106.00506 0.65667 -6.30866 0.99649 -0.05903 0.02820 0.05224
1559195821.6114576 107.68883 0.81495 -6.38309 0.99661 -0.05600 0.02957 0.05251
1559195821.8113976 109.41135 0.97543 -6.46690 0.99673 -0.05306 0.03023 0.05288
1559195822.0115385 111.11129 1.12844 -6.57028 0.99672 -0.05262 0.03064 0.05322
1559195822.2113419 112.85851 1.28889 -6.67139 0.99681 -0.05042 0.03120 0.05339
1559195822.411475 114.55895 1.43802 -6.78270 0.99680 -0.04961 0.03241 0.05366
1559195822.6115468 116.02327 1.58889 -6.88990 0.99686 -0.04751 0.03197 0.05462
1559195822.8113387 117.73018 1.75286 -6.99829 0.99679 -0.04770 0.03173 0.05593
1559195823.011323 119.40275 1.92537 -7.09861 0.99677 -0.04598 0.03282 0.05707
1559195823.211409 121.13587 2.08642 -7.19934 0.99677 -0.04422 0.03292 0.05842
1559195823.4112368 122.84816 2.27430 -7.30106 0.99686 -0.04186 0.03098 0.05963
1559195823.6113725 124.56953 2.44528 -7.40324 0.99692 -0.04013 0.02865 0.06102
1559195823.813443 126.32623 2.61320 -7.49118 0.99687 -0.03975 0.02746 0.06255
1559195824.0113244 127.98963 2.80334 -7.56664 0.99684 -0.03816 0.02792 0.06376
1559195824.2113824 129.69009 3.00711 -7.65111 0.99672 -0.03797 0.03005 0.06492
1559195824.4115946 131.43199 3.21547 -7.76402 0.99658 -0.03710 0.03230 0.06632
1559195824.612058 133.16780 3.36260 -7.85065 0.99652 -0.03460 0.03214 0.06876
1559195824.81147 134.91014 3.63369 -7.99075 0.99644 -0.03510 0.02989 0.07060
1559195825.0115561 136.69999 3.87126 -8.11196 0.99630 -0.03564 0.02888 0.07267
1559195825.2115147 138.44584 4.13173 -8.22203 0.99617 -0.03488 0.02978 0.07439
1559195825.4113321 140.21554 4.39242 -8.32730 0.99601 -0.03485 0.03048 0.07633
1559195825.6115928 142.00579 4.65371 -8.45488 0.99587 -0.03496 0.02979 0.07829
1559195825.8114848 143.81022 4.92769 -8.57811 0.99571 -0.03522 0.03000 0.08008
1559195826.0114613 145.62037 5.19979 -8.69019 0.99551 -0.03525 0.03232 0.08165
1559195826.2115796 147.42428 5.47763 -8.81981 0.99539 -0.03525 0.03245 0.08308
1559195826.4116116 149.20729 5.76061 -8.95416 0.99533 -0.03538 0.03009 0.08461
1559195826.6116529 150.95602 6.10140 -9.06432 0.99529 -0.03557 0.02849 0.08560
1559195826.8116724 152.78366 6.36787 -9.17145 0.99513 -0.03421 0.03010 0.08743
1559195827.0118241 154.61030 6.65398 -9.27495 0.99492 -0.03407 0.03278 0.08890
1559195827.2114165 156.40446 6.95893 -9.39588 0.99482 -0.03460 0.02942 0.09094
1559195827.4116192 158.18993 7.26901 -9.51290 0.99478 -0.03273 0.02728 0.09268
1559195827.6116962 159.98267 7.58145 -9.57933 0.99454 -0.03174 0.03182 0.09420
1559195827.8116026 161.79894 7.90337 -9.73739 0.99449 -0.02638 0.03199 0.09630
1559195828.0115838 163.59884 8.24299 -9.86814 0.99408 -0.02648 0.03351 0.09987
1559195828.2116368 165.41897 8.61152 -9.95629 0.99362 -0.02845 0.03606 0.10304
1559195828.4117873 167.26383 8.92723 -10.12334 0.99334 -0.02613 0.03426 0.10682
1559195828.6116168 168.99340 9.35066 -10.22270 0.99329 -0.02335 0.03126 0.10884
1559195828.811706 170.83301 9.71698 -10.33981 0.99301 -0.02251 0.02918 0.11209
1559195829.0116403 172.63201 10.13027 -10.41890 0.99274 -0.02081 0.03153 0.11419
1559195829.2140622 174.42821 10.53977 -10.50655 0.99265 -0.01721 0.02872 0.11626
1559195829.4118164 176.15894 10.95902 -10.56152 0.99260 -0.01423 0.02342 0.11829
1559195829.611642 177.94232 11.38101 -10.62904 0.99229 -0.01287 0.02641 0.12042
1559195829.8115816 179.72961 11.80342 -10.69055 0.99201 -0.00774 0.03231 0.12173
1559195830.0116937 181.52604 12.23046 -10.78773 0.99185 -0.00241 0.03082 0.12360
1559195830.2117567 183.32232 12.67190 -10.87117 0.99170 0.00052 0.02821 0.12545
1559195830.4116447 185.13578 13.12579 -10.94906 0.99136 0.00675 0.03363 0.12660
1559195830.6116793 186.94172 13.61219 -11.05990 0.99123 0.00452 0.03321 0.12784
1559195830.8117323 188.73810 14.08733 -11.17983 0.99122 0.00310 0.02625 0.12952
1559195831.0131755 190.54513 14.57089 -11.26525 0.99120 -0.00117 0.02087 0.13068
1559195831.2115755 192.35976 15.03629 -11.33135 0.99096 -0.00223 0.02438 0.13189
1559195831.4114263 194.18346 15.50334 -11.43485 0.99079 -0.00200 0.02609 0.13284
1559195831.6116576 195.98081 15.96676 -11.48823 0.99065 -0.00086 0.02658 0.13378
1559195831.8115072 197.78900 16.43417 -11.57588 0.99054 -0.00129 0.02711 0.13452
1559195832.0115297 199.57703 16.90580 -11.66572 0.99038 -0.00197 0.03048 0.13500
1559195832.2116532 201.35476 17.36429 -11.76109 0.99020 -0.00206 0.03461 0.13529
1559195832.4115572 203.12264 17.83460 -11.89431 0.99017 -0.00213 0.03531 0.13531
1559195832.6114602 204.87355 18.29347 -12.02334 0.99034 -0.00159 0.03215 0.13488
1559195832.8117766 206.63397 18.75011 -12.14126 0.99053 -0.00124 0.02914 0.13419
1559195833.011827 208.39251 19.21533 -12.23482 0.99066 -0.00095 0.02794 0.13345
1559195833.2117348 210.13743 19.66669 -12.32564 0.99080 -0.00141 0.02632 0.13278
1559195833.4117439 211.90154 20.12479 -12.42030 0.99092 -0.00212 0.02506 0.13208
1559195833.611787 213.66617 20.58198 -12.50522 0.99101 -0.00294 0.02481 0.13141
1559195833.8116968 215.44428 21.04682 -12.58365 0.99112 -0.00170 0.02422 0.13076
1559195834.0116627 217.25135 21.53196 -12.67673 0.99124 -0.00072 0.02289 0.13010
1559195834.2116246 219.03423 21.95673 -12.75656 0.99136 -0.00105 0.02331 0.12909
1559195834.4116724 220.81420 22.41319 -12.83837 0.99153 -0.00205 0.02293 0.12779
1559195834.6118453 222.57595 22.85001 -12.91271 0.99176 -0.00036 0.02234 0.12617
1559195834.8117218 224.32086 23.27165 -12.98917 0.99199 -0.00029 0.02206 0.12437
1559195835.0117364 226.06818 23.69740 -13.06884 0.99217 -0.00081 0.02408 0.12253
1559195835.2117643 227.78698 24.10409 -13.15374 0.99234 -0.00275 0.02544 0.12088
1559195835.4117765 229.46999 24.49391 -13.23927 0.99258 -0.00326 0.02273 0.11939
1559195835.6117256 231.11360 24.87347 -13.32017 0.99280 -0.00562 0.01981 0.11796
1559195835.8116658 232.75843 25.24976 -13.38586 0.99288 -0.00668 0.02293 0.11669
1559195836.011698 234.37855 25.61257 -13.44954 0.99288 -0.00456 0.02337 0.11669
1559195836.2118134 236.00310 25.92882 -13.54932 0.99266 -0.00292 0.02191 0.11886
1559195836.4119182 237.60083 26.34170 -13.59795 0.99239 -0.00447 0.02243 0.12098
1559195836.6116428 239.19434 26.71568 -13.66149 0.99211 -0.00408 0.02275 0.12325
1559195836.811556 240.76670 27.09921 -13.72450 0.99188 -0.00296 0.02211 0.12519
1559195837.0117319 242.29715 27.48159 -13.77817 0.99161 -0.00137 0.02267 0.12725
1559195837.2116566 243.79664 27.87491 -13.84609 0.99136 -0.00046 0.02369 0.12902
1559195837.411584 245.27652 28.26637 -13.92093 0.99120 -0.00088 0.02302 0.13032
1559195837.6115751 246.74189 28.65469 -13.98611 0.99109 -0.00093 0.02291 0.13120
1559195837.811733 248.18071 29.04483 -14.05270 0.99115 -0.00293 0.02384 0.13058
1559195838.012375 249.60173 29.42150 -14.12000 0.99148 -0.00302 0.02578 0.12763
1559195838.211741 250.98770 29.76150 -14.19894 0.99183 0.00070 0.02808 0.12446
1559195838.4120352 252.33757 30.13738 -14.28006 0.99244 -0.00161 0.02759 0.11961
1559195838.611954 253.64969 30.39083 -14.35421 0.99317 0.00330 0.02679 0.11349
1559195838.811562 254.93129 30.65133 -14.42885 0.99426 0.00345 0.02468 0.10408
1559195839.0116246 256.15528 30.86158 -14.49543 0.99544 0.00368 0.02493 0.09205
1559195839.2116878 257.33780 31.02871 -14.55004 0.99685 0.00245 0.02508 0.07518
1559195839.4118314 258.47030 31.14398 -14.59212 0.99819 -0.00054 0.02361 0.05524
1559195839.6116827 259.51664 31.16901 -14.63634 0.99920 -0.00079 0.02128 0.03399
1559195839.812431 260.60158 31.19351 -14.67666 0.99978 -0.00252 0.01820 0.01012
1559195840.0117126 261.60357 31.14542 -14.70128 0.99974 -0.00492 0.01475 -0.01650
1559195840.2116852 262.46325 30.98031 -14.73375 0.99888 -0.00459 0.01478 -0.04465
1559195840.4116633 263.33019 30.77235 -14.74125 0.99723 -0.00014 0.01688 -0.07250
1559195840.6116233 264.03533 30.52847 -14.73269 0.99470 -0.01320 0.01481 -0.10085
1559195840.81158 264.41267 30.12609 -14.73574 0.99135 -0.01704 0.01601 -0.12918
1559195841.0117323 264.93513 29.70634 -14.73422 0.98729 -0.01547 0.01783 -0.15714
1559195841.2117362 265.50400 29.29825 -14.73981 0.98245 -0.02044 0.01607 -0.18469
1559195841.4118876 265.93966 28.82396 -14.77360 0.97697 -0.02439 0.01203 -0.21166
1559195841.6118038 266.51307 28.35530 -14.79858 0.97087 -0.02453 0.01038 -0.23811
1559195841.8117473 267.14211 27.87569 -14.79040 0.96432 -0.02191 0.01213 -0.26354
1559195842.0118556 267.77666 27.37691 -14.81291 0.95732 -0.02250 0.01315 -0.28784
1559195842.2119956 268.42324 26.86076 -14.84521 0.95059 -0.02177 0.01131 -0.30948
1559195842.411916 268.98208 26.33682 -14.87208 0.94411 -0.02088 0.01094 -0.32880
1559195842.6118402 269.55129 25.79714 -14.89989 0.93772 -0.01957 0.01063 -0.34668
1559195842.81204 270.09073 25.24515 -14.92913 0.93107 -0.01810 0.01012 -0.36425
1559195843.0119395 270.58969 24.68281 -14.94233 0.92426 -0.01739 0.00965 -0.38125
1559195843.2117686 271.07259 24.11843 -14.96207 0.91716 -0.01628 0.00721 -0.39813
1559195843.4136827 271.55484 23.52818 -14.98172 0.90965 -0.01346 0.00396 -0.41514
1559195843.6120613 271.99860 22.93805 -14.97924 0.90182 -0.01148 0.00444 -0.43194
1559195843.8119311 272.43764 22.33963 -14.96996 0.89354 -0.01799 0.00737 -0.44857
1559195844.0119908 272.81871 21.69306 -14.96232 0.88517 -0.01342 0.00043 -0.46507
1559195844.212064 273.20344 21.02833 -14.96703 0.87606 -0.01084 -0.00339 -0.48207
1559195844.4119542 273.56079 20.37218 -14.95417 0.86606 -0.01849 0.00119 -0.49959
1559195844.6119113 273.88289 19.66717 -14.91987 0.85636 -0.01316 0.00388 -0.51620
1559195844.8118403 274.16881 18.94152 -14.90998 0.84605 -0.01142 0.00231 -0.53297
1559195845.011923 274.44557 18.19930 -14.91793 0.83508 -0.01438 0.00175 -0.54994
1559195845.2118883 274.69694 17.41667 -14.91660 0.82369 -0.01276 0.00125 -0.56690
1559195845.4119558 274.90348 16.62732 -14.91219 0.81174 -0.00859 -0.00002 -0.58395
1559195845.6118073 275.10389 15.83661 -14.90572 0.79893 -0.01074 0.00072 -0.60133
1559195845.8119926 275.27299 15.01424 -14.90649 0.78578 -0.01148 -0.00067 -0.61840
1559195846.0120108 275.40309 14.16713 -14.90501 0.77209 -0.00973 -0.00395 -0.63543
1559195846.2121372 275.49608 13.30859 -14.89348 0.75951 -0.00830 -0.00455 -0.65042
1559195846.411832 275.55485 12.44453 -14.87967 0.74924 -0.00769 -0.00470 -0.66224
1559195846.6118488 275.61256 11.55163 -14.87823 0.74103 -0.00737 -0.00465 -0.67142
1559195846.811912 275.66257 10.64637 -14.87525 0.73402 -0.00735 -0.00384 -0.67908
1559195847.012483 275.70105 9.73184 -14.87337 0.72698 -0.00682 -0.00371 -0.68661
1559195847.2122118 275.72845 8.81131 -14.87597 0.72065 -0.00713 -0.00460 -0.69325
1559195847.412151 275.73836 7.87493 -14.87191 0.71542 -0.00728 -0.00655 -0.69863
1559195847.612252 275.75280 6.91236 -14.86832 0.71100 -0.00697 -0.00745 -0.70312
1559195847.812014 275.74730 5.90976 -14.84912 0.70734 -0.00572 -0.00776 -0.70681
1559195848.0119042 275.74073 4.91288 -14.84022 0.70506 -0.00394 -0.00900 -0.70908
1559195848.211969 275.73817 3.88833 -14.83688 0.70424 -0.00282 -0.00994 -0.70989
1559195848.4118907 275.72574 2.82784 -14.82607 0.70397 -0.00241 -0.00951 -0.71016
1559195848.6120076 275.72156 1.77509 -14.80805 0.70390 -0.00112 -0.01028 -0.71022
1559195848.8129325 275.72601 0.67957 -14.79662 0.70379 -0.00084 -0.01106 -0.71032
1559195849.012011 275.73510 -0.44486 -14.79078 0.70414 -0.00003 -0.00970 -0.71000
1559195849.211946 275.73988 -1.60844 -14.77557 0.70472 0.00052 -0.00770 -0.70945
1559195849.4119165 275.74437 -2.77935 -14.76578 0.70526 -0.00096 -0.00915 -0.70889
1559195849.61206 275.75734 -4.00247 -14.75768 0.70571 -0.00335 -0.00697 -0.70846
1559195849.8119912 275.76275 -5.27294 -14.73704 0.70645 -0.00236 -0.00316 -0.70775
1559195850.0121193 275.77384 -6.51639 -14.74017 0.70661 -0.00181 -0.00744 -0.70757
1559195850.2122126 275.79775 -7.78301 -14.74540 0.70659 -0.00674 -0.00725 -0.70756
1559195850.411954 275.81404 -9.04958 -14.73396 0.70660 -0.00406 -0.00682 -0.70757
1559195850.612151 275.78218 -10.40960 -14.72107 0.70642 0.00088 -0.00584 -0.70777
1559195850.8119411 275.77333 -11.70846 -14.71913 0.70583 0.00393 -0.00430 -0.70836
1559195851.0118625 275.76854 -13.02532 -14.73476 0.70590 -0.00004 -0.00580 -0.70829
1559195851.211938 275.75371 -14.34791 -14.74351 0.70561 0.00149 -0.00841 -0.70855
1559195851.4120688 275.75668 -15.64892 -14.74544 0.70496 0.00379 -0.00827 -0.70919
1559195851.612068 275.74347 -17.00812 -14.74674 0.70472 0.00176 -0.00672 -0.70945
1559195851.812037 275.72083 -18.38069 -14.74251 0.70475 0.00345 -0.00555 -0.70943
1559195852.0119696 275.70240 -19.75513 -14.74385 0.70464 0.00123 -0.00673 -0.70953
1559195852.2119708 275.67642 -21.15727 -14.74400 0.70445 -0.00174 -0.00677 -0.70971
1559195852.4122875 275.64615 -22.54826 -14.73780 0.70426 -0.00000 -0.00916 -0.70989
1559195852.612044 275.61417 -23.94454 -14.72946 0.70469 0.00083 -0.01110 -0.70943
1559195852.8120291 275.59851 -25.34687 -14.71098 0.70527 0.00103 -0.00812 -0.70889
1559195853.0121286 275.58338 -26.76384 -14.69507 0.70558 0.00169 -0.00657 -0.70860
1559195853.2121286 275.54927 -28.19075 -14.68368 0.70571 0.00247 -0.00736 -0.70846
1559195853.4121966 275.52826 -29.60804 -14.68232 0.70574 0.00205 -0.00788 -0.70842
1559195853.6122165 275.49450 -31.02707 -14.66250 0.70547 0.00194 -0.00887 -0.70869
1559195853.8121822 275.46017 -32.43015 -14.64432 0.70487 0.00218 -0.01056 -0.70925
1559195854.0121534 275.43531 -33.84013 -14.62594 0.70429 0.00358 -0.00683 -0.70987
1559195854.2121606 275.40580 -35.24376 -14.62125 0.70370 0.00532 -0.00711 -0.71044
1559195854.4121234 275.37765 -36.62219 -14.62596 0.70293 0.00470 -0.00962 -0.71118
1559195854.6120226 275.34786 -37.99127 -14.61221 0.70262 0.00661 -0.00909 -0.71148
1559195854.8122478 275.31636 -39.36125 -14.59987 0.70220 0.00703 -0.00852 -0.71189
1559195855.012456 275.28414 -40.70871 -14.59430 0.70187 0.00708 -0.00984 -0.71220
1559195855.2123015 275.24721 -42.05341 -14.58649 0.70175 0.00952 -0.01070 -0.71227
1559195855.412113 275.21132 -43.38321 -14.58749 0.70159 0.01137 -0.01147 -0.71240
1559195855.6122043 275.17218 -44.72194 -14.58415 0.70137 0.01242 -0.01457 -0.71254
1559195855.8136902 275.13082 -46.08362 -14.57618 0.70108 0.01332 -0.01512 -0.71280
1559195856.0122414 275.09900 -47.45297 -14.57014 0.70088 0.01245 -0.01408 -0.71303
1559195856.2121878 275.05977 -48.82663 -14.56920 0.70068 0.01340 -0.01478 -0.71319
1559195856.412075 275.03370 -50.18357 -14.56476 0.70028 0.00641 -0.01360 -0.71371
1559195856.6121175 275.01050 -51.53434 -14.55859 0.70053 -0.00184 -0.01455 -0.71348
1559195856.8121305 274.97411 -52.90434 -14.52507 0.70046 0.00048 -0.00956 -0.71363
1559195857.012108 274.93458 -54.27365 -14.49703 0.70024 0.00567 -0.00070 -0.71388
1559195857.2123616 274.90530 -55.60611 -14.51086 0.70035 0.00152 -0.00449 -0.71378
1559195857.4123664 274.86411 -56.94692 -14.52900 0.70081 -0.00111 -0.00988 -0.71328
1559195857.6130247 274.83837 -58.30713 -14.50982 0.70127 0.00099 -0.00340 -0.71289
1559195857.8123808 274.81615 -59.63610 -14.50486 0.70169 0.00179 -0.00061 -0.71248
1559195858.0123324 274.79022 -60.95623 -14.52520 0.70212 -0.00068 -0.00034 -0.71206
1559195858.212176 274.75956 -62.28139 -14.53029 0.70252 0.00088 0.00139 -0.71166
1559195858.4122572 274.72662 -63.60161 -14.53726 0.70266 0.00631 0.00163 -0.71150
1559195858.6121724 274.68902 -65.01354 -14.56307 0.70264 0.01207 -0.00175 -0.71144
1559195858.8121612 274.67453 -66.38036 -14.59669 0.70323 0.00535 -0.00477 -0.71092
1559195859.01219 274.65979 -67.76330 -14.60777 0.70371 0.00277 -0.00846 -0.71043
1559195859.2120523 274.64275 -69.12644 -14.58832 0.70369 0.00424 -0.00510 -0.71047
1559195859.4120266 274.62221 -70.47693 -14.58960 0.70410 0.00225 -0.00325 -0.71009
1559195859.6121864 274.59435 -71.82615 -14.59934 0.70448 0.00220 -0.00309 -0.70971
1559195859.8123982 274.58683 -73.15402 -14.59970 0.70480 0.00239 0.00166 -0.70940
1559195860.0121593 274.56963 -74.46672 -14.60817 0.70507 0.00126 0.00174 -0.70913
1559195860.2121518 274.55627 -75.78208 -14.62113 0.70525 0.00016 0.00053 -0.70896
1559195860.412283 274.55597 -77.09343 -14.62608 0.70543 -0.00018 0.00116 -0.70878
1559195860.6121933 274.53976 -78.32664 -14.61829 0.70532 0.00088 0.00059 -0.70889
1559195860.8123672 274.52567 -79.48864 -14.61794 0.70516 0.00043 0.00152 -0.70904
1559195861.0122762 274.50985 -80.54171 -14.61043 0.70523 -0.00034 0.00084 -0.70898
1559195861.2122564 274.50253 -81.64508 -14.60729 0.70524 -0.00137 -0.00023 -0.70896
1559195861.4122756 274.49587 -82.66938 -14.59865 0.70508 -0.00486 0.00171 -0.70911
1559195861.6120844 274.48142 -83.57232 -14.58794 0.70518 -0.00469 0.00283 -0.70900
1559195861.8122065 274.46788 -84.59448 -14.58470 0.70495 -0.00376 0.00468 -0.70924
1559195862.0124023 274.45428 -85.61101 -14.58792 0.70495 -0.00378 0.00723 -0.70921
1559195862.2123175 274.42680 -86.59439 -14.59380 0.70495 -0.00165 0.00499 -0.70923
1559195862.4123235 274.41341 -87.42787 -14.60298 0.70481 -0.00157 0.00490 -0.70937
1559195862.6121266 274.40960 -88.12242 -14.59936 0.70474 -0.00267 0.00571 -0.70943
1559195862.8122442 274.39893 -88.99408 -14.60388 0.70486 -0.00061 0.00349 -0.70933
1559195863.0120952 274.38962 -89.70472 -14.60660 0.70484 0.00059 0.00246 -0.70936
1559195863.2122874 274.38422 -90.50322 -14.61539 0.70474 -0.00005 0.00295 -0.70946
1559195863.4122753 274.37206 -91.09742 -14.61869 0.70482 0.00095 0.00235 -0.70938
1559195863.6121671 274.36219 -91.88317 -14.62804 0.70496 0.00269 0.00131 -0.70924
1559195863.812454 274.35791 -92.42025 -14.63241 0.70499 0.00440 0.00081 -0.70920
1559195864.0123503 274.35069 -93.12262 -14.63652 0.70500 0.00533 -0.00008 -0.70919
1559195864.2121315 274.35557 -93.52880 -14.63402 0.70492 0.00506 0.00002 -0.70927
1559195864.412198 274.35075 -93.98318 -14.63950 0.70487 0.00592 -0.00032 -0.70931
1559195864.6121404 274.33480 -94.66809 -14.65688 0.70485 0.00700 -0.00125 -0.70933
1559195864.81227 274.34138 -94.98095 -14.65919 0.70481 0.00705 -0.00058 -0.70936
1559195865.0121014 274.33299 -95.25586 -14.65241 0.70474 0.00828 -0.00152 -0.70941
1559195865.2120645 274.32085 -95.69173 -14.66184 0.70476 0.00853 -0.00100 -0.70939
1559195865.412291 274.32136 -95.93212 -14.66917 0.70479 0.00805 0.00004 -0.70937
1559195865.6123216 274.31655 -96.13889 -14.67562 0.70485 0.00872 -0.00033 -0.70930
1559195865.8123755 274.31317 -96.30395 -14.67614 0.70502 0.00876 0.00002 -0.70913
1559195866.0123656 274.31152 -96.42830 -14.67737 0.70503 0.00859 0.00044 -0.70913
1559195866.2123752 274.30823 -96.52401 -14.67854 0.70502 0.00864 0.00022 -0.70914
1559195866.4122906 274.30899 -96.59323 -14.67837 0.70503 0.00746 -0.00074 -0.70913
1559195866.6122975 274.31065 -96.62559 -14.67691 0.70503 0.00744 -0.00069 -0.70914
1559195866.8122172 274.31268 -96.63848 -14.67519 0.70501 0.00768 -0.00051 -0.70916
1559195867.0120933 274.31458 -96.63766 -14.67571 0.70501 0.00757 -0.00052 -0.70916
1559195867.2120833 274.31461 -96.65551 -14.67556 0.70501 0.00767 -0.00046 -0.70915
1559195867.4122732 274.31462 -96.67501 -14.67595 0.70501 0.00769 -0.00049 -0.70916
1559195867.6121755 274.31410 -96.68809 -14.67611 0.70503 0.00775 -0.00050 -0.70913
1559195867.8122547 274.31541 -96.68976 -14.67538 0.70502 0.00775 -0.00045 -0.70915
1559195868.0121317 274.31738 -96.67594 -14.67483 0.70500 0.00776 -0.00046 -0.70917
1559195868.2121148 274.31742 -96.67001 -14.67502 0.70498 0.00775 -0.00044 -0.70919
1559195868.4121253 274.31743 -96.66026 -14.67521 0.70497 0.00776 -0.00046 -0.70919
1559195868.6123714 274.31706 -96.64378 -14.67473 0.70497 0.00776 -0.00044 -0.70919
1559195868.8124568 274.31666 -96.62735 -14.67463 0.70498 0.00775 -0.00044 -0.70919
1559195869.0122187 274.31630 -96.61426 -14.67452 0.70497 0.00775 -0.00043 -0.70919
1559195869.212376 274.31669 -96.59894 -14.67418 0.70497 0.00774 -0.00042 -0.70920
1559195869.412297 274.31690 -96.58476 -14.67409 0.70498 0.00773 -0.00045 -0.70919
1559195869.612296 274.31684 -96.57162 -14.67475 0.70499 0.00779 -0.00048 -0.70918
1559195869.8122318 274.31678 -96.55877 -14.67516 0.70500 0.00774 -0.00049 -0.70917
1559195870.0123181 274.31700 -96.54094 -14.67452 0.70499 0.00769 -0.00046 -0.70918
1559195870.2124624 274.31649 -96.51777 -14.67423 0.70501 0.00774 -0.00048 -0.70916
1559195870.4123333 274.31627 -96.49233 -14.67403 0.70500 0.00771 -0.00047 -0.70917
1559195870.6122706 274.31639 -96.47419 -14.67351 0.70499 0.00769 -0.00046 -0.70917
1559195870.8125327 274.31677 -96.45512 -14.67307 0.70499 0.00767 -0.00047 -0.70918
1559195871.0122242 274.31665 -96.43766 -14.67267 0.70499 0.00767 -0.00045 -0.70917
1559195871.2122793 274.31668 -96.42068 -14.67244 0.70498 0.00763 -0.00044 -0.70918
1559195871.4121673 274.31678 -96.40365 -14.67199 0.70498 0.00761 -0.00043 -0.70918
1559195871.6122034 274.31652 -96.38672 -14.67186 0.70497 0.00763 -0.00045 -0.70919
1559195871.8123984 274.31556 -96.36865 -14.67200 0.70499 0.00764 -0.00050 -0.70918
1559195872.0135767 274.31349 -96.35085 -14.67154 0.70498 0.00756 -0.00047 -0.70919
1559195872.2123814 274.31307 -96.33309 -14.67119 0.70499 0.00760 -0.00051 -0.70918
1559195872.412269 274.31505 -96.31922 -14.67082 0.70497 0.00754 -0.00048 -0.70919
1559195872.6122046 274.31532 -96.30729 -14.67051 0.70497 0.00751 -0.00047 -0.70920
1559195872.8123765 274.31603 -96.29607 -14.67036 0.70496 0.00748 -0.00048 -0.70921
1559195873.0121837 274.31657 -96.28378 -14.67033 0.70494 0.00745 -0.00050 -0.70923
1559195873.2122464 274.31634 -96.27393 -14.67043 0.70496 0.00746 -0.00048 -0.70921
1559195873.4123507 274.31608 -96.26352 -14.67058 0.70496 0.00741 -0.00051 -0.70921
1559195873.61273 274.31651 -96.25020 -14.67021 0.70496 0.00740 -0.00053 -0.70921
1559195873.8134952 274.31709 -96.23741 -14.66977 0.70493 0.00737 -0.00052 -0.70924
1559195874.0125337 274.31858 -96.21972 -14.66930 0.70494 0.00733 -0.00050 -0.70923
1559195874.2123582 274.31954 -96.18052 -14.66856 0.70496 0.00740 -0.00055 -0.70921
1559195874.4122674 274.32017 -96.16827 -14.66806 0.70494 0.00732 -0.00048 -0.70923
1559195874.6122684 274.32000 -96.15954 -14.66783 0.70497 0.00736 -0.00052 -0.70920
1559195874.8123744 274.32066 -96.15186 -14.66749 0.70496 0.00733 -0.00051 -0.70921
1559195875.0124223 274.32469 -95.71204 -14.67073 0.70488 0.00660 -0.00063 -0.70929
1559195875.2124407 274.32505 -95.65489 -14.66951 0.70491 0.00661 -0.00063 -0.70926
1559195875.4124382 274.32466 -95.65657 -14.67039 0.70492 0.00665 -0.00067 -0.70926
1559195875.6123562 274.32379 -95.65904 -14.67088 0.70494 0.00668 -0.00066 -0.70924
1559195875.812412 274.32378 -95.65574 -14.67016 0.70494 0.00670 -0.00069 -0.70924
1559195876.0124154 274.32387 -95.65427 -14.66991 0.70494 0.00668 -0.00068 -0.70924
1559195876.2123318 274.32357 -95.65725 -14.67034 0.70495 0.00669 -0.00069 -0.70922
1559195876.4128056 274.32366 -95.65888 -14.66978 0.70496 0.00673 -0.00070 -0.70922
1559195876.612505 274.32380 -95.65856 -14.66895 0.70495 0.00680 -0.00071 -0.70922
1559195876.8122444 274.32383 -95.66021 -14.66893 0.70495 0.00679 -0.00068 -0.70922
1559195877.012447 274.32382 -95.66054 -14.66954 0.70495 0.00678 -0.00070 -0.70923
1559195877.2125056 274.32362 -95.66014 -14.66951 0.70495 0.00675 -0.00070 -0.70923
1559195877.4124463 274.32354 -95.65933 -14.66895 0.70496 0.00675 -0.00069 -0.70922
1559195877.6123695 274.32350 -95.66059 -14.66906 0.70496 0.00676 -0.00071 -0.70921
1559195877.8123631 274.32329 -95.66309 -14.66922 0.70497 0.00680 -0.00072 -0.70920
1559195878.0123465 274.32315 -95.66487 -14.66924 0.70497 0.00678 -0.00070 -0.70921
1559195878.212541 274.32354 -95.66420 -14.66918 0.70495 0.00675 -0.00067 -0.70922
1559195878.4122865 274.32357 -95.66375 -14.66965 0.70495 0.00673 -0.00068 -0.70923
1559195878.6122966 274.32347 -95.66098 -14.66982 0.70495 0.00675 -0.00069 -0.70923
1559195878.8123493 274.32339 -95.65940 -14.66961 0.70495 0.00677 -0.00069 -0.70922
1559195879.0124385 274.32337 -95.66044 -14.66934 0.70495 0.00677 -0.00069 -0.70922
1559195879.2124755 274.32336 -95.66295 -14.66935 0.70495 0.00677 -0.00068 -0.70922
1559195879.4124887 274.32345 -95.66406 -14.66930 0.70495 0.00678 -0.00069 -0.70922
1559195879.6124363 274.32373 -95.66435 -14.66942 0.70494 0.00674 -0.00068 -0.70923
1559195879.812457 274.32401 -95.66467 -14.66926 0.70494 0.00673 -0.00067 -0.70923
1559195880.0124545 274.32405 -95.66681 -14.66924 0.70495 0.00673 -0.00067 -0.70923
1559195880.21243 274.32435 -95.66787 -14.66939 0.70493 0.00669 -0.00064 -0.70924
1559195880.412484 274.32463 -95.66895 -14.66944 0.70493 0.00665 -0.00062 -0.70925
1559195880.6125124 274.32462 -95.66956 -14.66939 0.70493 0.00665 -0.00062 -0.70924
1559195880.812543 274.32493 -95.66929 -14.66874 0.70494 0.00667 -0.00059 -0.70923
1559195881.0132496 274.32463 -95.67016 -14.66891 0.70495 0.00668 -0.00060 -0.70923
1559195881.2124982 274.32437 -95.67135 -14.66914 0.70495 0.00668 -0.00059 -0.70922
1559195881.4123452 274.32402 -95.67293 -14.66925 0.70496 0.00669 -0.00059 -0.70922
1559195881.6126137 274.32341 -95.67065 -14.66915 0.70496 0.00668 -0.00062 -0.70922
1559195881.8124368 274.32349 -95.67016 -14.66893 0.70495 0.00668 -0.00061 -0.70923
1559195882.0125124 274.32355 -95.66857 -14.66875 0.70495 0.00667 -0.00060 -0.70923
1559195882.2124615 274.32185 -95.67136 -14.67024 0.70495 0.00662 -0.00060 -0.70923
1559195882.4124188 274.32121 -95.67884 -14.67131 0.70495 0.00660 -0.00059 -0.70922
1559195882.6123817 274.32148 -95.67896 -14.67136 0.70495 0.00658 -0.00058 -0.70923
1559195882.8137772 274.32092 -95.68506 -14.67182 0.70495 0.00659 -0.00058 -0.70922
1559195883.0125098 274.32020 -95.69112 -14.67196 0.70496 0.00661 -0.00060 -0.70921
1559195883.2124035 274.32000 -95.69364 -14.67182 0.70496 0.00663 -0.00061 -0.70922
1559195883.412348 274.32034 -95.69197 -14.67168 0.70495 0.00663 -0.00061 -0.70922
1559195883.6124473 274.31998 -95.69127 -14.67177 0.70496 0.00664 -0.00062 -0.70922
1559195883.8124206 274.31994 -95.68951 -14.67225 0.70496 0.00663 -0.00063 -0.70921
1559195884.0124776 274.32025 -95.68846 -14.67170 0.70496 0.00663 -0.00062 -0.70922
1559195884.2124803 274.32067 -95.68784 -14.67154 0.70495 0.00661 -0.00061 -0.70922
1559195884.4124289 274.32080 -95.68836 -14.67166 0.70495 0.00659 -0.00061 -0.70923
1559195884.6129425 274.32072 -95.68824 -14.67194 0.70495 0.00660 -0.00061 -0.70922
1559195884.81256 274.32095 -95.68822 -14.67148 0.70495 0.00662 -0.00062 -0.70922
1559195885.012492 274.32069 -95.68726 -14.67149 0.70495 0.00662 -0.00061 -0.70923
1559195885.2126422 274.32082 -95.68544 -14.67155 0.70494 0.00659 -0.00061 -0.70924
1559195885.4126236 274.32106 -95.68296 -14.67122 0.70494 0.00659 -0.00062 -0.70924
1559195885.6125858 274.32091 -95.68065 -14.67110 0.70494 0.00661 -0.00063 -0.70923
1559195885.8126123 274.32137 -95.68065 -14.67114 0.70494 0.00658 -0.00062 -0.70924
1559195886.0126796 274.32169 -95.68187 -14.67112 0.70493 0.00657 -0.00060 -0.70925
1559195886.212519 274.32152 -95.68395 -14.67122 0.70492 0.00660 -0.00060 -0.70925
1559195886.4147704 274.32109 -95.68397 -14.67134 0.70493 0.00663 -0.00063 -0.70925
1559195886.6125069 274.32100 -95.68407 -14.67131 0.70493 0.00664 -0.00063 -0.70924
1559195886.812597 274.32089 -95.68619 -14.67138 0.70494 0.00664 -0.00063 -0.70924
1559195887.0125043 274.32051 -95.68982 -14.67145 0.70495 0.00664 -0.00063 -0.70922
1559195887.212421 274.32016 -95.69247 -14.67145 0.70497 0.00665 -0.00065 -0.70921
1559195887.412658 274.32043 -95.69278 -14.67100 0.70498 0.00666 -0.00066 -0.70919
1559195887.6126852 274.32051 -95.69294 -14.67082 0.70497 0.00666 -0.00066 -0.70920
1559195887.8124082 274.32076 -95.69259 -14.67090 0.70495 0.00665 -0.00064 -0.70922
1559195888.0127313 274.32075 -95.69249 -14.67114 0.70494 0.00665 -0.00065 -0.70923
1559195888.2141445 274.32071 -95.69210 -14.67123 0.70494 0.00666 -0.00065 -0.70923
1559195888.4124882 274.32053 -95.69344 -14.67111 0.70495 0.00666 -0.00065 -0.70922
1559195888.612581 274.32018 -95.69595 -14.67067 0.70497 0.00669 -0.00066 -0.70921
1559195888.8125863 274.32061 -95.69799 -14.67048 0.70497 0.00669 -0.00066 -0.70920
1559195889.012581 274.32081 -95.69903 -14.67038 0.70497 0.00667 -0.00065 -0.70920
1559195889.2125857 274.32107 -95.69794 -14.67079 0.70496 0.00665 -0.00064 -0.70921
1559195889.412522 274.32041 -95.69721 -14.67123 0.70496 0.00665 -0.00065 -0.70922
1559195889.6126134 274.32017 -95.69503 -14.67151 0.70495 0.00668 -0.00065 -0.70922
1559195889.812596 274.31831 -95.69131 -14.67188 0.70494 0.00670 -0.00068 -0.70923
1559195890.0125523 274.31815 -95.68644 -14.67141 0.70494 0.00672 -0.00070 -0.70924
1559195890.2127316 274.32529 -95.67348 -14.66968 0.70497 0.00668 -0.00068 -0.70920
1559195890.4124742 274.32604 -95.67274 -14.66915 0.70497 0.00667 -0.00067 -0.70920
1559195890.6125145 274.32641 -95.67320 -14.66880 0.70498 0.00666 -0.00065 -0.70920
1559195890.812453 274.32658 -95.67536 -14.66887 0.70499 0.00647 -0.00087 -0.70919
1559195891.0125196 274.32620 -95.68326 -14.67020 0.70499 0.00601 -0.00127 -0.70919
1559195891.2125452 274.32589 -95.69405 -14.66981 0.70499 0.00606 -0.00126 -0.70919
1559195891.4124904 274.32516 -95.71302 -14.66945 0.70500 0.00591 -0.00132 -0.70919
1559195891.6125326 274.32607 -95.74922 -14.66928 0.70498 0.00530 -0.00169 -0.70920
1559195891.8147044 274.32605 -95.81973 -14.67146 0.70500 0.00486 -0.00189 -0.70919
1559195892.0125191 274.32543 -95.92044 -14.67211 0.70503 0.00506 -0.00207 -0.70916
1559195892.212653 274.32295 -96.05204 -14.67284 0.70482 0.00528 -0.00243 -0.70936
1559195892.4126468 274.31816 -96.22094 -14.67248 0.70462 0.00547 -0.00310 -0.70955
1559195892.6126268 274.30595 -96.45550 -14.66839 0.70456 0.00574 -0.00444 -0.70960
1559195892.8125505 274.30074 -96.72029 -14.67049 0.70421 0.00685 -0.00590 -0.70993
1559195893.012673 274.29365 -97.03776 -14.67713 0.70385 0.00801 -0.00685 -0.71027
1559195893.212644 274.28162 -97.50343 -14.68393 0.70358 0.00823 -0.00608 -0.71054
1559195893.4125214 274.27178 -97.92415 -14.68660 0.70306 0.00746 -0.00573 -0.71107
1559195893.6147034 274.17430 -98.45939 -14.72632 0.70348 0.00568 -0.00661 -0.71066
1559195893.8125145 274.23645 -98.96798 -14.72570 0.70234 0.00668 -0.00503 -0.71179
1559195894.012465 274.21990 -99.63294 -14.74366 0.70186 0.00948 -0.00614 -0.71223
1559195894.2123592 274.19816 -100.40235 -14.74260 0.70137 0.00869 -0.00573 -0.71272
1559195894.4127574 274.17337 -101.03845 -14.73859 0.70094 0.00882 -0.00390 -0.71316
1559195894.6123536 274.13881 -101.89352 -14.73946 0.70025 0.00991 -0.00437 -0.71381
1559195894.812555 274.11274 -102.63441 -14.75518 0.69879 0.00983 -0.00443 -0.71524
1559195895.012372 274.06501 -103.59461 -14.76507 0.69706 0.01032 -0.00514 -0.71692
1559195895.2124493 274.01792 -104.51980 -14.77665 0.69499 0.01137 -0.00715 -0.71890
1559195895.412612 273.96625 -105.45974 -14.78153 0.69299 0.01205 -0.00809 -0.72080
1559195895.6125515 273.91062 -106.43628 -14.79728 0.69087 0.01259 -0.00874 -0.72281
1559195895.8126066 273.83850 -107.45858 -14.80402 0.68873 0.01370 -0.00899 -0.72483
1559195896.0124967 273.77361 -108.46224 -14.82577 0.68639 0.01371 -0.01002 -0.72704
1559195896.2126017 273.71530 -109.43457 -14.84277 0.68412 0.01360 -0.01067 -0.72916
1559195896.4125328 273.62490 -110.51697 -14.85255 0.68166 0.01434 -0.01077 -0.73145
1559195896.6126504 273.52200 -111.62222 -14.86637 0.67924 0.01519 -0.01104 -0.73368
1559195896.812733 273.40610 -112.77118 -14.88187 0.67666 0.01514 -0.01137 -0.73606
1559195897.0126915 273.28322 -113.92563 -14.89911 0.67423 0.01474 -0.01108 -0.73829
1559195897.212571 273.15628 -115.08223 -14.91812 0.67205 0.01447 -0.01062 -0.74029
1559195897.41254 273.01711 -116.27622 -14.93191 0.66985 0.01411 -0.01029 -0.74229
1559195897.612432 272.86796 -117.49716 -14.94348 0.66813 0.01340 -0.01089 -0.74384
1559195897.8126447 272.70751 -118.73405 -14.95392 0.66725 0.01303 -0.01059 -0.74464
1559195898.012732 272.54229 -120.00153 -14.96705 0.66710 0.01445 -0.01043 -0.74476
1559195898.2126138 272.38265 -121.27299 -14.98462 0.66772 0.01565 -0.00882 -0.74419
1559195898.4125257 272.22121 -122.57358 -15.00772 0.66872 0.01600 -0.00818 -0.74330
1559195898.6126375 272.06915 -123.88990 -15.03859 0.66932 0.01515 -0.01035 -0.74275
1559195898.812703 271.94048 -125.19677 -15.06124 0.67014 0.01377 -0.01109 -0.74202
1559195899.0126793 271.79815 -126.53247 -15.07179 0.67168 0.01313 -0.01004 -0.74066
1559195899.2126985 271.66079 -127.85480 -15.08376 0.67303 0.01387 -0.01274 -0.73937
1559195899.4126546 271.52850 -129.19607 -15.10040 0.67468 0.01409 -0.01533 -0.73782
1559195899.6125946 271.40479 -130.53619 -15.10819 0.67673 0.01602 -0.01662 -0.73587
1559195899.8126283 271.27961 -131.90987 -15.11053 0.67966 0.01869 -0.01732 -0.73309
1559195900.0126576 271.18823 -133.25817 -15.12237 0.68237 0.01962 -0.01769 -0.73053
1559195900.2126918 271.10318 -134.62666 -15.13124 0.68507 0.02009 -0.01763 -0.72799
1559195900.4128547 271.03265 -136.00523 -15.14251 0.68768 0.02133 -0.01861 -0.72546
1559195900.614588 270.97446 -137.41223 -15.16070 0.69016 0.02204 -0.02004 -0.72304
1559195900.8127859 270.91902 -138.84860 -15.17431 0.69194 0.02253 -0.02150 -0.72128
1559195901.0127034 270.85979 -140.34953 -15.18546 0.69362 0.02442 -0.02158 -0.71960
1559195901.2126842 270.80885 -141.84548 -15.19585 0.69530 0.02537 -0.02203 -0.71794
1559195901.4126687 270.75398 -143.36132 -15.20762 0.69702 0.02509 -0.02337 -0.71623
1559195901.6127703 270.71095 -144.90082 -15.21620 0.69865 0.02397 -0.02173 -0.71473
1559195901.8126035 270.69708 -146.34567 -15.23382 0.69945 0.02606 -0.02026 -0.71392
1559195902.0125792 270.60947 -148.04654 -15.23767 0.70040 0.02777 -0.01735 -0.71300
1559195902.2124765 270.55805 -149.57931 -15.25534 0.70093 0.02866 -0.01766 -0.71243
1559195902.4126258 270.51501 -151.12660 -15.28804 0.70140 0.02894 -0.01824 -0.71195
1559195902.6127267 270.48818 -152.62496 -15.30819 0.70163 0.02543 -0.01754 -0.71188
1559195902.8126123 270.44803 -154.12063 -15.32530 0.70216 0.02027 -0.01706 -0.71153
1559195903.0126338 270.40165 -155.64164 -15.33260 0.70249 0.02063 -0.01549 -0.71123
1559195903.2126212 270.34669 -157.13995 -15.34084 0.70275 0.02058 -0.01317 -0.71102
1559195903.4125447 270.28620 -158.68961 -15.35574 0.70321 0.02134 -0.01335 -0.71054
1559195903.6128235 270.23364 -160.19930 -15.37254 0.70359 0.02381 -0.01295 -0.71009
1559195903.8125784 270.18964 -161.69390 -15.39061 0.70384 0.02724 -0.01204 -0.70973
1559195904.012655 270.15804 -163.17271 -15.42289 0.70398 0.02799 -0.01296 -0.70955
1559195904.2143958 270.12781 -164.62475 -15.45862 0.70417 0.02882 -0.01500 -0.70929
1559195904.412708 270.10601 -166.03935 -15.48568 0.70409 0.03007 -0.01513 -0.70931
1559195904.612707 270.07129 -167.40967 -15.51073 0.70368 0.02985 -0.01465 -0.70973
1559195904.812815 270.03565 -168.75406 -15.53968 0.70323 0.02856 -0.01499 -0.71023
1559195905.0124397 270.00528 -170.01323 -15.56038 0.70266 0.02823 -0.01500 -0.71081
1559195905.212541 269.97385 -171.24345 -15.57382 0.70210 0.02970 -0.01405 -0.71132
1559195905.412981 269.94746 -172.42722 -15.58756 0.70164 0.03019 -0.01317 -0.71177
1559195905.6128209 269.91980 -173.51502 -15.60063 0.70097 0.03019 -0.01420 -0.71241
1559195905.812538 269.89732 -174.50456 -15.61261 0.70039 0.02835 -0.01453 -0.71305
1559195906.0150223 269.85363 -175.50382 -15.62187 0.69983 0.02961 -0.01276 -0.71358
1559195906.2126207 269.81194 -176.49389 -15.63347 0.69929 0.03022 -0.01065 -0.71412
1559195906.4127474 269.76945 -177.53245 -15.65089 0.69878 0.02668 -0.01251 -0.71473
1559195906.6125095 269.74322 -178.46509 -15.67336 0.69820 0.02412 -0.01211 -0.71540
1559195906.8123715 269.71875 -179.25697 -15.69329 0.69777 0.02150 -0.01135 -0.71591
1559195907.0125134 269.68245 -180.04017 -15.69313 0.69705 0.02654 -0.00865 -0.71647
1559195907.2124565 269.65616 -180.74480 -15.70533 0.69588 0.02834 -0.00614 -0.71757
1559195907.4124467 269.62591 -181.46733 -15.72748 0.69445 0.02846 -0.00353 -0.71897
1559195907.612488 269.58368 -182.08804 -15.75065 0.69241 0.03098 -0.00343 -0.72083
1559195907.81346 269.54035 -182.74200 -15.78191 0.68984 0.03237 -0.00501 -0.72322
1559195908.0126286 269.49458 -183.36190 -15.80735 0.68650 0.03125 -0.00514 -0.72644
1559195908.212624 269.45158 -183.85265 -15.82842 0.68214 0.03088 -0.00412 -0.73056
1559195908.412507 269.38677 -184.36644 -15.84778 0.67748 0.03117 -0.00557 -0.73486
1559195908.6124825 269.31752 -184.78511 -15.86012 0.67237 0.03072 -0.00640 -0.73955
1559195908.8125648 269.23881 -185.23427 -15.87381 0.66720 0.03004 -0.00707 -0.74424
1559195909.0126576 269.16336 -185.63106 -15.87925 0.66151 0.02860 -0.00882 -0.74933
1559195909.2126172 269.08093 -186.03840 -15.89478 0.65546 0.02908 -0.01020 -0.75460
1559195909.4125416 269.00490 -186.38240 -15.90936 0.64917 0.02936 -0.00985 -0.76001
1559195909.6135063 268.90939 -186.62329 -15.90022 0.64295 0.03155 -0.00990 -0.76520
1559195909.8126643 268.82077 -186.98453 -15.93078 0.63714 0.03253 -0.01169 -0.76997
1559195910.0126588 268.73963 -187.26436 -15.94219 0.63160 0.03202 -0.01157 -0.77454
1559195910.2126079 268.66704 -187.50981 -15.95326 0.62705 0.03084 -0.01062 -0.77830
1559195910.4125981 268.58103 -187.74387 -15.96273 0.62298 0.03204 -0.01127 -0.78150
1559195910.6125855 268.52303 -187.92795 -15.96720 0.61908 0.03345 -0.01044 -0.78454
1559195910.8126538 268.47422 -188.06592 -15.97035 0.61606 0.03347 -0.00759 -0.78695
1559195911.0126317 268.43282 -188.16709 -15.97719 0.61341 0.03379 -0.00671 -0.78901
1559195911.2126167 268.38805 -188.28644 -15.98547 0.61134 0.03464 -0.00811 -0.79057
1559195911.4126377 268.36848 -188.34908 -15.98895 0.60983 0.03471 -0.00815 -0.79173
1559195911.612769 268.35476 -188.38639 -15.99139 0.60889 0.03471 -0.00801 -0.79245
1559195911.8125367 268.35048 -188.40006 -15.99272 0.60847 0.03473 -0.00813 -0.79277
1559195912.0126295 268.35483 -188.39741 -15.99370 0.60833 0.03449 -0.00810 -0.79290
1559195912.2124863 268.35559 -188.39295 -15.99007 0.60834 0.03410 -0.00828 -0.79290
1559195912.4125361 268.35635 -188.39447 -15.98978 0.60829 0.03418 -0.00843 -0.79294
1559195912.6126401 268.35737 -188.39514 -15.98884 0.60827 0.03420 -0.00827 -0.79295
1559195912.8126752 268.35806 -188.39418 -15.98834 0.60826 0.03419 -0.00827 -0.79296
1559195913.012727 268.35845 -188.39392 -15.98784 0.60827 0.03421 -0.00831 -0.79295
1559195913.214024 268.35869 -188.39540 -15.98745 0.60826 0.03417 -0.00828 -0.79296
1559195913.412803 268.35873 -188.39538 -15.98712 0.60827 0.03420 -0.00831 -0.79295
1559195913.6126423 268.35889 -188.39598 -15.98643 0.60824 0.03422 -0.00830 -0.79297
1559195913.8126438 268.35910 -188.39611 -15.98583 0.60823 0.03422 -0.00830 -0.79298
1559195914.0125966 268.36016 -188.39242 -15.98445 0.60822 0.03416 -0.00827 -0.79299
1559195914.2126548 268.36090 -188.38985 -15.98327 0.60823 0.03417 -0.00825 -0.79298
1559195914.4126406 268.36085 -188.39092 -15.98304 0.60821 0.03417 -0.00827 -0.79300
1559195914.6125228 268.36068 -188.39184 -15.98278 0.60822 0.03418 -0.00827 -0.79299
1559195914.8125718 268.36051 -188.39276 -15.98266 0.60822 0.03419 -0.00829 -0.79299
1559195915.0126176 268.36038 -188.39359 -15.98263 0.60822 0.03415 -0.00826 -0.79299
1559195915.2128468 268.36009 -188.39427 -15.98256 0.60822 0.03418 -0.00826 -0.79299
1559195915.4126456 268.35986 -188.39525 -15.98249 0.60822 0.03416 -0.00828 -0.79299
1559195915.6126902 268.35946 -188.39600 -15.98250 0.60824 0.03417 -0.00829 -0.79298
1559195915.8128068 268.35929 -188.39710 -15.98238 0.60822 0.03417 -0.00828 -0.79299
1559195916.012759 268.35890 -188.39806 -15.98231 0.60824 0.03418 -0.00832 -0.79298
1559195916.2125423 268.35904 -188.39888 -15.98219 0.60822 0.03417 -0.00828 -0.79299
1559195916.4127138 268.35872 -188.39963 -15.98223 0.60823 0.03415 -0.00830 -0.79298
1559195916.6126485 268.35852 -188.40006 -15.98217 0.60824 0.03416 -0.00829 -0.79297
1559195916.8127527 268.35777 -188.40260 -15.98365 0.60815 0.03379 -0.00854 -0.79306
1559195917.0126572 268.35495 -188.40953 -15.98486 0.60800 0.03329 -0.00879 -0.79319
1559195917.212748 268.34679 -188.43276 -15.98542 0.60748 0.03291 -0.00890 -0.79361
1559195917.4127028 268.33009 -188.47714 -15.98635 0.60636 0.03291 -0.00888 -0.79446
1559195917.6127157 268.30635 -188.53849 -15.98866 0.60456 0.03292 -0.00898 -0.79583
1559195917.8127503 268.27363 -188.61752 -15.99191 0.60193 0.03281 -0.00899 -0.79783
1559195918.012546 268.23010 -188.71595 -15.99696 0.59819 0.03218 -0.00890 -0.80066
1559195918.2125561 268.17552 -188.82748 -16.00349 0.59330 0.03162 -0.00873 -0.80431
1559195918.4124818 268.10390 -188.95512 -16.00823 0.58720 0.03201 -0.00933 -0.80876
1559195918.6127558 268.02524 -189.07245 -16.01918 0.57971 0.03164 -0.00968 -0.81415
1559195918.8127422 267.93310 -189.23440 -16.03033 0.57147 0.03060 -0.00985 -0.81999
1559195919.0125935 267.83135 -189.40652 -16.03925 0.56240 0.03114 -0.00968 -0.82622
1559195919.2127287 267.72245 -189.59314 -16.04995 0.55250 0.03060 -0.00872 -0.83290
1559195919.4127362 267.59776 -189.79429 -16.06703 0.54175 0.02976 -0.00860 -0.83997
1559195919.6128354 267.45510 -189.98758 -16.07788 0.53030 0.03009 -0.00875 -0.84723
1559195919.8126352 267.29996 -190.18775 -16.09058 0.51780 0.02936 -0.00814 -0.85496
1559195920.012635 267.13512 -190.39803 -16.10446 0.50425 0.02702 -0.00593 -0.86312
1559195920.212591 266.94621 -190.60180 -16.11471 -0.49027 -0.02570 0.00428 0.87118
1559195920.4127512 266.73393 -190.80848 -16.12701 -0.47561 -0.02652 0.00675 0.87923
1559195920.6127198 266.51392 -191.02141 -16.14861 -0.45990 -0.02611 0.01004 0.88753
1559195920.812613 266.28316 -191.24099 -16.17082 -0.44373 -0.02424 0.01150 0.89576
1559195921.0128248 266.04791 -191.46346 -16.18191 -0.42700 -0.02312 0.00816 0.90392
1559195921.2126284 265.78625 -191.67057 -16.18753 -0.41078 -0.02638 0.00694 0.91133
1559195921.412561 265.51506 -191.86737 -16.21312 -0.39322 -0.02700 0.00521 0.91903
1559195921.612593 265.23509 -192.07712 -16.24403 -0.37471 -0.02428 -0.00228 0.92682
1559195921.8125365 264.92686 -192.26671 -16.25658 -0.35572 -0.02519 -0.00561 0.93424
1559195922.012686 264.59601 -192.44280 -16.26848 -0.33565 -0.02658 -0.00418 0.94160
1559195922.2127328 264.24449 -192.62298 -16.28632 -0.31407 -0.02679 -0.00435 0.94901
1559195922.4128022 263.87008 -192.79457 -16.30597 -0.29068 -0.02728 -0.00380 0.95642
1559195922.6127064 263.46025 -192.96961 -16.33495 -0.26483 -0.02433 -0.00357 0.96398
1559195922.8127413 263.01563 -193.14795 -16.36843 -0.23715 -0.01980 -0.00682 0.97125
1559195923.01267 262.53162 -193.28612 -16.38077 -0.20950 -0.01646 -0.00785 0.97764
1559195923.212772 261.99108 -193.42492 -16.40677 -0.18361 -0.01574 -0.00358 0.98287
1559195923.4129186 261.40571 -193.55355 -16.42272 -0.16174 -0.01582 -0.00031 0.98671
1559195923.6129215 260.78998 -193.68556 -16.44079 -0.14262 -0.01362 -0.00125 0.98968
1559195923.8127759 260.14181 -193.78532 -16.46201 -0.12669 -0.01164 0.00119 0.99187
1559195924.0129364 259.45849 -193.88394 -16.49314 -0.11400 -0.00871 0.00341 0.99344
1559195924.2128167 258.73946 -193.98352 -16.51814 -0.10341 -0.00792 0.00371 0.99460
1559195924.4128103 257.98643 -194.07324 -16.53158 -0.09470 -0.00988 0.00488 0.99544
1559195924.6129367 257.19893 -194.17551 -16.56442 -0.08784 -0.01001 0.00752 0.99606
1559195924.8128521 256.39789 -194.27761 -16.60096 -0.08157 -0.00857 0.00863 0.99659
1559195925.0128577 255.58609 -194.36135 -16.62161 -0.07542 -0.00697 0.00923 0.99709
1559195925.2129676 254.74585 -194.42767 -16.63629 -0.06867 -0.00637 0.01152 0.99755
1559195925.4127784 253.87793 -194.55811 -16.66031 -0.06190 -0.00606 0.01131 0.99800
1559195925.6127563 252.98254 -194.65467 -16.67626 -0.05505 -0.00565 0.01219 0.99839
1559195925.8154054 252.07383 -194.73479 -16.68263 -0.04780 -0.00471 0.01320 0.99876
1559195926.013073 251.16824 -194.80584 -16.68866 -0.04028 -0.00408 0.01252 0.99910
1559195926.2128606 250.23535 -194.86322 -16.69386 -0.03281 -0.00362 0.01216 0.99938
1559195926.41282 249.27968 -194.90391 -16.69611 -0.02519 -0.00369 0.01152 0.99961
1559195926.6130462 248.29308 -194.92261 -16.69828 -0.01870 -0.00399 0.01221 0.99974
1559195926.812964 247.28834 -194.92861 -16.70481 -0.01317 -0.00392 0.01157 0.99984
1559195927.0129616 246.25746 -194.92829 -16.71227 -0.00880 -0.00345 0.01101 0.99989
1559195927.2129793 245.17602 -194.93013 -16.72627 -0.00616 -0.00272 0.01061 0.99992
1559195927.4130304 244.09945 -194.92635 -16.73841 -0.00467 -0.00237 0.00974 0.99994
1559195927.615367 242.96244 -194.92454 -16.74956 -0.00388 -0.00282 0.00990 0.99994
1559195927.8129568 241.86445 -194.92610 -16.75930 -0.00360 -0.00305 0.00858 0.99995
1559195928.0129228 240.67453 -194.93317 -16.77725 -0.00368 -0.00336 0.00946 0.99994
1559195928.213211 239.52385 -194.93183 -16.79175 -0.00407 -0.00387 0.00915 0.99994
1559195928.4129345 238.26737 -194.94748 -16.81230 -0.00467 -0.00506 0.00946 0.99993
1559195928.6131043 237.08435 -194.95191 -16.83175 -0.00560 -0.00452 0.00935 0.99993
1559195928.8129551 235.77257 -194.97836 -16.85178 -0.00755 -0.00550 0.00995 0.99991
1559195929.0129683 234.55299 -194.99982 -16.87328 -0.00938 -0.00729 0.00881 0.99989
1559195929.2128878 233.18321 -195.03014 -16.89537 -0.01126 -0.00719 0.00936 0.99987
1559195929.4129398 231.78950 -195.05893 -16.91790 -0.01311 -0.00636 0.01005 0.99984
1559195929.6129286 230.37849 -195.10428 -16.94957 -0.01531 -0.00607 0.00986 0.99982
1559195929.8130782 228.93452 -195.15833 -16.98124 -0.01699 -0.00810 0.00834 0.99979
1559195930.0131063 227.49982 -195.20295 -17.01743 -0.01803 -0.00950 0.01009 0.99974
1559195930.2129366 226.06569 -195.24168 -17.05393 -0.01874 -0.00935 0.01033 0.99973
1559195930.4129384 224.63979 -195.28301 -17.08599 -0.01818 -0.00733 0.00945 0.99976
1559195930.6131222 223.21563 -195.31211 -17.10667 -0.01735 -0.00543 0.01118 0.99977
1559195930.8131516 221.78240 -195.33767 -17.12253 -0.01619 -0.00596 0.01291 0.99977
1559195931.0131662 220.34510 -195.36679 -17.13916 -0.01532 -0.00817 0.01282 0.99977
1559195931.2132528 218.92043 -195.39150 -17.16669 -0.01447 -0.00817 0.01316 0.99978
1559195931.413216 217.49071 -195.40660 -17.19821 -0.01327 -0.00842 0.01495 0.99976
1559195931.6130497 216.05518 -195.42760 -17.22475 -0.01194 -0.00909 0.01380 0.99979
1559195931.8130603 214.62306 -195.44197 -17.25828 -0.01017 -0.00748 0.01422 0.99982
1559195932.0129943 213.17369 -195.45189 -17.29110 -0.00878 -0.00793 0.01378 0.99984
1559195932.2134736 211.70777 -195.45991 -17.31749 -0.00720 -0.00942 0.01256 0.99985
1559195932.4131496 210.24182 -195.45787 -17.34613 -0.00634 -0.00792 0.01301 0.99986
1559195932.61315 208.74861 -195.45255 -17.37631 -0.00635 -0.00670 0.01363 0.99986
1559195932.8141458 207.22239 -195.44294 -17.40018 -0.00635 -0.00799 0.01560 0.99983
1559195933.0130029 205.70655 -195.43612 -17.42653 -0.00630 -0.00705 0.01703 0.99981
1559195933.2130003 204.16677 -195.43888 -17.45520 -0.00609 -0.00660 0.01861 0.99979
1559195933.4131262 202.59288 -195.45105 -17.47792 -0.00601 -0.00871 0.01844 0.99977
1559195933.613036 201.02705 -195.46837 -17.50592 -0.00539 -0.00829 0.01868 0.99978
1559195933.8130946 199.46409 -195.48083 -17.53912 -0.00477 -0.00669 0.01764 0.99981
1559195934.0130212 197.89933 -195.48322 -17.55911 -0.00507 -0.00497 0.01685 0.99983
1559195934.2132084 196.33809 -195.48517 -17.57185 -0.00442 -0.00646 0.01355 0.99988
1559195934.4132593 194.76894 -195.48572 -17.59040 -0.00283 -0.01170 0.01152 0.99986
1559195934.613009 193.22122 -195.47607 -17.63562 -0.00190 -0.01105 0.00859 0.99990
1559195934.8130312 191.66896 -195.45513 -17.68304 0.00025 -0.00520 0.01377 0.99989
1559195935.0129883 190.10536 -195.45228 -17.72249 0.00134 -0.00758 0.00627 0.99995
1559195935.2131402 188.50336 -195.41879 -17.75691 0.00226 -0.01188 0.01404 0.99983
1559195935.4130466 186.92372 -195.38705 -17.81948 0.00238 -0.00665 0.01284 0.99989
1559195935.6130838 185.33613 -195.34810 -17.85068 0.00385 -0.00855 0.01561 0.99983
1559195935.8131685 183.78258 -195.30276 -17.87921 0.00380 -0.00752 0.01866 0.99979
1559195936.0129678 182.22119 -195.28963 -17.92003 0.00344 0.00047 0.01634 0.99986
1559195936.21305 180.67327 -195.27380 -17.91059 0.00257 -0.00269 0.01500 0.99988
1559195936.4143507 179.13846 -195.26717 -17.90419 0.00177 -0.00537 0.01263 0.99990
1559195936.6133487 177.62509 -195.25838 -17.92604 0.00061 -0.00400 0.01232 0.99992
1559195936.8131623 176.12226 -195.24855 -17.93642 -0.00009 -0.00324 0.01285 0.99991
1559195937.0129871 174.61433 -195.23473 -17.93911 -0.00107 -0.00416 0.01284 0.99991
1559195937.2129562 173.12225 -195.22210 -17.93896 -0.00195 -0.00406 0.01304 0.99990
1559195937.4131072 171.62008 -195.21388 -17.94453 -0.00289 -0.00217 0.01274 0.99991
1559195937.6131256 170.08119 -195.20447 -17.94819 -0.00376 -0.00222 0.01270 0.99991
1559195937.8131282 168.54851 -195.20819 -17.94988 -0.00467 -0.00352 0.01181 0.99991
1559195938.0129647 167.04287 -195.20214 -17.95722 -0.00551 -0.00356 0.01247 0.99990
1559195938.2130282 165.54507 -195.20778 -17.96510 -0.00620 -0.00410 0.01260 0.99989
1559195938.4132154 164.06212 -195.21176 -17.97360 -0.00671 -0.00465 0.01219 0.99989
1559195938.6130612 162.57026 -195.22491 -17.98704 -0.00700 -0.00469 0.01256 0.99989
1559195938.8132272 161.10166 -195.23935 -18.00850 -0.00699 -0.00708 0.01445 0.99985
1559195939.0133126 159.60544 -195.25965 -18.03460 -0.00706 -0.01027 0.01558 0.99980
1559195939.2132783 158.10707 -195.26457 -18.07634 -0.00684 -0.00921 0.01479 0.99982
1559195939.4131484 156.60810 -195.27128 -18.11783 -0.00619 -0.00554 0.01636 0.99983
1559195939.6131444 155.10291 -195.27254 -18.14183 -0.00562 -0.00483 0.01640 0.99984
1559195939.8130934 153.61222 -195.28510 -18.15816 -0.00500 -0.00601 0.01523 0.99985
1559195940.013049 152.17205 -195.28893 -18.17766 -0.00479 -0.00667 0.01369 0.99987
1559195940.2131834 150.77514 -195.29186 -18.19952 -0.00365 -0.00249 0.01248 0.99991
1559195940.413154 149.39838 -195.28046 -18.21060 -0.00281 -0.00054 0.01694 0.99985
1559195940.6132386 148.02136 -195.27973 -18.20532 -0.00220 -0.00258 0.01506 0.99988
1559195940.8131719 146.65755 -195.26888 -18.21043 -0.00182 -0.00197 0.01563 0.99987
1559195941.0131354 145.27857 -195.26615 -18.21453 -0.00100 -0.00041 0.01425 0.99990
1559195941.212979 143.91122 -195.25881 -18.21232 -0.00071 0.00153 0.01363 0.99991
1559195941.4129531 142.47494 -195.24774 -18.20620 -0.00100 -0.00067 0.01406 0.99990
1559195941.6130953 141.02597 -195.23686 -18.20422 -0.00128 -0.00170 0.01491 0.99989
1559195941.813078 139.60381 -195.22918 -18.20909 -0.00150 -0.00080 0.01472 0.99989
1559195942.0131085 138.15085 -195.21572 -18.21411 -0.00181 -0.00051 0.01605 0.99987
1559195942.213281 136.65878 -195.20686 -18.21748 -0.00192 0.00009 0.01617 0.99987
1559195942.4131157 135.15663 -195.20362 -18.22344 -0.00161 -0.00033 0.01592 0.99987
1559195942.6131623 133.59225 -195.18879 -18.22626 -0.00093 -0.00137 0.01644 0.99986
1559195942.8131394 132.07704 -195.18192 -18.23076 -0.00028 -0.00116 0.01606 0.99987
1559195943.013342 130.57749 -195.17436 -18.23618 0.00031 -0.00078 0.01641 0.99986
1559195943.213201 129.07603 -195.16873 -18.23902 0.00097 -0.00218 0.01580 0.99987
1559195943.4130406 127.75685 -195.14686 -18.24230 0.00159 -0.00250 0.01509 0.99988
1559195943.6129487 126.34534 -195.12324 -18.25942 0.00185 -0.00161 0.01487 0.99989
1559195943.8131456 124.88119 -195.10786 -18.26697 0.00184 -0.00156 0.01402 0.99990
1559195944.0133073 123.50063 -195.09452 -18.27044 0.00176 -0.00285 0.01415 0.99989
1559195944.213355 122.17836 -195.08314 -18.27268 0.00182 -0.00346 0.01426 0.99989
1559195944.4134545 120.87929 -195.07087 -18.28398 0.00183 -0.00302 0.01515 0.99988
1559195944.6131139 119.64742 -195.04631 -18.29279 0.00187 -0.00242 0.01537 0.99988
1559195944.8132524 118.51520 -195.01758 -18.29370 0.00182 -0.00259 0.01583 0.99987
1559195945.01317 117.34137 -195.00026 -18.29608 0.00169 -0.00291 0.01608 0.99987
1559195945.213029 116.22545 -194.98625 -18.29951 0.00128 -0.00366 0.01614 0.99986
1559195945.4131968 115.08447 -194.97758 -18.30902 0.00080 -0.00361 0.01700 0.99985
1559195945.613307 114.04207 -194.96691 -18.31447 0.00035 -0.00319 0.01724 0.99985
1559195945.813257 112.94886 -194.97426 -18.32348 0.00018 -0.00288 0.01769 0.99984
1559195946.0132625 111.86269 -194.96782 -18.32548 -0.00034 -0.00252 0.01743 0.99984
1559195946.2133594 110.80098 -194.96536 -18.32822 -0.00075 -0.00299 0.01678 0.99985
1559195946.413242 109.81059 -194.96132 -18.33171 -0.00111 -0.00351 0.01699 0.99985
1559195946.6132584 108.82384 -194.95738 -18.33640 -0.00149 -0.00463 0.01786 0.99983
1559195946.813144 108.06107 -194.95528 -18.34024 -0.00163 -0.00585 0.01761 0.99983
1559195947.0132291 107.17299 -194.95533 -18.34976 -0.00190 -0.00610 0.01738 0.99983
1559195947.2132068 106.48981 -194.94845 -18.35408 -0.00208 -0.00632 0.01821 0.99981
1559195947.4132473 105.67715 -194.94395 -18.36264 -0.00236 -0.00610 0.01835 0.99981
1559195947.613255 105.06621 -194.93894 -18.36953 -0.00264 -0.00537 0.01790 0.99982
1559195947.8132422 104.38571 -194.93656 -18.37424 -0.00278 -0.00479 0.01811 0.99982
1559195948.013283 103.95002 -194.93414 -18.37730 -0.00304 -0.00438 0.01783 0.99983
1559195948.213243 103.41228 -194.92925 -18.37967 -0.00321 -0.00424 0.01840 0.99982
1559195948.4131658 102.99358 -194.92617 -18.38036 -0.00327 -0.00394 0.01945 0.99980
1559195948.613331 102.57251 -194.92446 -18.38318 -0.00334 -0.00430 0.01955 0.99979
1559195948.8131928 102.23094 -194.92669 -18.38502 -0.00337 -0.00396 0.01881 0.99981
1559195949.0132651 101.87035 -194.92435 -18.38644 -0.00341 -0.00374 0.01871 0.99981
1559195949.2132673 101.60754 -194.92264 -18.38896 -0.00347 -0.00366 0.01887 0.99981
1559195949.4132838 101.37315 -194.92292 -18.39095 -0.00352 -0.00364 0.01850 0.99982
1559195949.6132615 101.14523 -194.91780 -18.39242 -0.00353 -0.00342 0.01843 0.99982
1559195949.8132963 100.98261 -194.91855 -18.39338 -0.00358 -0.00294 0.01818 0.99982
1559195950.0132596 100.80354 -194.91810 -18.39581 -0.00362 -0.00199 0.01800 0.99983
1559195950.2131917 100.64281 -194.91719 -18.39512 -0.00375 -0.00188 0.01819 0.99983
1559195950.413302 100.50432 -194.91768 -18.39332 -0.00381 -0.00209 0.01844 0.99982
1559195950.6132123 100.34776 -194.91456 -18.39257 -0.00383 -0.00203 0.01889 0.99981
1559195950.814755 100.23180 -194.91490 -18.39276 -0.00376 -0.00190 0.01885 0.99981
1559195951.013307 100.11812 -194.91483 -18.39338 -0.00379 -0.00184 0.01878 0.99981
1559195951.2132041 100.01720 -194.91460 -18.39326 -0.00385 -0.00159 0.01897 0.99981
1559195951.4132113 99.91036 -194.91567 -18.39383 -0.00385 -0.00098 0.01902 0.99981
1559195951.6133757 99.80773 -194.91728 -18.39415 -0.00392 -0.00068 0.01892 0.99981
1559195951.8132954 99.68381 -194.91562 -18.39389 -0.00384 -0.00058 0.01872 0.99982
1559195952.0132623 99.55388 -194.91524 -18.39352 -0.00388 -0.00085 0.01843 0.99982
1559195952.2132137 99.41901 -194.91427 -18.39402 -0.00400 -0.00116 0.01870 0.99982
1559195952.4132757 99.27737 -194.91435 -18.39553 -0.00407 -0.00135 0.01900 0.99981
1559195952.6134522 99.13457 -194.91634 -18.39567 -0.00414 -0.00117 0.01880 0.99981
1559195952.813462 98.98200 -194.91719 -18.39656 -0.00429 -0.00104 0.01891 0.99981
1559195953.013379 98.83279 -194.91473 -18.39736 -0.00439 -0.00116 0.01887 0.99981
1559195953.2133977 98.68417 -194.91281 -18.39686 -0.00461 -0.00131 0.01869 0.99981
1559195953.4133027 98.53382 -194.91305 -18.39704 -0.00493 -0.00130 0.01886 0.99981
1559195953.6133192 98.39098 -194.91513 -18.39711 -0.00507 -0.00162 0.01882 0.99981
1559195953.813319 98.26156 -194.91561 -18.39794 -0.00529 -0.00169 0.01862 0.99981
1559195954.0132987 98.16967 -194.91595 -18.40176 -0.00536 -0.00163 0.01849 0.99981
1559195954.2132554 98.06363 -194.91649 -18.40231 -0.00550 -0.00155 0.01863 0.99981
1559195954.4136608 97.96961 -194.91792 -18.40318 -0.00567 -0.00157 0.01855 0.99981
1559195954.61341 97.89037 -194.91923 -18.40336 -0.00579 -0.00152 0.01857 0.99981
1559195954.8132796 97.82409 -194.91985 -18.40316 -0.00590 -0.00148 0.01862 0.99981
1559195955.0133176 97.76971 -194.92002 -18.40352 -0.00601 -0.00153 0.01862 0.99981
1559195955.213302 97.73053 -194.92056 -18.40412 -0.00609 -0.00149 0.01869 0.99981
1559195955.4133368 97.70411 -194.92045 -18.40460 -0.00616 -0.00152 0.01870 0.99980
1559195955.6132872 97.71595 -194.92281 -18.40844 -0.00607 -0.00152 0.01867 0.99981
1559195955.8134778 97.73116 -194.92259 -18.40692 -0.00607 -0.00148 0.01867 0.99981
1559195956.0132854 97.73410 -194.92261 -18.40620 -0.00608 -0.00138 0.01870 0.99981
1559195956.215142 97.73715 -194.92266 -18.40592 -0.00609 -0.00136 0.01870 0.99981
1559195956.4134479 97.73969 -194.92252 -18.40555 -0.00610 -0.00145 0.01873 0.99980
1559195956.6132793 97.74294 -194.92228 -18.40555 -0.00612 -0.00147 0.01874 0.99980
1559195956.813236 97.74076 -194.92210 -18.40552 -0.00613 -0.00147 0.01876 0.99980
1559195957.0132077 97.73779 -194.92203 -18.40548 -0.00612 -0.00151 0.01876 0.99980
1559195957.2134967 97.73720 -194.92220 -18.40558 -0.00609 -0.00155 0.01877 0.99980
1559195957.4134324 97.73254 -194.92223 -18.40626 -0.00608 -0.00152 0.01880 0.99980
1559195957.61332 97.73076 -194.92227 -18.40625 -0.00608 -0.00158 0.01877 0.99980
1559195957.8134623 97.73117 -194.92205 -18.40646 -0.00610 -0.00154 0.01883 0.99980
1559195958.0134335 97.72996 -194.92216 -18.40695 -0.00612 -0.00132 0.01886 0.99980
1559195958.2134626 97.72247 -194.92129 -18.40816 -0.00612 -0.00080 0.01882 0.99980
1559195958.41342 97.70488 -194.92018 -18.40652 -0.00617 -0.00093 0.01881 0.99980
1559195958.6134496 97.68263 -194.91979 -18.40562 -0.00619 -0.00110 0.01885 0.99980
1559195958.8134286 97.64921 -194.91939 -18.40468 -0.00624 -0.00086 0.01879 0.99980
1559195959.0133276 97.59512 -194.91924 -18.40485 -0.00628 -0.00006 0.01869 0.99981
1559195959.213393 97.51292 -194.91877 -18.40297 -0.00634 0.00076 0.01870 0.99980
1559195959.4135897 97.39442 -194.91872 -18.39978 -0.00646 0.00074 0.01860 0.99981
1559195959.6134667 97.24566 -194.91993 -18.40009 -0.00655 0.00080 0.01854 0.99981
1559195959.8160098 97.04673 -194.92170 -18.40244 -0.00663 0.00144 0.01836 0.99981
1559195960.0136015 96.81134 -194.92309 -18.40288 -0.00685 0.00202 0.01800 0.99981
1559195960.2134972 96.51294 -194.92478 -18.40262 -0.00698 0.00228 0.01816 0.99981
1559195960.4135692 96.19304 -194.92755 -18.39743 -0.00720 0.00201 0.01778 0.99981
1559195960.6133568 95.79016 -194.93181 -18.40365 -0.00729 0.00209 0.01744 0.99982
1559195960.8133066 95.34678 -194.93286 -18.40532 -0.00725 0.00229 0.01719 0.99982
1559195961.013302 94.94270 -194.96002 -18.40795 -0.00648 0.00158 0.01674 0.99984
1559195961.2133064 94.33701 -194.93363 -18.40898 -0.00691 0.00088 0.01791 0.99982
1559195961.4133098 93.77111 -194.93838 -18.41485 -0.00656 0.00100 0.01749 0.99983
1559195961.6134279 93.14239 -194.94076 -18.41322 -0.00630 -0.00008 0.01764 0.99982
1559195961.8134665 92.48489 -194.94389 -18.41785 -0.00593 -0.00060 0.01733 0.99983
1559195962.013415 91.76753 -194.94587 -18.42068 -0.00569 -0.00055 0.01757 0.99983
1559195962.2134576 91.03668 -194.94581 -18.43119 -0.00540 0.00035 0.01812 0.99982
1559195962.413532 90.23993 -194.94818 -18.43381 -0.00496 0.00063 0.01849 0.99982
1559195962.6134973 89.42875 -194.95123 -18.43713 -0.00464 0.00090 0.01740 0.99984
1559195962.813612 88.57722 -194.94767 -18.44093 -0.00431 0.00108 0.01779 0.99983
1559195963.0135539 87.68834 -194.93989 -18.44147 -0.00370 0.00045 0.01833 0.99983
1559195963.2133403 86.75426 -194.93378 -18.43930 -0.00294 -0.00014 0.01774 0.99984
1559195963.4157705 85.76754 -194.92774 -18.44216 -0.00216 -0.00033 0.01814 0.99983
1559195963.6134953 84.76725 -194.91356 -18.45162 -0.00147 0.00057 0.01885 0.99982
1559195963.8134525 83.72149 -194.90035 -18.45865 -0.00051 0.00208 0.01797 0.99984
1559195964.013204 82.63845 -194.88108 -18.45990 -0.00010 0.00277 0.01792 0.99984
1559195964.213475 81.52099 -194.87022 -18.46558 0.00031 0.00237 0.01645 0.99986
1559195964.4134014 80.37673 -194.86135 -18.46437 -0.00012 -0.00173 0.01201 0.99993
1559195964.6135771 79.21624 -194.83912 -18.46617 -0.00050 -0.00371 0.01599 0.99987
1559195964.813408 78.05155 -194.83019 -18.48064 -0.00033 0.00376 0.01573 0.99987
1559195965.013091 76.84919 -194.83713 -18.49786 -0.00048 0.00565 0.01307 0.99990
1559195965.2134366 75.61044 -194.81126 -18.47167 -0.00085 -0.00242 0.01917 0.99981
1559195965.4134514 74.36302 -194.81039 -18.47601 -0.00063 -0.00305 0.01886 0.99982
1559195965.613535 73.09551 -194.81989 -18.49670 -0.00111 -0.00069 0.01666 0.99986
1559195965.8135185 71.79744 -194.80437 -18.50457 -0.00210 -0.00155 0.02075 0.99978
1559195966.0137477 70.47420 -194.80383 -18.51101 -0.00281 -0.00241 0.02212 0.99975
1559195966.2135062 69.13017 -194.81512 -18.52538 -0.00404 -0.00090 0.01938 0.99980
1559195966.4135647 67.75193 -194.80841 -18.54817 -0.00545 -0.00080 0.02184 0.99975
1559195966.6134856 66.33908 -194.78587 -18.56355 -0.00639 -0.00136 0.02345 0.99970
1559195966.814033 64.90949 -194.83013 -18.56569 -0.00588 -0.00100 0.02303 0.99972
1559195967.0136614 63.46109 -194.83991 -18.56999 -0.00585 -0.00136 0.02589 0.99965
1559195967.2135997 61.99582 -194.85081 -18.57856 -0.00552 0.00059 0.02348 0.99971
1559195967.4134963 60.50089 -194.85017 -18.58753 -0.00507 -0.00059 0.02046 0.99978
1559195967.613496 58.99351 -194.82482 -18.59474 -0.00379 -0.00231 0.02257 0.99974
1559195967.8133147 57.47347 -194.82859 -18.61664 -0.00201 -0.00128 0.02180 0.99976
1559195968.0134864 55.94323 -194.80393 -18.63340 -0.00118 -0.00011 0.02162 0.99977
1559195968.2134955 54.39060 -194.77285 -18.64590 0.00047 -0.00317 0.02435 0.99970
1559195968.4134548 52.82074 -194.74895 -18.65662 0.00186 -0.00725 0.02508 0.99966
1559195968.6135483 51.25443 -194.71717 -18.69125 0.00306 0.00016 0.02517 0.99968
1559195968.8134835 49.66818 -194.68478 -18.70487 0.00436 0.00377 0.02370 0.99970
1559195969.0134482 48.05021 -194.65445 -18.68486 0.00569 -0.00148 0.02254 0.99973
1559195969.2135253 46.43320 -194.60725 -18.68596 0.00669 -0.00259 0.02253 0.99972
1559195969.4135265 44.80634 -194.55757 -18.70342 0.00748 -0.00008 0.02366 0.99969
1559195969.613556 43.15949 -194.50714 -18.71113 0.00822 0.00039 0.02491 0.99966
1559195969.8135602 41.49700 -194.44462 -18.70867 0.00916 -0.00139 0.03066 0.99949
1559195970.013538 39.83103 -194.41159 -18.71844 0.00857 0.00498 0.02115 0.99973
1559195970.2133636 38.14905 -194.42544 -18.68192 0.01012 0.00228 0.02381 0.99966
1559195970.4133115 36.42442 -194.28165 -18.70934 0.00859 -0.00243 0.02046 0.99975
1559195970.6135275 34.71224 -194.25581 -18.71760 0.00904 0.00107 0.02043 0.99975
1559195970.813561 32.97560 -194.23925 -18.72900 0.00937 0.00386 0.01881 0.99977
1559195971.0135908 31.20285 -194.14914 -18.71591 0.00844 0.00203 0.01734 0.99981
1559195971.2136264 29.41296 -194.14324 -18.71336 0.00686 -0.00012 0.01824 0.99981
1559195971.4137402 27.62271 -193.94857 -18.72068 0.00346 -0.00061 0.01992 0.99980
1559195971.6136708 25.81432 -194.05606 -18.74216 0.00264 0.00154 0.01958 0.99980
1559195971.8135881 23.99676 -194.09126 -18.72710 0.00137 -0.00004 0.01896 0.99982
1559195972.013646 22.14347 -193.94526 -18.74015 -0.00102 -0.00094 0.02027 0.99979
1559195972.2133431 20.30926 -193.97102 -18.73598 -0.00104 -0.00002 0.01933 0.99981
1559195972.413665 18.46261 -193.99053 -18.74240 -0.00088 0.00044 0.01814 0.99983
1559195972.6136825 16.61055 -193.98421 -18.75163 -0.00072 0.00143 0.01809 0.99984
1559195972.8135734 14.76263 -193.97546 -18.75178 -0.00066 0.00128 0.01771 0.99984
1559195973.0136678 12.89677 -193.97682 -18.73985 -0.00080 -0.00023 0.01721 0.99985
1559195973.2136736 11.03677 -193.98762 -18.75243 -0.00060 0.00078 0.01693 0.99986
1559195973.4136603 9.18248 -194.00140 -18.73446 -0.00009 -0.00029 0.01844 0.99983
1559195973.613953 7.31464 -193.95582 -18.73343 0.00012 0.00068 0.02123 0.99977
1559195973.8136122 5.46240 -193.94238 -18.73921 0.00058 0.00285 0.02061 0.99978
1559195974.0135608 3.59075 -193.94106 -18.72674 0.00082 0.00043 0.01871 0.99982
1559195974.213518 1.71884 -193.95622 -18.73077 0.00182 0.00124 0.01662 0.99986
1559195974.4135182 -0.19278 -193.90365 -18.73546 0.00205 0.00313 0.01721 0.99984
1559195974.6135912 -2.12196 -193.87139 -18.73166 0.00261 0.00228 0.01838 0.99983
1559195974.8137026 -4.06637 -193.83624 -18.73087 0.00288 0.00112 0.01772 0.99984
1559195975.0137124 -6.00970 -193.76299 -18.73080 0.00258 -0.00004 0.01875 0.99982
1559195975.2135558 -7.98575 -193.78582 -18.74844 0.00347 -0.00063 0.01761 0.99984
1559195975.413582 -9.96239 -193.75993 -18.76279 0.00359 -0.00055 0.01678 0.99985
1559195975.6136136 -11.93948 -193.72645 -18.77630 0.00365 0.00333 0.01579 0.99986
1559195975.8135707 -13.93253 -193.69982 -18.76043 0.00397 0.00091 0.01528 0.99988
1559195976.0136755 -15.93557 -193.63611 -18.76512 0.00369 -0.00148 0.01537 0.99987
1559195976.213665 -17.92238 -193.61647 -18.78364 0.00413 0.00074 0.01577 0.99987
1559195976.4135962 -19.90319 -193.53641 -18.78003 0.00401 0.00071 0.01622 0.99986
1559195976.613691 -21.88301 -193.52289 -18.77303 0.00433 -0.00043 0.01552 0.99987
1559195976.8136423 -23.85899 -193.44010 -18.77663 0.00386 -0.00032 0.01696 0.99985
1559195977.0135977 -25.83363 -193.36053 -18.79515 0.00325 0.00001 0.01707 0.99985
1559195977.21352 -27.78940 -193.36220 -18.79214 0.00327 -0.00087 0.01606 0.99987
1559195977.4135118 -29.72191 -193.36449 -18.79397 0.00340 0.00002 0.01468 0.99989
1559195977.6134772 -31.66227 -193.28476 -18.79500 0.00361 0.00037 0.01575 0.99987
1559195977.8136525 -33.57838 -193.28447 -18.79454 0.00466 0.00055 0.01326 0.99990
1559195978.0136347 -35.49227 -193.13922 -18.78234 0.00505 -0.00092 0.01529 0.99987
1559195978.2137039 -37.36016 -193.16469 -18.76558 0.00694 -0.00147 0.01379 0.99988
1559195978.4135942 -39.23292 -193.08701 -18.77173 0.00821 -0.00107 0.01446 0.99986
1559195978.6135204 -41.10946 -193.03807 -18.77480 0.01034 -0.00167 0.01536 0.99983
1559195978.8136525 -42.98836 -192.97709 -18.78674 0.01295 -0.00269 0.01406 0.99981
1559195979.013556 -44.85725 -192.93529 -18.79915 0.01641 -0.00423 0.01329 0.99977
1559195979.2135932 -46.70008 -192.80433 -18.81766 0.01998 -0.00218 0.01847 0.99963
1559195979.414599 -48.52387 -192.70331 -18.82895 0.02385 0.00015 0.01821 0.99955
1559195979.613689 -50.31013 -192.55222 -18.84396 0.02772 -0.00253 0.01518 0.99950
1559195979.813765 -52.08730 -192.49452 -18.83737 0.03278 -0.00309 0.01201 0.99939
1559195980.0138214 -53.81762 -192.30862 -18.85358 0.03704 -0.00219 0.01282 0.99923
1559195980.2135866 -55.53314 -192.13618 -18.86881 0.04119 -0.00233 0.01261 0.99907
1559195980.413649 -57.22840 -191.95597 -18.87730 0.04561 -0.00245 0.01443 0.99885
1559195980.613665 -58.89562 -191.76373 -18.88722 0.04979 -0.00240 0.01584 0.99863
1559195980.8137174 -60.55207 -191.56754 -18.89839 0.05349 -0.00167 0.01600 0.99844
1559195981.0136163 -62.18362 -191.36541 -18.91194 0.05578 -0.00209 0.01828 0.99827
1559195981.2152011 -63.80253 -191.15643 -18.92192 0.05715 -0.00227 0.01875 0.99819
1559195981.41355 -65.36962 -190.95737 -18.93570 0.05753 -0.00083 0.01887 0.99817
1559195981.6136267 -66.91805 -190.72090 -18.94156 0.05619 -0.00100 0.01972 0.99822
1559195981.8136384 -68.44686 -190.54693 -18.93144 0.05482 -0.00134 0.01799 0.99833
1559195982.0135815 -69.93383 -190.35945 -18.92685 0.05266 -0.00263 0.01734 0.99846
1559195982.2135916 -71.38705 -190.19639 -18.91649 0.05043 -0.00475 0.01693 0.99857
1559195982.4136295 -72.81293 -190.05121 -18.90413 0.04787 -0.00424 0.01548 0.99872
1559195982.6136026 -74.21694 -189.91232 -18.90406 0.04518 -0.00278 0.01563 0.99885
1559195982.8136635 -75.61126 -189.78779 -18.89641 0.04249 -0.00159 0.01530 0.99898
1559195983.0137024 -76.99487 -189.67357 -18.88333 0.03941 -0.00107 0.01473 0.99911
1559195983.213695 -78.34486 -189.56336 -18.87994 0.03640 -0.00126 0.01570 0.99921
1559195983.4135795 -79.66989 -189.45107 -18.87118 0.03339 -0.00172 0.01560 0.99932
1559195983.6137075 -80.96744 -189.36534 -18.87361 0.03048 -0.00174 0.01529 0.99942
1559195983.8137765 -82.25981 -189.28727 -18.87069 0.02770 -0.00140 0.01553 0.99949
1559195984.013651 -83.50967 -189.22430 -18.87035 0.02565 -0.00107 0.01643 0.99954
1559195984.213573 -84.71161 -189.17422 -18.87238 0.02438 -0.00037 0.01474 0.99959
1559195984.416441 -85.89586 -189.11617 -18.87474 0.02401 -0.00009 0.01433 0.99961
1559195984.6136343 -87.02117 -189.05455 -18.87183 0.02405 0.00073 0.01561 0.99959
1559195984.8150883 -88.12823 -188.99304 -18.86775 0.02500 0.00021 0.01611 0.99956
1559195985.013686 -89.17638 -188.93735 -18.87070 0.02736 -0.00192 0.01409 0.99952
1559195985.2135108 -90.17495 -188.87752 -18.86614 0.03137 -0.00313 0.01256 0.99942
1559195985.413546 -91.11973 -188.79831 -18.87393 0.03746 -0.00196 0.01230 0.99922
1559195985.6136699 -92.01660 -188.69738 -18.88052 0.04635 -0.00043 0.01141 0.99886
1559195985.8137245 -92.83810 -188.58139 -18.88504 0.05717 0.00009 0.01102 0.99830
1559195986.0136416 -93.56649 -188.43429 -18.87642 0.06888 -0.00087 0.01228 0.99755
1559195986.2136087 -94.27526 -188.29963 -18.87285 0.08137 -0.00066 0.00869 0.99665
1559195986.4136875 -94.89578 -188.12632 -18.85646 0.09458 -0.00050 0.00955 0.99547
1559195986.6164572 -95.43188 -187.92995 -18.84972 0.10896 -0.00053 0.01086 0.99399
1559195986.813748 -95.89791 -187.73103 -18.85219 0.12535 0.00232 0.01122 0.99205
1559195987.0136297 -96.31732 -187.52366 -18.84676 0.14205 0.00305 0.00654 0.98983
1559195987.213642 -96.75876 -187.28914 -18.84021 0.15982 0.00287 0.00613 0.98712
1559195987.4137504 -97.14541 -187.02731 -18.83751 0.17860 0.00327 0.00691 0.98389
1559195987.6137335 -97.49819 -186.75816 -18.83637 0.19808 0.00378 0.00626 0.98016
1559195987.8135948 -97.84489 -186.47930 -18.83425 0.21874 0.00362 0.00722 0.97575
1559195988.0136206 -98.19304 -186.18626 -18.83467 0.24012 0.00270 0.00677 0.97072
1559195988.2135653 -98.49880 -185.87854 -18.83951 0.26295 0.00310 0.00769 0.96477
1559195988.4147758 -98.83435 -185.55171 -18.83516 0.28728 0.00411 0.00740 0.95781
1559195988.6136334 -99.13486 -185.21136 -18.83139 0.31231 0.00281 0.00631 0.94996
1559195988.8137221 -99.38371 -184.84769 -18.83588 0.33854 0.00455 0.00586 0.94092
1559195989.013875 -99.59974 -184.47259 -18.84296 0.36697 0.00695 0.00517 0.93019
1559195989.2136045 -99.80871 -184.05994 -18.84378 0.39603 0.00661 0.00537 0.91820
1559195989.4137542 -100.04128 -183.59984 -18.84694 0.42625 0.00762 0.00451 0.90456
1559195989.6137195 -100.27540 -183.11820 -18.85312 0.45690 0.00643 0.00092 0.88950
1559195989.813659 -100.50648 -182.57802 -18.84986 0.48735 0.00615 0.00374 0.87318
1559195990.0135367 -100.70262 -182.01464 -18.85310 0.51904 0.00885 0.00402 0.85470
1559195990.2151663 -100.94821 -181.39242 -18.86399 0.55044 0.00687 -0.00135 0.83485
1559195990.4136987 -101.06837 -180.76274 -18.86216 0.58022 0.00689 0.00156 0.81443
1559195990.6135561 -101.16940 -180.08655 -18.86233 0.60875 0.00876 0.00305 0.79331
1559195990.8135781 -101.23467 -179.37402 -18.86369 0.63277 0.00715 0.00109 0.77431
1559195991.0141182 -101.29908 -178.60430 -18.85487 0.65219 0.00568 0.00121 0.75804
1559195991.21372 -101.32093 -177.81483 -18.85226 0.66692 0.00920 0.00320 0.74506
1559195991.4136622 -101.34194 -176.98461 -18.85031 0.67761 0.01037 0.00089 0.73535
1559195991.6136818 -101.33833 -176.12917 -18.84485 0.68532 0.00923 -0.00305 0.72818
1559195991.8136008 -101.31708 -175.21770 -18.83017 0.69045 0.01062 -0.00139 0.72330
1559195992.0141523 -101.29471 -174.27509 -18.81752 0.69583 0.00987 -0.00004 0.71814
1559195992.2135804 -101.27562 -173.31706 -18.81156 0.70136 0.00780 -0.00215 0.71276
1559195992.4136012 -101.25149 -172.32606 -18.79907 0.70685 0.00834 -0.00095 0.70731
1559195992.6141794 -101.17330 -171.32975 -18.78903 0.71157 0.00950 -0.00096 0.70255
1559195992.813766 -101.11246 -170.31128 -18.77923 0.71480 0.00921 -0.00084 0.69927
1559195993.013588 -101.05355 -169.27114 -18.77669 0.71647 0.01038 -0.00069 0.69754
1559195993.2135415 -100.99683 -168.22504 -18.77528 0.71700 0.01020 -0.00159 0.69699
1559195993.4136927 -100.95644 -167.15318 -18.76789 0.71753 0.00874 -0.00243 0.69647
1559195993.6136718 -100.88866 -166.05574 -18.74957 0.71772 0.00800 -0.00080 0.69629
1559195993.8143375 -100.83124 -164.92655 -18.73410 0.71749 0.00736 -0.00075 0.69653
1559195994.013611 -100.78043 -163.76635 -18.72255 0.71705 0.00743 -0.00184 0.69698
1559195994.213749 -100.73563 -162.54950 -18.71469 0.71647 0.00736 -0.00223 0.69758
1559195994.4138627 -100.69544 -161.29991 -18.69999 0.71597 0.00703 -0.00103 0.69809
1559195994.613629 -100.66227 -160.01278 -18.69104 0.71508 0.00694 -0.00020 0.69901
1559195994.8136582 -100.63965 -158.70084 -18.69202 0.71403 0.00798 -0.00029 0.70007
1559195995.01359 -100.62181 -157.36074 -18.68989 0.71286 0.00953 -0.00158 0.70124
1559195995.2136352 -100.61651 -156.03326 -18.67993 0.71193 0.01005 -0.00175 0.70218
1559195995.4138165 -100.60781 -154.64038 -18.66284 0.71178 0.00939 -0.00151 0.70234
1559195995.613806 -100.59765 -153.22736 -18.65400 0.71179 0.00947 -0.00105 0.70233
1559195995.8138452 -100.59279 -151.78850 -18.65337 0.71183 0.00924 0.00019 0.70229
1559195996.013649 -100.57608 -150.31960 -18.64320 0.71155 0.00858 0.00106 0.70258
1559195996.2135484 -100.56782 -148.84310 -18.63451 0.71015 0.01024 0.00109 0.70398
1559195996.4136617 -100.56241 -147.34530 -18.62841 0.70793 0.01237 0.00175 0.70617
1559195996.613772 -100.57104 -145.81699 -18.61489 0.70504 0.00963 0.00225 0.70910
1559195996.8137176 -100.56988 -144.27300 -18.59686 0.70143 0.01025 0.00271 0.71266
1559195997.0135686 -100.59404 -142.72489 -18.59507 0.69724 0.01127 0.00116 0.71674
1559195997.2136838 -100.65726 -141.15405 -18.57564 0.69300 0.00891 0.00205 0.72088
1559195997.4147823 -100.71411 -139.55077 -18.56255 0.68856 0.00858 0.00287 0.72512
1559195997.613807 -100.79733 -137.93786 -18.56357 0.68408 0.01066 0.00162 0.72933
1559195997.8136892 -100.91097 -136.29141 -18.56004 0.67967 0.01255 0.00121 0.73341
1559195998.0137181 -101.04946 -134.61822 -18.54510 0.67580 0.01251 0.00156 0.73698
1559195998.213833 -101.20110 -132.93667 -18.52878 0.67288 0.01372 0.00134 0.73962
1559195998.4140067 -101.38417 -131.25340 -18.52482 0.67123 0.01361 0.00153 0.74112
1559195998.6138527 -101.55490 -129.52164 -18.48949 0.67039 0.01181 0.00268 0.74191
1559195998.8137052 -101.74363 -127.81279 -18.47427 0.66998 0.01123 0.00306 0.74229
1559195999.0135875 -101.92787 -126.08652 -18.46335 0.66989 0.00982 0.00268 0.74239
1559195999.2137616 -102.11492 -124.38648 -18.44017 0.67034 0.00987 0.00269 0.74198
1559195999.4137373 -102.28207 -122.61340 -18.42751 0.67189 0.00847 0.00075 0.74060
1559195999.6136708 -102.42054 -120.81880 -18.41277 0.67444 0.00750 0.00045 0.73829
1559195999.8135962 -102.55917 -119.07387 -18.40459 0.67774 0.00914 0.00480 0.73523
1559196000.013719 -102.67762 -117.31667 -18.39721 0.68126 0.01007 0.00472 0.73195
1559196000.2164752 -102.78470 -115.55531 -18.39431 0.68399 0.01508 0.00187 0.72934
1559196000.4137533 -102.85121 -113.82117 -18.36282 0.68710 0.01534 0.00215 0.72640
1559196000.6137617 -102.91756 -112.07383 -18.33100 0.69035 0.01339 0.00854 0.72330
1559196000.8143063 -102.96059 -110.32824 -18.31360 0.69304 0.01024 0.00738 0.72079
1559196001.0136445 -103.00889 -108.59120 -18.31637 0.69562 0.01106 0.00185 0.71832
1559196001.2138987 -103.02301 -106.84679 -18.29852 0.69824 0.00949 -0.00053 0.71580
1559196001.4138434 -103.01031 -105.08940 -18.27685 0.70030 0.00712 0.00332 0.71380
1559196001.6138146 -102.99104 -103.32278 -18.27903 0.70266 0.00836 0.00753 0.71143
1559196001.8141966 -102.95876 -101.56551 -18.27762 0.70427 0.01072 0.00602 0.70983
1559196002.013822 -102.92568 -99.79460 -18.28154 0.70609 0.01429 0.00477 0.70796
1559196002.2138302 -102.89633 -97.98560 -18.26083 0.70740 0.01250 0.00572 0.70668
1559196002.4139876 -102.90187 -96.14624 -18.26040 0.70874 0.01125 0.00421 0.70537
1559196002.6136749 -102.83778 -94.34491 -18.24592 0.70938 0.01287 0.00396 0.70470
1559196002.8138058 -102.80241 -92.49689 -18.23120 0.71025 0.01095 0.00351 0.70386
1559196003.0139112 -102.75982 -90.64281 -18.21496 0.71101 0.01182 0.00425 0.70306
1559196003.2139373 -102.70735 -88.79025 -18.20604 0.71173 0.01044 0.00425 0.70236
1559196003.4137826 -102.65041 -86.93956 -18.19331 0.71247 0.00813 0.00569 0.70164
1559196003.613767 -102.59463 -85.09290 -18.18981 0.71334 0.00938 0.00530 0.70073
1559196003.813798 -102.53769 -83.22287 -18.18689 0.71406 0.01049 0.00492 0.69999
1559196004.0138848 -102.47267 -81.33471 -18.17497 0.71476 0.01178 0.00562 0.69925
1559196004.2138484 -102.40077 -79.43623 -18.16325 0.71558 0.01317 0.00661 0.69838
1559196004.4139912 -102.32383 -77.55065 -18.14859 0.71639 0.01400 0.00700 0.69752
1559196004.6138532 -102.24073 -75.65517 -18.13328 0.71713 0.01408 0.00653 0.69677
1559196004.8137376 -102.14855 -73.75453 -18.11847 0.71793 0.01419 0.00599 0.69594
1559196005.0138528 -102.05213 -71.84243 -18.10876 0.71881 0.01376 0.00580 0.69504
1559196005.2138698 -101.95832 -69.96013 -18.09795 0.72000 0.01238 0.00378 0.69386
1559196005.4138858 -101.86388 -68.09543 -18.07911 0.72148 0.01086 0.00173 0.69235
1559196005.6139266 -101.75510 -66.25763 -18.05606 0.72319 0.00878 0.00245 0.69059
1559196005.813825 -101.63234 -64.43627 -18.03536 0.72514 0.00855 0.00466 0.68853
1559196006.0138812 -101.49999 -62.60876 -18.02723 0.72705 0.00899 0.00518 0.68650
1559196006.2135987 -101.36112 -60.79665 -18.02204 0.72925 0.00880 0.00450 0.68418
1559196006.4137273 -101.22031 -58.97697 -18.00824 0.73137 0.00929 0.00454 0.68190
1559196006.6139145 -101.06180 -57.15766 -17.99822 0.73361 0.01097 0.00435 0.67947
1559196006.8137503 -100.89158 -55.33338 -17.99006 0.73581 0.01140 0.00590 0.67706
1559196007.0138657 -100.72162 -53.49846 -17.98393 0.73783 0.01224 0.00660 0.67485
1559196007.2138298 -100.52864 -51.66437 -17.97561 0.73981 0.01210 0.00748 0.67267
1559196007.4139078 -100.32658 -49.80487 -17.97121 0.74182 0.01282 0.00777 0.67043
1559196007.6136792 -100.10068 -47.94288 -17.96312 0.74351 0.01382 0.00835 0.66853
1559196007.8136322 -99.87414 -46.07789 -17.94715 0.74493 0.01305 0.00869 0.66695
1559196008.013696 -99.63589 -44.21723 -17.94476 0.74635 0.01371 0.00801 0.66536
1559196008.2136905 -99.38689 -42.38036 -17.93503 0.74744 0.01405 0.00631 0.66415
1559196008.4138093 -99.13006 -40.55671 -17.92693 0.74810 0.01493 0.00642 0.66339
1559196008.6140883 -98.88578 -38.77780 -17.91873 0.74839 0.01444 0.00590 0.66308
1559196008.8137555 -98.64087 -37.01492 -17.90585 0.74865 0.01563 0.00505 0.66276
1559196009.0137823 -98.39979 -35.24340 -17.88802 0.74883 0.01614 0.00419 0.66256
1559196009.2138863 -98.16856 -33.51319 -17.86243 0.74891 0.01426 0.00324 0.66251
1559196009.4137752 -97.93211 -31.81654 -17.84620 0.74854 0.01301 0.00382 0.66296
1559196009.613845 -97.70789 -30.15857 -17.82726 0.74801 0.01296 0.00414 0.66355
1559196009.8136635 -97.48707 -28.52896 -17.81499 0.74733 0.01406 0.00487 0.66429
1559196010.0137398 -97.29232 -26.84469 -17.80494 0.74638 0.01362 0.00580 0.66536
1559196010.2138343 -97.11026 -25.18156 -17.79882 0.74548 0.01451 0.00543 0.66634
1559196010.413795 -96.92652 -23.46367 -17.78951 0.74473 0.01506 0.00553 0.66718
1559196010.613734 -96.74880 -21.73272 -17.77810 0.74393 0.01361 0.00627 0.66809
1559196010.8154233 -96.57316 -20.05740 -17.77053 0.74328 0.01303 0.00747 0.66881
1559196011.013954 -96.39806 -18.41462 -17.76638 0.74279 0.01130 0.00824 0.66938
1559196011.213854 -96.23548 -16.85423 -17.76897 0.74306 0.01084 0.00796 0.66909
1559196011.4138715 -96.08216 -15.35372 -17.77743 0.74389 0.01160 0.00799 0.66816
1559196011.6136768 -95.90206 -13.85775 -17.77249 0.74502 0.01250 0.00709 0.66689
1559196011.81404 -95.70990 -12.37191 -17.75939 0.74729 0.01287 0.00540 0.66435
1559196012.0140402 -95.53117 -10.94974 -17.76234 0.75125 0.01088 0.00526 0.65991
1559196012.2139266 -95.32830 -9.57109 -17.76711 0.75715 0.00983 0.00792 0.65312
1559196012.4138408 -95.09027 -8.24063 -17.77407 0.76537 0.01067 0.00955 0.64344
1559196012.6138382 -94.79890 -6.98106 -17.76449 0.77486 0.01283 0.01094 0.63191
1559196012.8138816 -94.47732 -5.69306 -17.76287 0.78666 0.01402 0.01163 0.61712
1559196013.013761 -94.11759 -4.48390 -17.76555 0.80029 0.01758 0.01056 0.59926
1559196013.2138407 -93.71987 -3.49175 -17.76164 0.81516 0.01931 0.00780 0.57886
1559196013.4137623 -93.25111 -2.50974 -17.73950 0.83056 0.01688 0.00909 0.55661
1559196013.6140568 -92.73685 -1.75232 -17.70933 0.84613 0.01466 0.00984 0.53269
1559196013.813824 -92.15606 -0.87166 -17.71191 0.86198 0.01590 0.00307 0.50668
1559196014.0139194 -91.48821 0.11771 -17.72202 0.87727 0.01780 -0.00114 0.47967
1559196014.2139747 -90.73802 1.14264 -17.70916 0.89146 0.01727 0.00296 0.45275
1559196014.4140606 -89.92136 2.19236 -17.70391 0.90506 0.01822 0.00403 0.42487
1559196014.6139007 -89.09160 2.96603 -17.70805 0.91793 0.02148 0.00018 0.39617
1559196014.8137898 -88.15094 3.81091 -17.71001 0.92979 0.02434 0.00181 0.36727
1559196015.0139952 -87.20127 4.49990 -17.69487 0.94110 0.02115 0.00505 0.33742
1559196015.2142184 -86.14458 5.28334 -17.68979 0.95147 0.01888 0.00711 0.30706
1559196015.4140754 -85.07604 5.85881 -17.69630 0.96100 0.01970 0.00647 0.27578
1559196015.6140141 -83.90394 6.49213 -17.71903 0.96952 0.02039 0.00673 0.24408
1559196015.8138683 -82.66955 7.07790 -17.73737 0.97712 0.01704 0.00940 0.21181
1559196016.0138364 -81.39363 7.55286 -17.74867 0.98352 0.01675 0.01239 0.17957
1559196016.2139773 -80.05029 8.04572 -17.78907 0.98895 0.01682 0.00807 0.14705
1559196016.414161 -78.67765 8.37552 -17.82417 0.99298 0.01612 0.00397 0.11709
1559196016.6142871 -77.29191 8.58506 -17.82547 0.99608 0.01354 0.00454 0.08728
1559196016.8140724 -75.89981 8.67459 -17.83334 0.99831 0.01074 0.00194 0.05709
1559196017.014254 -74.44921 8.72639 -17.84443 0.99963 0.00772 0.00107 0.02620
1559196017.214205 -72.98901 8.64348 -17.84579 0.99995 0.00861 0.00451 0.00012
1559196017.4141111 -71.46701 8.54741 -17.86878 0.99975 0.00921 0.00639 -0.01921
1559196017.6142561 -69.90285 8.43798 -17.90997 0.99942 0.00554 0.00689 -0.03303
1559196017.814092 -68.35128 8.26678 -17.94165 0.99907 0.00509 0.00697 -0.04215
1559196018.0141528 -66.77239 8.07064 -17.98004 0.99879 0.00544 0.00703 -0.04837
1559196018.2142336 -65.18174 7.87824 -18.02029 0.99856 0.00459 0.00741 -0.05285
1559196018.4139898 -63.62406 7.66583 -18.05001 0.99845 0.00682 0.00818 -0.05456
1559196018.6141639 -62.01820 7.45512 -18.09327 0.99846 0.00633 0.00895 -0.05430
1559196018.8150632 -60.41822 7.25107 -18.13341 0.99857 0.00586 0.00936 -0.05223
1559196019.0143163 -58.80312 7.07660 -18.17027 0.99876 0.00870 0.00965 -0.04797
1559196019.2141397 -57.22440 6.90085 -18.21094 0.99900 0.00936 0.00930 -0.04261
1559196019.4140985 -55.62463 6.75668 -18.25391 0.99924 0.00910 0.00878 -0.03688
1559196019.6140342 -54.01603 6.60745 -18.28991 0.99943 0.00992 0.00785 -0.03118
1559196019.8142028 -52.38377 6.51489 -18.30187 0.99958 0.01094 0.00706 -0.02597
1559196020.0140903 -50.76504 6.43736 -18.30503 0.99968 0.01058 0.00944 -0.02090
1559196020.2140598 -49.11360 6.45124 -18.32486 0.99973 0.01179 0.01001 -0.01709
1559196020.4140975 -47.35768 6.45679 -18.37398 0.99981 0.00985 0.00797 -0.01491
1559196020.6139004 -45.55030 6.44131 -18.41376 0.99978 0.01299 0.00775 -0.01456
1559196020.8141387 -43.69282 6.42666 -18.45834 0.99979 0.01237 0.00754 -0.01479
1559196021.0141668 -41.77841 6.39312 -18.50156 0.99980 0.01060 0.00757 -0.01540
1559196021.2141695 -39.79618 6.33125 -18.54752 0.99978 0.01038 0.00984 -0.01556
1559196021.414247 -37.81598 6.25284 -18.59901 0.99975 0.01113 0.01063 -0.01607
1559196021.6142826 -35.83202 6.17442 -18.65374 0.99976 0.01370 0.00699 -0.01584
1559196021.814298 -33.86093 6.12519 -18.69173 0.99971 0.01786 0.00723 -0.01466
1559196022.014176 -31.83976 6.00513 -18.72441 0.99968 0.02105 0.00949 -0.01023
1559196022.2142358 -29.85599 5.94977 -18.77079 0.99976 0.02050 0.00448 -0.00662
1559196022.4142056 -27.90426 5.95407 -18.79200 0.99974 0.02132 0.00650 -0.00383
1559196022.614196 -25.96715 5.97429 -18.81591 0.99974 0.02255 0.00419 -0.00133
1559196022.8142529 -23.90322 5.87895 -18.84496 0.99971 0.02382 0.00317 0.00186
1559196023.0142195 -21.89048 5.89515 -18.86509 0.99980 0.01792 0.00810 0.00444
1559196023.2145321 -19.86554 5.89898 -18.90267 0.99975 0.01982 0.00851 0.00623
1559196023.414292 -17.83833 5.91895 -18.95787 0.99983 0.01690 0.00339 0.00679
1559196023.6141639 -15.79255 5.93432 -18.98329 0.99985 0.01510 0.00683 0.00561
1559196023.8140826 -13.74302 5.94157 -19.02534 0.99984 0.01354 0.01164 0.00291
1559196024.0142593 -11.70731 5.92853 -19.09399 0.99984 0.01459 0.01004 -0.00009
1559196024.214288 -9.68589 5.90795 -19.16675 0.99983 0.01532 0.00955 -0.00305
1559196024.4143267 -7.65511 5.88514 -19.21340 0.99986 0.01248 0.00952 -0.00566
1559196024.6143472 -5.62268 5.82730 -19.26295 0.99989 0.01073 0.00693 -0.00727
1559196024.814293 -3.58465 5.82407 -19.30403 0.99989 0.01143 0.00617 -0.00761
1559196025.0143404 -1.56411 5.73163 -19.33212 0.99987 0.01274 0.00714 -0.00642
1559196025.214279 0.51691 5.69743 -19.37284 0.99984 0.01649 0.00545 -0.00525
1559196025.4142022 2.58851 5.69210 -19.40725 0.99983 0.01669 0.00724 -0.00231
1559196025.614218 4.62387 5.60431 -19.41816 0.99984 0.01525 0.00839 0.00304
1559196025.8144166 6.74265 5.60824 -19.45729 0.99985 0.01200 0.00937 0.00879
1559196026.0143664 8.87527 5.63704 -19.50304 0.99982 0.01213 0.00621 0.01347
1559196026.2145653 11.00311 5.71879 -19.55000 0.99974 0.01380 0.00366 0.01797
1559196026.4142587 13.03934 5.89225 -19.57882 0.99966 0.01188 0.00786 0.02180
1559196026.6142888 15.31234 5.88983 -19.60277 0.99951 0.01236 0.01033 0.02689
1559196026.8143923 17.51889 5.96387 -19.66521 0.99941 0.01278 0.00773 0.03091
1559196027.014218 19.71999 6.09187 -19.69920 0.99929 0.01019 0.01143 0.03451
1559196027.2143464 21.75750 6.37665 -19.72743 0.99930 0.00928 0.00705 0.03550
1559196027.414176 23.96213 6.53326 -19.75831 0.99922 0.00702 0.00857 0.03803
1559196027.614194 26.37504 6.57663 -19.83077 0.99910 0.01109 0.00676 0.04033
1559196027.8141978 28.69959 6.70419 -19.87838 0.99908 0.01070 0.00521 0.04123
1559196028.014169 30.86438 6.97935 -19.91722 0.99917 0.00617 0.00740 0.03960
1559196028.2143512 33.17570 7.12988 -19.90810 0.99921 0.00748 0.00882 0.03789
1559196028.4143667 35.55155 7.18544 -19.97630 0.99925 0.01345 0.00453 0.03610
1559196028.614277 37.86784 7.30998 -20.00738 0.99929 0.01786 0.00071 0.03326
1559196028.814571 40.19843 7.48048 -20.02386 0.99944 0.01581 -0.00147 0.02955
1559196029.014941 42.50588 7.52940 -20.00696 0.99953 0.01281 -0.00280 0.02786
1559196029.214335 44.83087 7.62424 -19.99660 0.99961 0.01146 0.00392 0.02532
1559196029.414356 47.18239 7.71471 -20.02272 0.99966 0.01121 0.00421 0.02321
1559196029.6159792 49.53189 7.77829 -20.05297 0.99963 0.01379 0.00331 0.02302
1559196029.8144455 51.85130 7.86346 -20.06833 0.99964 0.01257 0.00490 0.02329
1559196030.0143018 54.14866 7.91476 -20.09318 0.99962 0.01181 0.00563 0.02434
1559196030.2142878 56.50204 8.05601 -20.13308 0.99963 0.01066 0.00455 0.02447
1559196030.414285 58.83659 8.15430 -20.15892 0.99966 0.00841 0.00602 0.02413
1559196030.6142974 61.15745 8.21509 -20.17780 0.99970 0.00658 0.00785 0.02237
1559196030.814172 63.49124 8.28917 -20.21797 0.99974 0.00637 0.00801 0.02036
1559196031.014572 65.83399 8.36424 -20.26143 0.99977 0.00555 0.00634 0.01956
1559196031.2141743 68.19239 8.41779 -20.29187 0.99980 0.00300 0.00531 0.01914
1559196031.416882 70.56472 8.46303 -20.31535 0.99974 0.00786 0.01033 0.01896
1559196031.6143079 72.88891 8.45795 -20.37046 0.99972 0.01281 -0.00082 0.01997
1559196031.8141274 75.23504 8.55625 -20.37675 0.99965 0.01434 -0.00458 0.02163
1559196032.0142858 77.65423 8.64936 -20.35184 0.99953 0.01693 0.00751 0.02431
1559196032.2146175 80.06423 8.73846 -20.39674 0.99948 0.01630 0.00979 0.02605
1559196032.414206 82.45145 8.85609 -20.45942 0.99954 0.01412 0.00282 0.02688
1559196032.6142693 84.87274 8.90881 -20.47195 0.99948 0.01466 0.00037 0.02870
1559196032.8142831 87.28075 9.10196 -20.47543 0.99950 0.01106 0.00314 0.02949
1559196033.0143704 89.68591 9.21568 -20.48747 0.99949 0.01174 0.00211 0.02955
1559196033.214983 92.11608 9.27522 -20.49258 0.99938 0.01368 0.00566 0.03189
1559196033.4141355 94.42332 9.46103 -20.53930 0.99928 0.01530 0.00866 0.03376
1559196033.614259 96.82046 9.62151 -20.59433 0.99924 0.01296 0.00636 0.03632
1559196033.8143494 99.13952 9.77392 -20.63121 0.99914 0.01395 0.00541 0.03869
1559196034.0143347 101.50814 9.94592 -20.66024 0.99907 0.01299 0.00576 0.04070
1559196034.2142522 103.87743 10.12753 -20.68285 0.99907 0.01174 0.00397 0.04128
1559196034.4143462 106.24170 10.29945 -20.69999 0.99904 0.01277 0.00403 0.04178
1559196034.6142755 108.59303 10.47536 -20.71855 0.99901 0.01291 0.00622 0.04217
1559196034.814258 110.97337 10.60438 -20.74296 0.99898 0.01294 0.00562 0.04299
1559196035.014277 113.29669 10.79183 -20.76961 0.99893 0.01389 0.00411 0.04392
1559196035.2141833 115.50916 11.02120 -20.79097 0.99891 0.01366 0.00296 0.04465
1559196035.4142277 117.81834 11.22747 -20.79317 0.99884 0.01379 0.00370 0.04609
1559196035.614254 120.04533 11.43330 -20.81976 0.99870 0.01432 0.00499 0.04876
1559196035.8143382 122.34501 11.64964 -20.83927 0.99856 0.01465 0.00663 0.05123
1559196036.0143209 124.54810 11.85979 -20.86991 0.99843 0.01443 0.00665 0.05377
1559196036.2142534 126.90756 12.05666 -20.94241 0.99827 0.01548 0.00604 0.05648
1559196036.4143572 129.09948 12.40146 -20.92130 0.99816 0.01466 0.00786 0.05834
1559196036.6141994 131.32461 12.70968 -20.93193 0.99801 0.01388 0.00951 0.06073
1559196036.814179 133.73963 12.61898 -21.11148 0.99764 0.01760 0.00778 0.06588
1559196037.0143638 135.80552 13.04168 -21.05049 0.99758 0.01584 0.00485 0.06754
1559196037.2145762 137.93370 13.45767 -21.00923 0.99742 0.01484 0.00391 0.07008
1559196037.4144871 140.13748 13.72450 -21.02240 0.99717 0.01464 0.00464 0.07357
1559196037.6143026 142.30276 14.09854 -21.04157 0.99696 0.01416 0.00747 0.07626
1559196037.8145292 144.39601 14.55592 -21.06860 0.99684 0.01278 0.00786 0.07805
1559196038.0142982 146.30055 15.11319 -21.09217 0.99681 0.01051 0.00504 0.07898
1559196038.2146397 148.72595 15.16284 -21.08075 0.99639 0.01388 0.00368 0.08365
1559196038.4143686 150.77543 15.57718 -21.13032 0.99637 0.01266 0.00515 0.08405
1559196038.6154726 152.98198 15.85951 -21.14474 0.99617 0.01383 0.00649 0.08605
1559196038.8144014 154.93188 16.39139 -21.18506 0.99612 0.01188 0.00474 0.08706
1559196039.0145307 157.24691 16.58424 -21.16550 0.99566 0.01460 0.00470 0.09183
1559196039.2145624 159.40501 16.97740 -21.20870 0.99528 0.01504 0.00629 0.09564
1559196039.414431 161.55397 17.38847 -21.25271 0.99485 0.01664 0.00518 0.09989
1559196039.6146312 163.63617 17.89823 -21.26711 0.99441 0.01509 0.00222 0.10446
1559196039.8144224 165.55692 18.49239 -21.27818 0.99398 0.01292 0.00219 0.10875
1559196040.014231 167.73166 18.91578 -21.28089 0.99328 0.01300 0.00673 0.11479
1559196040.2144713 169.58796 19.65157 -21.33208 0.99285 0.01033 0.00155 0.11891
1559196040.4142308 171.95545 20.00069 -21.28531 0.99199 0.01117 0.00089 0.12585
1559196040.614428 173.62331 20.78899 -21.37173 0.99155 0.01289 0.00564 0.12899
1559196040.8146758 175.85848 21.35799 -21.40405 0.99092 0.01196 0.00996 0.13352
1559196041.0144534 178.40603 21.73532 -21.37872 0.99074 0.01542 0.00982 0.13453
1559196041.214385 180.67853 22.22799 -21.40513 0.99071 0.01586 0.00590 0.13496
1559196041.4146378 182.29017 23.07561 -21.44293 0.99094 0.01101 0.00530 0.13377
1559196041.614676 185.08996 23.39967 -21.47581 0.99092 0.00737 0.00638 0.13408
1559196041.8144462 187.20248 24.08630 -21.49710 0.99145 0.00959 0.00465 0.13004
1559196042.0143104 189.56317 24.56026 -21.52582 0.99148 0.01595 0.00214 0.12922
1559196042.2183444 191.86781 25.12245 -21.56412 0.99129 0.01595 0.00521 0.13064
1559196042.4145133 194.11486 25.60279 -21.61224 0.99093 0.01401 0.00870 0.13340
1559196042.6146433 196.32996 26.10878 -21.61810 0.99049 0.01444 0.00508 0.13675
1559196042.8145714 198.44415 26.94741 -21.65971 0.99028 0.01218 0.00367 0.13853
1559196043.0144467 200.69176 27.44000 -21.62931 0.98952 0.01397 0.00595 0.14360
1559196043.214465 202.87353 28.00062 -21.64857 0.98883 0.01481 0.00542 0.14824
1559196043.4144046 204.99381 28.64433 -21.65131 0.98816 0.01563 0.00627 0.15247
1559196043.6143472 207.05896 29.39294 -21.67290 0.98764 0.01155 0.00690 0.15613
1559196043.8144822 209.17024 29.98732 -21.68346 0.98675 0.00931 0.00440 0.16192
1559196044.015462 211.21802 30.69468 -21.73492 0.98607 0.00731 0.00077 0.16618
1559196044.2145774 213.32475 31.38558 -21.69328 0.98520 0.00949 0.00821 0.17095
1559196044.414491 215.35663 32.16217 -21.74672 0.98460 0.01369 0.00756 0.17413
1559196044.6145911 217.44490 32.89530 -21.74628 0.98408 0.01644 0.00513 0.17688
1559196044.8147368 219.56766 33.55179 -21.75920 0.98346 0.01853 0.00514 0.18009
1559196045.014806 221.62712 34.30837 -21.76217 0.98302 0.01932 0.00525 0.18241
1559196045.214618 223.58995 35.16362 -21.78911 0.98272 0.01790 0.00429 0.18420
1559196045.4147644 225.64967 35.92086 -21.77606 0.98225 0.01860 0.00422 0.18660
1559196045.6145196 227.71491 36.67168 -21.78407 0.98186 0.01846 0.00287 0.18868
1559196045.8167515 229.71914 37.48807 -21.76272 0.98169 0.01645 -0.00040 0.18977
1559196046.0144448 231.64399 38.35623 -21.74710 0.98188 0.01341 -0.00118 0.18904
1559196046.2143478 233.72972 39.07729 -21.72595 0.98180 0.01265 0.00142 0.18947
1559196046.4143474 235.77498 39.87902 -21.75074 0.98206 0.01314 0.00009 0.18811
1559196046.6145284 237.79610 40.65772 -21.71633 0.98227 0.01300 0.00374 0.18699
1559196046.8144119 239.83220 41.43714 -21.72373 0.98245 0.01203 0.00554 0.18605
1559196047.0144694 241.86512 42.16017 -21.74207 0.98259 0.01308 0.00349 0.18528
1559196047.2143688 243.89408 42.90934 -21.76258 0.98273 0.01236 0.00394 0.18460
1559196047.4144769 245.89476 43.71008 -21.77008 0.98297 0.01134 -0.00025 0.18343
1559196047.6144006 247.88074 44.45204 -21.76682 0.98305 0.01337 -0.00280 0.18281
1559196047.814494 249.88157 45.16225 -21.72668 0.98308 0.01366 0.00117 0.18265
1559196048.0144813 251.86831 45.90327 -21.72659 0.98329 0.01234 0.00255 0.18163
1559196048.2144117 253.85049 46.61815 -21.73482 0.98356 0.01177 0.00260 0.18018
1559196048.4144247 255.83108 47.38841 -21.75910 0.98389 0.01192 0.00236 0.17837
1559196048.6145732 257.80544 48.04772 -21.75487 0.98402 0.01295 0.00204 0.17757
1559196048.81454 259.77704 48.75011 -21.76225 0.98420 0.01502 0.00039 0.17641
1559196049.0143812 261.74048 49.45176 -21.75958 0.98436 0.01597 0.00162 0.17545
1559196049.2143755 263.70855 50.15139 -21.76881 0.98443 0.01597 0.00283 0.17502
1559196049.4144769 265.67467 50.86661 -21.76735 0.98453 0.01443 0.00139 0.17464
1559196049.61446 267.64754 51.54542 -21.77826 0.98455 0.01469 0.00154 0.17447
1559196049.8145275 269.65396 52.24896 -21.77273 0.98452 0.01650 0.00498 0.17444
1559196050.0143738 271.63531 52.97000 -21.79868 0.98446 0.01620 -0.00030 0.17486
1559196050.2147455 273.63405 53.67458 -21.78359 0.98432 0.01636 -0.00167 0.17563
1559196050.4144666 275.64168 54.39207 -21.75722 0.98420 0.01552 0.00238 0.17636
1559196050.6144583 277.64533 55.11243 -21.75885 0.98413 0.01350 0.00407 0.17686
1559196050.8144078 279.63718 55.82215 -21.76825 0.98410 0.01427 0.00196 0.17701
1559196051.0144322 281.64372 56.51114 -21.77851 0.98401 0.01406 0.00205 0.17754
1559196051.214425 283.66507 57.15207 -21.79106 0.98384 0.01417 0.00373 0.17843
1559196051.4144895 285.64907 57.91138 -21.78536 0.98391 0.01381 0.00404 0.17806
1559196051.6147165 287.64729 58.58276 -21.81221 0.98379 0.01327 0.00466 0.17879
1559196051.81437 289.63794 59.15955 -21.84589 0.98359 0.01362 0.00396 0.17983
1559196052.0148048 291.62324 59.73984 -21.87254 0.98356 0.01512 0.00441 0.17988
1559196052.2146804 293.61619 60.36679 -21.87493 0.98354 0.01810 0.00349 0.17974
1559196052.4145482 295.54524 61.43046 -21.88170 0.98401 0.01591 0.00085 0.17739
1559196052.6148934 297.58188 61.92087 -21.89447 0.98379 0.01573 0.00350 0.17862
1559196052.8153806 299.56761 62.62541 -21.91773 0.98380 0.01621 0.00378 0.17848
1559196053.014623 301.52912 63.25645 -21.91309 0.98368 0.01762 0.00167 0.17904
1559196053.2146316 303.45888 64.22243 -21.92400 0.98409 0.01902 0.00504 0.17658
